50 46
4:10035 0.0022500 0.0000000 0.0085000 0.0000000 0.0000000 0.0001675 0.0000000 0.0001675 0.0000000 0.0001675 0.0000000 0.0000000 0.0000000 0.0000000 0.0000000 0.0000000 0.0011675 0.0000000 0.0000000 0.0000000 0.0000000 0.0000000 0.0000000 0.0000000 0.0021675 0.0000000 0.0000000 0.0000000 0.0010825 0.0003325 0.0016675 0.0000000 0.0000000 0.0000000 0.0005000 0.0000000 0.0000000 0.0002500 0.0000000 0.0000000 0.0000000 0.0000000 0.0138325 0.0023325 0.0002500 0.0000000
4:10038 1.7376675 1.0000000 0.4507500 0.0046675 1.0000000 0.0021675 0.0000000 0.0055000 0.0000000 0.0030825 0.0000000 1.0000000 1.0000000 0.0000000 0.0000000 0.0000000 0.0235825 1.0000000 1.0000000 1.0000000 0.0000000 0.0000000 0.0000000 0.0002500 1.0002500 1.0000000 1.0000000 1.0000000 0.0238325 0.0215825 0.0505825 0.0000000 1.0000000 1.0000000 0.0457500 0.0008350 0.0003325 0.0029150 1.0000000 0.0000000 1.9760000 0.0000000 0.2660000 0.2740825 0.0065850 0.0000000
4:10041 0.0030850 0.0000000 0.0665825 0.0006675 0.0000000 0.0000000 0.0000000 0.0001675 0.0000000 0.0000000 0.0000000 0.0000000 0.0000000 0.0000000 0.0000000 0.0000000 0.0008325 0.0000000 0.0000000 0.0000000 0.0000000 0.0000000 0.0000000 0.0000000 0.0017500 0.0000000 0.0000000 0.0000000 0.0012500 0.0000825 0.0024150 0.0000000 0.0000000 0.0000000 1.1422500 1.9065000 0.0000825 0.0002500 0.0000000 0.0000000 0.0001675 0.0009175 0.0176650 0.0665000 0.0002500 0.5104175
4:10054 0.0005000 0.0000000 0.0242500 0.0000000 0.0000000 0.0000000 0.0000000 0.0000000 0.0000000 0.0000000 0.0000000 0.0000000 0.0000000 0.0000000 0.0000000 0.0000000 0.0004175 0.0000000 0.0000000 0.0000000 0.0000000 0.0000000 0.0000000 0.0000000 0.0003325 0.0000000 0.0000000 0.0000000 0.0000000 0.0002500 0.0009175 0.0000000 0.0000000 0.0000000 0.0008325 0.0000000 0.0000000 0.0000000 0.0000000 0.0000000 0.0000000 0.0000000 0.0052500 0.0588325 0.0000000 0.0000000
4:10059 0.0050000 0.0000000 0.1243325 0.0005000 0.0000000 1.0000000 0.0000000 0.0001650 0.0000000 0.0007500 0.0000000 0.0000000 0.0000000 0.0000000 0.0000000 0.0000000 1.0000000 0.0000000 0.0000000 0.0000000 0.0000000 0.0000000 0.0000000 0.0000000 0.0045825 1.0000000 0.0000000 0.0000000 0.0020000 0.3280000 0.0035000 0.0000000 0.0000000 1.0000000 0.0031650 0.0005000 0.0000000 0.0000825 0.0000000 0.0000000 0.0002500 0.0000000 0.0300000 0.0809175 0.0007500 0.0000000
4:10066 0.0010000 0.0000000 0.0093325 0.0001675 0.0000000 0.0000000 0.0000000 0.0001675 0.0000000 0.0000000 1.0000000 0.0000000 0.0000000 0.0000000 0.0000000 0.0000000 0.0004150 0.0000000 0.0000000 0.0000000 0.0000000 0.0000000 0.0000000 0.0000000 0.0008350 0.0000000 0.0000000 0.0000000 0.0005000 0.0000000 0.0010000 0.0000000 0.0000000 0.0000000 0.0006675 0.0002500 0.0000000 0.0000000 0.0000000 0.0000000 0.0000000 0.0000000 0.0077500 0.0097500 0.0000000 0.0000000
4:21031 0.0082500 0.0000000 0.0368325 0.0021675 0.0000000 0.0000000 0.0010850 0.0020000 0.0000000 0.0000000 0.0000000 0.0092500 0.0000000 0.0000000 0.0010000 0.0000000 0.0015000 0.0019150 0.0015850 0.0002500 0.0000000 0.0010850 0.0000000 0.0020825 0.0343325 0.0002500 0.0000000 0.0000000 0.0020850 0.0025000 0.0366650 0.0002500 0.0005000 0.0000000 0.0002500 0.0013350 0.0000000 0.0090850 0.0000000 0.0000000 0.0019175 0.0007500 0.0176675 0.0423350 0.0141675 0.0000000
4:21035 0.0288325 0.0000000 0.0415000 0.0080000 0.0004175 0.0000825 0.0019175 0.0048350 0.0000000 0.0000000 0.0000000 0.0272500 0.0000000 0.0000000 0.0093325 0.0000000 0.9258325 0.0047500 1.0008325 0.0000000 0.0018325 1.0000000 1.0000000 0.0037500 0.0990825 0.0000000 0.0000000 0.0017500 0.9670825 0.0062500 0.1054175 0.0000000 0.0039175 0.0000000 0.0019175 0.0038325 0.0000000 0.0281675 0.0000000 0.0006675 0.0095825 0.0044175 1.0041675 0.0130825 0.0570825 0.0023325
4:21041 0.0008350 0.0000000 0.0030000 0.0002500 0.0000000 0.0000000 0.0001675 0.0000000 0.0000000 0.0000000 0.0000000 0.0003325 0.0000000 0.0000000 0.0005850 0.0000000 0.0000825 0.0005000 0.0002500 0.0000000 0.0000000 0.0000000 0.0000000 0.0000825 0.0020850 0.0000000 0.0000000 0.0000000 0.0004175 0.0000000 0.0025000 0.0000000 0.0001675 0.0000000 0.0000000 0.0002500 0.0000000 0.0005000 0.0000000 0.0000000 0.0000000 0.0001675 0.0020000 0.0239175 0.0013325 0.0002500
4:21044 0.0079175 0.0000000 0.0458325 0.0020000 0.0005000 0.0001675 0.0000825 0.0001675 0.0000000 0.0000000 0.0000000 0.0037500 0.0000000 0.0000000 0.0014175 0.0000000 0.0013350 0.0025000 0.0008325 0.0000000 0.0003350 0.0003350 0.0000000 0.0005850 0.0336675 0.0000000 0.0000000 0.0007500 0.0026675 0.0016675 0.0328325 0.0000000 0.0003325 0.0000000 0.0003325 0.0012500 0.0000000 0.0053325 0.0000000 0.0001675 0.0020850 0.0015825 0.0132500 0.0256650 0.0166675 0.0006650
4:21052 0.0061675 0.0000000 0.0472500 0.0020825 0.0007500 0.0000000 0.0006675 0.0009175 0.0000000 0.0000000 0.0000000 0.0039150 0.0000000 0.0000000 0.0015000 0.0000000 0.0010000 0.0015825 0.0010000 0.0000000 0.0002500 0.0001675 0.0000000 0.0010850 0.0309175 0.0000000 0.0000000 0.0004150 0.0024175 0.0009175 0.0285000 0.0000000 0.0010825 0.0000000 0.0004175 0.0008350 0.0000000 0.0028350 0.0000000 0.0000825 0.0028325 0.0010825 0.0160000 0.0268325 0.0151650 0.0013325
4:21071 0.0092500 0.0000825 0.0244175 0.0030850 0.0001675 0.0000825 0.0001675 0.0003325 0.0000000 0.0000000 0.0000000 0.0034150 0.0000000 0.0000000 0.0002500 0.0000000 0.0010850 0.0020000 0.0008325 0.0000000 0.0000825 0.0001675 0.0000000 0.0005000 0.0330000 0.0000000 0.0000000 0.0010850 0.0016675 0.0022500 0.0363350 0.0000000 0.0007500 0.0000000 0.0000825 0.0005825 0.0000000 0.0100000 0.0000000 0.0000000 0.0026675 0.0012500 0.0152500 0.0452500 0.0139175 0.6414175
4:21083 0.0048350 0.0000000 0.0056675 0.0015825 0.0002500 0.0000000 0.0000000 0.0000000 0.0000000 0.0000000 1.0000000 0.0040825 0.0000000 0.0000000 0.0001675 0.0001675 0.0010000 0.0014150 0.0008350 0.0000000 0.0000000 0.0001675 0.0000000 0.0000825 0.0161650 0.0000000 0.0000000 0.0000000 0.0010825 0.0006675 0.0205000 0.0000000 0.0008325 0.0000000 0.0001675 0.0009175 0.0000000 0.0018325 0.0000000 0.0002500 0.0016675 0.0002500 0.0101675 0.0006675 0.0104175 0.0004175
4:21109 0.0181675 0.0000000 0.0612500 0.0039175 0.0007500 0.0000000 0.0010000 0.0012500 0.0000000 0.0000000 0.0000000 0.0080850 0.0000000 0.0000000 0.0000825 0.0000000 0.0022500 1.0000000 0.0019175 0.0000000 0.0000825 0.0010000 0.0000000 0.0021650 0.0758325 0.0000000 0.0000000 0.0008325 0.0030000 0.0017500 0.0642500 0.0000000 0.0010000 1.0000000 0.0005000 0.0028325 0.0000000 0.0052500 0.0000000 0.7840825 0.0034175 0.0027500 0.0385000 0.0300850 0.0359150 0.0006675
4:171310 0.2340000 0.9193325 0.2629150 0.0307500 0.0198325 0.0355850 0.0000000 0.0649150 1.0000000 0.0007500 0.1166675 0.2400825 0.0314175 0.0031675 0.2318325 0.1182500 0.2325000 0.2315825 0.0645850 0.1205000 0.0047500 0.0630850 0.0162500 1.0041675 0.0616650 1.0003325 1.0000000 0.0205000 0.2450825 0.2418350 0.2360825 0.2347500 0.0596675 0.0304150 1.0000000 1.2112500 0.0009175 0.1164175 1.0000000 0.0342500 0.1177500 0.0048325 0.2286675 0.1410850 0.0318350 0.9888350
4:171315 0.0245825 0.0044175 0.0297500 0.0047500 0.0005000 0.0021675 0.0000000 0.0073325 0.0000000 0.0002500 0.0154175 0.0328325 0.0030000 0.0000000 0.0307500 0.0139175 0.0301650 0.0323350 0.0075000 0.0140000 0.0004150 0.0086675 0.0021675 0.0017500 0.0109175 0.0020825 0.0010000 0.0015000 0.0245000 0.0280000 0.0245000 0.0347500 0.0061650 0.0039175 0.0004175 0.0077500 0.0001675 0.0123325 0.0000000 0.0020850 0.0141675 0.0002500 0.0295000 0.0246675 0.0024150 0.0030000
4:171318 0.0214175 0.0030000 0.0076675 0.0023325 0.0001675 0.0009175 0.0000000 0.0057500 0.0000000 0.0000000 0.0092500 0.0002500 0.0033350 0.0003325 0.0030000 0.0026675 0.0219175 0.0220000 0.0062500 0.0087500 0.0007500 0.0068325 0.0000000 0.0017500 0.0101675 0.0004150 0.0005000 0.0012500 0.0211675 0.0238325 0.0113325 0.0097500 0.0050000 0.0005000 0.0001675 0.0040000 0.0000000 0.0101675 0.0000000 0.0023325 0.0125825 0.0003350 0.0189175 0.0020825 0.0029150 0.0021650
4:171334 0.0500000 0.0065000 0.0310825 0.0071675 0.0014175 0.0065825 0.0000000 0.0121675 0.0002500 0.0000000 0.0233325 0.0004175 0.0052500 0.0006675 0.0062500 0.0053325 0.0457500 0.0455825 0.0115825 0.0237500 0.0006675 0.0118350 0.0000000 0.0028325 0.0245850 0.0030850 0.0013350 0.0019175 0.0414175 0.0473350 0.0235825 0.0242500 0.0115825 0.0006675 0.0001650 0.0100850 0.0000000 0.0246650 0.0000000 0.0025000 0.0216650 0.0010000 0.0475825 0.0601650 0.0049150 0.0045000
4:171339 0.0512500 0.0076675 0.0286650 0.0068325 0.0014150 0.0025000 0.0000000 0.0165000 0.0002500 0.0002500 0.0267500 0.0000825 0.0064150 0.0006675 0.0077500 0.0085825 0.0660000 0.0565850 0.9805825 0.0279150 0.0001675 0.0173325 0.0000000 0.0042500 0.0147500 0.0034150 0.0013350 0.0035000 0.0587500 0.0529175 0.0290825 0.0215000 0.0136650 0.0005825 0.0003325 0.0133325 1.0000000 0.9437500 0.0000000 0.0028325 0.0298325 0.0005000 0.0501675 0.0052500 0.0080000 0.0084175
4:218124 0.0050825 0.0014175 0.0280000 0.0021675 0.0002500 0.0017500 0.0000000 0.0007500 0.0000000 0.0000000 0.0070000 0.0000000 0.0000000 0.0000000 0.0019175 0.0020825 0.0070850 0.0049175 0.0020000 0.0031675 0.0000000 0.0039175 0.0000000 0.0000000 0.0013350 0.0000000 0.0000000 0.0010000 0.0011675 0.0014150 0.0060000 0.0006675 0.0000000 0.0009175 0.0000000 0.0002500 0.0000000 0.0051675 0.0000000 0.0000000 0.0016675 0.0012500 0.0099150 0.0370825 0.0074175 0.0000000
4:218136 0.0249175 0.9836675 0.0225000 0.0136650 0.0004175 0.0079175 0.0000000 0.0018325 0.0000825 0.0000000 0.0570825 0.0001675 0.0015000 0.0000000 0.0072500 0.0085000 0.0596650 0.0301650 0.9877500 0.0115850 0.0002500 0.0147500 0.0000000 0.0002500 0.0140825 0.0005000 0.0000000 0.0278350 0.0131675 0.0066675 0.0284175 0.0060000 0.0026675 0.0038325 0.0000000 0.0014175 0.0000000 0.0300825 0.0000000 0.0004175 0.0267500 0.0143325 0.0570825 0.0192500 0.0565000 0.0003325
4:218139 0.1107500 0.9920000 0.2287500 0.0556650 0.0020000 0.0339150 0.0000825 0.0117500 0.0000000 0.0000000 0.2145000 0.0011650 1.0000000 0.9995000 0.0322500 0.0355000 0.2178350 1.0929150 0.0572500 0.0494175 0.0004175 0.0631675 0.0000000 0.0018325 0.1208325 0.0019175 1.0000000 0.1105825 0.0566675 0.0307500 1.1035000 0.9843325 0.0085850 0.0131675 1.0000000 1.0000000 0.0000000 0.1060000 0.0000000 0.0011650 0.1107500 0.0320850 0.2187500 0.1332500 0.2298325 0.0026675
4:218143 0.0150000 0.0054175 0.0119175 0.0066650 0.0000000 0.0041650 0.0000000 0.0018350 0.0000000 0.0000000 0.0220850 0.0000000 0.0007500 0.0000000 0.0039175 0.0026675 0.0237500 0.0125825 0.0079150 0.0058350 0.0000000 0.0060850 0.0000000 0.0000000 0.0063350 0.0000825 0.0000000 0.0109150 0.0080000 0.0035000 0.0118350 0.0029175 0.0004175 0.0014150 0.0000000 0.0001675 0.0000000 0.0136650 0.0000000 0.0002500 0.0035825 0.0035000 0.0251675 0.0055000 0.0266650 0.0000000
4:218164 0.0120850 0.0066650 0.0144175 0.0072500 0.0000825 0.0052500 0.0000000 0.0015825 0.0000825 0.0000000 0.0280000 0.0000000 0.0005825 1.0000000 0.0036675 0.0035000 0.0268325 0.0141675 0.0073350 0.0054175 0.0000000 0.0059175 0.0000000 0.0002500 0.0065850 0.0000000 0.0000000 0.8170000 0.0050825 0.0039175 0.0130000 0.0051675 0.0004175 0.0015825 0.0000000 0.0004175 0.0000000 0.0121675 0.0000000 0.0000825 0.0079175 0.0040850 0.0241675 0.0058325 0.0270000 0.0000000
4:218174 0.1101650 0.9909175 0.2215000 0.0586675 0.0023350 0.0272500 0.0000000 0.0137500 0.0002500 0.0000000 0.2203350 0.0020825 1.0000000 0.9995825 0.0300000 0.0267500 0.2213325 1.1052500 0.0611650 0.0544175 0.0027500 0.0617500 0.0000825 0.0051675 0.1085850 0.0022500 1.0000000 0.1140000 0.0555000 0.0326675 1.1031675 0.9816675 0.0091675 0.0163325 1.0000000 1.0000000 0.0000000 0.1144150 0.0000000 0.0011675 0.0569150 0.0510000 0.2225825 0.1260825 0.2266675 0.0014175
4:218177 0.0040850 0.0019175 0.0075000 0.0015850 0.0000000 0.0017500 0.0000000 0.0004175 0.0000000 0.0000000 0.0095000 0.0000000 0.0001675 0.0000000 0.0016650 0.0011650 0.0095000 0.0054150 0.0020000 0.0025825 0.0000000 0.7389175 0.0000000 0.0000000 0.0032500 0.0000825 0.0000000 0.0055000 0.0015000 0.0004175 0.0052500 0.0010000 0.0003325 0.0010825 0.0001675 0.0000000 0.0000000 0.0052500 0.0000000 0.0000000 0.0044175 0.0015850 0.0094175 0.0158350 0.0092500 0.0000000
4:238785 0.0454175 0.0119175 0.1600000 0.0238350 0.0103325 0.0123350 0.9980000 0.0435000 0.0000000 0.0000825 0.0765825 0.0010850 0.0415000 0.1065825 0.0214175 0.0832500 0.0116675 0.0468350 0.0002500 0.0186675 0.0909175 0.0112500 0.0220825 0.0034175 0.0024150 0.0144175 0.0020000 0.0038325 0.0470825 0.0138325 0.0891675 0.0000000 0.0005000 0.0003325 0.0778325 0.0234150 0.0064175 0.0432500 0.0000000 0.0830000 0.0099175 0.0004175 0.0900000 0.2664175 0.0444175 0.0006675
4:238815 0.0013325 0.0003350 0.0071675 0.0001675 0.0002500 0.0008325 0.0000000 0.0024150 0.0000000 0.0000000 0.0035825 0.0001675 0.0010825 0.0029175 0.0006650 0.0007500 0.0001675 0.0010825 0.0000000 0.0004175 0.0015850 0.0000000 0.0002500 0.0001675 0.0001675 0.0009175 0.0000000 0.0002500 0.0019175 0.0001675 0.0021675 0.0000000 0.0000000 0.0001675 0.0028350 0.0001675 0.0001675 0.0000825 0.0000000 0.0030000 0.0000825 0.0000000 0.0033350 0.0241675 0.0015000 0.0000000
4:238824 0.0178325 0.0038325 0.0191650 0.0040850 0.0042500 0.0058325 0.0000000 0.0185000 0.0000000 0.0000000 0.0364150 0.0002500 1.0340825 0.0081675 0.0071650 0.0178325 0.0025825 0.0074175 0.0000000 0.9655825 0.0099175 0.0026650 0.0021650 0.0006675 0.0000000 0.0050850 0.0009175 0.0021675 0.0159150 0.0015850 0.0345000 1.0035000 0.0000000 0.0003325 0.0365000 0.0051650 0.0010825 0.0045000 0.0000000 0.0376675 0.0050000 0.0000000 0.0360000 0.0060825 0.0179150 0.0001675
4:238845 0.0150000 0.0025825 0.0082500 0.0052500 0.0048325 0.0029175 0.0000000 0.0135000 0.0000000 0.0000000 0.0283325 0.0000000 0.0075850 0.0022500 0.0068350 0.0112500 0.0019175 0.0089150 0.0000000 0.0076675 0.0065000 0.0016650 0.0000000 0.0010825 0.0004150 0.0043325 0.0001675 0.0009150 0.0130850 0.0022500 0.0269150 0.0000000 0.0000000 0.0001675 0.0311675 0.0014150 0.0001675 0.0041650 1.0000000 0.0272500 1.0000000 0.0000000 0.0225825 0.0019175 0.0121675 0.0000000
4:238880 0.0139175 0.0000000 0.1397500 0.0189150 0.0000000 0.0000000 0.0000000 0.0026675 0.0000000 0.0000000 0.0068325 0.0000000 0.0011675 0.0024150 0.0007500 0.0215850 0.0388325 0.0105850 0.0017500 0.0115000 0.0124175 0.0099175 0.0000000 0.0000000 0.0187500 0.0036675 0.0000000 0.0000000 0.0216675 0.0049175 0.0075000 0.0000825 0.0000000 0.0000000 0.0000825 0.0000825 0.0013325 0.0454150 0.0000000 0.0059150 0.0000000 0.0046650 0.0444150 0.0689175 0.0240825 0.0000000
4:238911 0.0156675 0.0001675 0.0190825 0.0190825 0.0001675 0.0000000 0.0000000 0.0022500 0.0000000 0.0000000 0.0039175 0.0000000 0.9986675 0.0025850 0.0019175 0.0175000 0.0374175 0.0100850 0.0021675 0.0097500 0.0110000 0.0090000 0.0000000 0.0000000 0.0204175 0.0022500 0.0000000 0.0000000 0.0206675 0.0022500 0.0030825 0.0000000 0.0000000 0.0000825 0.0000825 0.0000000 0.0036675 0.0355825 0.0000000 0.0049175 0.0000000 0.0047500 0.0393350 0.0153325 0.0191675 0.0001675
4:238920 0.0274175 1.0000000 0.0360000 0.1065000 0.0001675 0.9910825 0.0000000 0.0061675 0.0000000 0.0000000 0.0111675 0.0000000 0.0003325 0.0080825 0.0042500 0.0505850 0.1048325 0.0514150 0.0074175 0.0264175 0.0241675 0.0265850 0.0000000 0.0000000 0.0489150 0.0076675 0.0000000 0.0000000 0.0514150 0.0055825 0.0131650 0.0005000 1.0000000 0.0002500 0.0004175 0.0006650 0.0020000 0.0994150 0.0000000 0.0131675 0.0000000 0.0142500 0.0960000 0.0073325 0.0539175 0.0000000
4:238923 0.0212500 0.0005850 0.0633350 0.9684175 1.0000000 0.0000000 0.0000000 0.0046675 0.0000000 0.0000000 0.0117500 0.0000000 0.9996650 0.0051650 0.0019175 0.0395000 0.0825850 0.0228350 0.0045000 0.0176675 0.0201675 0.0179175 0.0000000 0.0000000 0.0362500 0.0054175 0.0000000 0.0000000 0.0381650 0.0055000 0.0083350 0.0005825 0.0000000 0.0003325 0.0005825 0.0009175 0.0041675 0.0697500 0.0000000 0.0080000 0.0000000 0.0195000 0.0738325 0.1333325 0.0372500 0.0000000
4:238947 0.0070850 0.0000000 0.0158325 0.0176675 0.0000000 0.0000000 0.0000000 0.0022500 0.0000000 0.0000000 0.0040825 0.0000000 0.0002500 0.0012500 0.0005000 0.0167500 0.0388325 0.0115000 0.9084175 0.0083325 0.0095000 0.0086675 0.0000000 0.0000000 0.0210000 0.0105000 0.0000000 0.0000000 0.0224175 0.0104150 0.0035000 0.0011675 0.0000000 0.0000000 0.0000825 0.0004175 0.0012500 0.0404150 0.0000000 0.0049175 0.0002500 0.0169175 0.0467500 0.0021650 0.0204150 1.0000000
4:294766 0.0035850 0.0050825 0.0094175 0.0184150 0.0000000 0.0008325 0.0000000 0.0038350 0.0000000 0.0000000 0.0068325 0.0000000 0.0082500 0.0009175 0.0170825 0.0000825 0.0043325 0.0350825 0.0045825 0.0005850 0.0019175 0.0139150 0.0000000 0.0005000 0.0136675 0.0005000 0.0000000 0.0295000 0.0120000 0.0178325 0.0135850 0.0138325 0.0003325 0.0000000 0.0000000 0.0104175 0.0009175 0.0174175 0.0000000 0.0003325 0.0006675 0.0001675 0.0148350 0.0061675 0.0079175 0.0006675
4:294772 0.0145000 0.0150000 0.1378350 0.0606675 0.0000000 0.0032500 0.0000000 0.0165000 0.0000000 0.0000000 0.0269150 0.0004175 0.0149175 0.0049175 0.0666650 0.0006675 0.0139175 0.1178350 0.0145000 0.0045825 0.0086650 0.0513325 0.0000000 0.0015000 0.0556675 0.0004150 0.0000000 0.1145000 0.0535000 1.0424175 0.0594175 0.0560850 1.0033325 0.0000000 0.0009175 0.0305825 0.0025850 0.0610825 0.0000000 0.7461650 0.0012500 0.0003350 0.0641650 0.2815000 0.0272500 0.0025000
4:294781 0.0070000 0.0099175 0.0515850 0.0324175 0.0000000 0.0022500 0.0000000 0.0073325 0.0000000 0.0000000 0.0169150 0.0004175 0.0081675 0.0005000 0.0330000 1.0051675 0.0076650 0.0655850 0.0079150 0.0019175 0.0019175 0.0319175 0.0000000 0.0009150 0.0329150 0.0008350 0.0000000 0.0653325 0.0331650 0.0295825 0.0325000 0.0290825 0.0001650 0.0000000 0.0005000 0.0153350 0.0014150 0.0285000 0.0000000 0.0010000 0.0018325 0.0001675 0.0305825 0.0259175 0.0172500 0.0003325
4:294802 0.0003325 0.0002500 0.0022500 0.0008350 0.0000000 0.0002500 0.0000000 0.0002500 0.0000000 0.0000000 0.0003325 0.0001675 0.0000825 0.0001675 0.0027500 0.0000000 0.0000000 0.0020850 0.0000000 0.0000000 0.0000000 0.0006675 0.0000000 0.0000000 0.0015850 0.0000000 0.0000000 0.0010850 0.0010825 0.0000825 0.0014175 0.0002500 0.0000000 0.0000000 0.0000000 0.0000000 0.0000000 0.0007500 0.0000000 0.0001675 0.0000000 0.0000000 0.0012500 0.0103325 0.0001675 0.0000000
4:294805 0.0073350 0.0077500 0.0578350 0.0294150 0.0000000 0.0023325 0.0000000 0.0070825 0.0000000 0.0000000 0.0109175 0.0000825 0.0067500 0.0021675 0.0270000 0.0000825 0.0077500 0.0560825 0.0063325 1.0000000 0.0023325 0.0276650 0.0000000 0.0009175 0.0334150 0.0000000 1.0000000 0.0642500 0.0301675 0.0286675 0.0231675 0.0162500 0.0005000 0.0000000 0.0000825 0.0075825 0.0000825 0.0223350 1.0000000 1.0000000 0.0012500 0.0001675 0.0277500 0.0307500 0.0135000 0.0004150
4:294822 0.0004175 0.0010000 0.0263350 0.0037500 0.0000000 0.0000000 0.0000000 0.0021675 0.0000000 0.0000000 0.0025825 0.0000000 0.0008325 0.0010850 0.0042500 0.0000000 0.0007500 0.0081675 0.0011650 0.0005000 0.0000000 0.0040000 0.0000000 0.0004175 0.0031675 0.0000825 0.0000000 0.0057500 0.0048325 0.0035825 0.0028325 0.0020825 0.0000000 0.0000000 0.0001675 0.0009175 0.0002500 0.0032500 0.0000000 0.0000000 0.0005000 0.0000000 0.0030000 0.0449175 0.0023325 0.0000000
4:294865 0.0035000 0.0000000 0.0125850 0.0258350 0.0000000 0.0000000 0.0000000 0.0005000 0.0000000 0.0000000 0.0002500 0.0000000 0.0028350 0.0002500 0.0051650 0.0000000 0.0032500 0.0051675 0.0042500 0.0073325 0.0000000 0.0000825 0.0000000 0.0007500 0.0040000 0.0000000 0.0000825 0.0000000 0.0005825 0.0137500 0.0034175 0.0035000 0.9996675 0.0000000 0.0000000 0.0000000 0.0000000 0.0276675 0.0000000 0.0060825 0.0000000 0.0008350 0.0166675 0.0048325 0.0007500 0.0002500
4:294871 0.0065000 0.0000000 0.0429150 0.0508325 0.0001650 0.0000000 0.0000000 0.0030000 0.0000000 0.0000000 0.0005825 0.0000000 0.0073325 0.0000000 0.0120000 0.0000000 0.0056675 0.0134175 0.0070000 0.0088350 0.0002500 0.0003325 0.0000000 0.0020825 0.0061675 0.0000000 0.0000000 0.0000000 0.0010000 0.0264175 0.0070000 0.0082500 0.0024150 0.0000000 0.0000000 0.0003325 0.0000000 0.0475000 0.0000000 0.0130000 0.0001675 0.0003325 0.0220850 0.0808325 0.0015825 0.0026650
4:294874 0.0033325 0.0001675 0.0260000 0.0246675 0.0000825 1.0000000 0.0000000 0.0011675 0.0000000 0.0000000 0.0000825 0.0000000 0.0016675 0.0000000 0.0083350 0.0000000 0.0036675 0.0075000 0.0039175 0.0058350 0.0005000 0.0002500 0.0000000 0.0013325 0.0022500 0.0000000 0.0000000 0.0000000 0.0007500 0.0130850 0.0055825 0.0061675 0.0011675 0.0000000 0.0000000 0.0000000 0.0000000 0.0277500 0.0000000 0.0055000 0.0000000 0.0002500 0.0154150 0.0594175 0.0003325 0.0011675
4:294908 0.0018325 0.0000000 0.0258325 0.0130000 0.0000000 0.0000000 0.0000000 0.0000000 0.0000000 0.0000000 0.0005000 0.0000000 0.0007500 0.0000000 0.0025000 0.0000000 0.0000825 0.0023350 0.0010825 0.0023350 0.0000000 0.0000000 0.0000000 0.0005000 0.0010000 0.0000000 0.0000000 0.0000000 0.0007500 0.0058325 0.0031650 0.0024150 0.0010000 0.0000000 0.0000000 0.0000000 0.0000825 0.0095850 0.0000000 0.0030000 0.0000000 0.0005825 0.0049175 0.0175825 0.0006675 0.0004175
4:294928 0.0045000 0.0000000 0.0733350 0.0394150 0.0004175 0.0000000 0.0055000 0.7402500 0.0000000 0.0000000 0.0000825 0.0000000 0.0103325 0.0000000 0.0194150 0.0000000 0.0052500 0.0102500 0.0090000 0.0092500 0.0000000 0.0004175 0.0000000 0.0029175 0.0059175 0.0002500 0.0000000 0.0000000 0.0002500 0.0152500 0.0045000 0.0102500 0.0025000 0.0000000 0.0000000 0.0004175 0.0000000 0.0271650 0.0000000 0.0095850 0.0005000 0.0011675 0.0140825 0.1178325 0.0030000 0.0022500
4:332437 0.0749175 0.0016675 0.1974150 0.0417500 0.9993325 0.0000000 0.0000000 0.9955000 0.0000000 0.0000000 0.0816650 0.1502500 0.9964150 0.0017500 0.8725850 0.0000000 0.6165000 0.1405000 0.0214175 0.0696675 0.0016675 0.0756675 0.0000000 0.0000000 0.0053325 0.9798350 0.9930825 0.0007500 0.0680850 1.3790000 0.0070000 0.9990000 0.0051650 0.0219150 0.0001675 0.0106675 0.0085000 0.0623325 0.0000000 0.7322500 0.9296650 0.0778350 0.0713325 0.1374150 0.0799150 0.0002500
4:332441 0.0045825 0.1682500 0.0364175 0.0022500 0.0000000 0.0000000 0.0000000 0.0005825 0.0000000 0.0000000 0.0054175 0.0050000 0.0003325 0.0000000 0.0029175 0.0000000 0.0004175 0.0135850 0.0024175 0.0044175 0.0000000 0.0050825 0.0000000 0.0005000 0.0005825 0.0000000 0.0000000 0.0001675 0.0052500 0.0007500 0.0004150 0.0000000 0.0000000 0.0019175 0.0000000 0.0002500 0.0007500 0.0036650 0.0000000 0.0000000 0.0000000 0.0054150 0.0050825 0.0415825 0.0067500 0.0000000
4:332453 0.0111675 0.0000000 0.0212500 0.0047500 0.0000000 0.0000000 0.0000000 0.0004175 0.0000000 0.0000000 0.0104175 0.0183325 0.0005825 0.3090825 0.0025000 0.0000000 0.0012500 0.0231650 0.0015000 0.0096675 0.0000000 0.0111675 0.0000000 0.0000000 0.0033325 0.0000000 0.0000000 0.0000825 0.0086675 0.0008325 0.0012500 0.0000000 0.0000000 0.0028350 0.0000000 0.0000825 0.0015000 0.0097500 0.0000000 0.0000000 0.0000000 0.0086650 0.0105000 0.0506675 0.0070000 0.0000000
4:332493 0.0320825 0.0000000 0.1140850 0.0152500 0.0014175 0.0000000 0.0000000 0.0036675 0.0000000 0.0000000 0.0290825 0.9151650 0.0020825 0.0860825 0.0175000 0.2025850 0.0050000 0.0631675 0.0093325 0.0297500 0.0000000 0.0300825 0.0000000 0.0371675 0.0014150 0.0000000 0.0000000 0.0005825 0.0315825 0.0044175 0.0047500 0.0000000 0.0005825 0.0085000 0.0000000 0.5045000 0.0048350 0.0270000 0.0000000 0.0000000 0.0001675 0.0341675 0.0317500 0.0654175 0.8577500 0.0063325
