50 18
4:10035 0.0007500 0.0000000 0.0026650 0.0013325 0.0000000 0.0013325 0.0000000 0.0000000 0.0008350 0.0000000 0.0000000 0.0000000 0.0000000 0.0000000 0.0002500 0.0000000 0.0000000 0.0000000
4:10038 0.0667500 0.0000000 0.0700000 1.0000000 0.0040000 1.5382500 0.0000000 0.0000000 0.0185850 0.0005825 0.0000000 0.0000000 0.0000000 1.0000000 0.0069150 1.0000000 0.0000000 0.0000000
4:10041 0.0080000 0.0000000 0.0074150 0.0020825 0.0000000 0.0080000 0.0000000 0.0000000 0.0023325 0.0000000 0.0000000 0.0000000 0.0000000 0.0000000 0.0001650 0.0000000 1.9955825 0.0000000
4:10054 0.0020000 1.0000000 0.0014175 0.0008325 0.0000000 0.0013325 0.0000000 0.0000000 0.0000825 0.0000000 0.0000000 0.0000000 0.0000000 0.0000000 0.0004175 0.0000000 0.0000000 0.0000000
4:10059 0.0088325 0.0000000 0.0114175 0.0030825 0.0028350 0.0110000 0.0000000 0.0000000 0.0007500 0.0001675 0.0000000 0.0000000 0.0000000 0.0000000 0.0010825 0.0000000 0.0000000 0.0000000
4:10066 0.0018325 0.0000000 0.0020000 0.0010000 0.0001675 0.0029175 0.0000000 0.0000000 0.0003325 0.0002500 0.0000000 0.0000000 0.0000000 0.0000000 0.0002500 0.0000000 0.0000000 0.0000000
4:21031 0.0166675 0.0005825 0.0022500 0.0008350 0.0088325 0.0179175 0.0005850 0.0000825 0.0336675 0.0012500 0.0000000 1.2235000 1.0061650 0.3625825 0.0088350 0.0000000 0.0000000 0.0000000
4:21035 0.0362500 0.0008350 0.0037500 0.0025850 0.0182500 0.0345825 0.0021675 1.0000000 0.0748325 0.0045825 0.0001675 0.0026650 0.0002500 0.0014150 0.0186675 0.0004175 0.0000000 0.0000000
4:21041 0.0071675 0.0000000 0.0002500 0.0003325 0.0051675 0.0066675 0.0000825 0.0000825 0.0189175 0.0005000 0.0000000 0.0005825 0.0002500 0.0005000 0.0042500 0.0000000 0.0000000 0.0000000
4:21044 0.0317500 0.0000000 0.0023325 0.0001650 0.0073350 0.0134175 0.0004175 0.0003325 0.0306675 0.0025000 0.0002500 0.0009175 0.0000000 0.0005000 0.0072500 0.0000000 0.0000000 0.0000000
4:21052 0.0165000 0.0004150 0.0030825 0.0003325 0.0080000 0.0161650 0.0005000 0.0002500 0.0250825 0.0009175 0.0001675 1.2992500 1.0000000 0.2864150 0.0097500 0.0000000 0.0000000 0.0000000
4:21071 0.0186675 0.0000000 0.0015825 0.0005000 0.0075000 0.9943325 0.0000000 0.0000000 0.0365000 0.0025825 0.0001675 0.0009175 0.0000825 1.0005825 0.0102500 0.0001675 0.0000000 0.0000000
4:21083 0.0081650 0.0002500 0.0006675 0.0000000 0.0048325 0.0083325 0.0002500 0.0000000 0.0140000 0.0010000 0.0000000 0.0005000 0.0000000 0.0010000 0.0045000 0.0000000 0.0000000 0.0000000
4:21109 0.0339175 0.0011675 0.0032500 0.0007500 0.0155825 0.0304150 0.0005825 0.0000000 0.0551675 0.0047500 0.0002500 0.0009150 0.0005000 0.0020000 0.0153325 0.0000000 0.0002500 0.0000000
4:171310 0.0505000 0.0019175 0.0165825 0.0065000 0.0065850 0.1007500 0.0600825 0.1057500 0.0490825 0.2072500 0.0021675 0.0002500 0.0133350 0.2044150 0.0983325 0.0075825 0.0237500 0.0024150
4:171315 0.0060850 0.0005000 0.0016650 0.0005825 0.0009175 0.0130000 0.0075000 0.0122500 0.0072500 0.0250000 0.0002500 0.0000000 0.0017500 0.0290000 0.0034175 0.7179175 0.0040825 0.0001675
4:171318 0.0030825 0.0000000 0.0011675 0.0002500 0.0002500 0.0078325 0.0041675 0.0100000 0.0030825 0.0161675 0.0002500 0.0000000 0.0010000 0.0084150 0.0030825 0.0000000 0.0024175 0.0000000
4:171334 0.0149150 0.0003325 0.0028325 0.0155000 0.0021675 0.0299175 1.0589175 0.0285000 0.0159150 0.0660825 0.0003350 0.0007500 0.0037500 0.0140850 0.0137500 0.0000000 0.0080825 0.0004175
4:171339 0.0094175 0.0000825 0.0024175 0.0014150 0.0011675 0.0179150 0.0079175 0.0222500 0.0114175 0.0375850 0.0000000 0.0000000 0.0018325 0.0116650 0.0062500 0.0000000 0.0054175 0.0004175
4:218124 0.0052500 0.0002500 0.0000825 0.0005000 0.0083350 0.0039175 0.0000000 0.0000000 0.0000000 0.0014175 0.0000000 0.0000000 0.0000000 0.0045825 0.0006675 0.0000000 0.0000000 0.0000000
4:218136 0.0088325 0.0006675 0.0005825 0.0001675 0.0213325 0.0095000 0.0000000 0.0000000 0.0003325 0.0024150 0.0000000 0.0000000 0.0000000 0.0097500 0.0004175 0.0000000 0.0004175 0.0000000
4:218139 0.0489150 0.0015000 0.0029175 0.0013350 0.0932500 0.0525000 0.0000000 0.0000000 1.0003325 0.0105825 0.0000000 0.0000000 0.0000000 0.0475000 1.7663325 0.0000000 0.0015825 1.0000000
4:218143 0.0027500 0.0000825 0.0003325 0.0000000 0.0106675 0.0062500 0.0000000 0.0000000 0.0001675 0.0008325 0.0000000 0.0000000 0.0000000 0.0045825 0.0000825 0.0000000 0.0000000 0.0000000
4:218164 0.0054175 0.0004175 0.0000000 0.0001675 0.0097500 0.0041675 0.0000000 0.0000000 0.0002500 0.0018350 0.0000000 0.0000000 0.0000000 0.0057500 0.0007500 0.0000000 0.0000000 0.0000000
4:218174 0.0525000 0.0035825 0.0030000 0.0019175 0.0972500 0.0922500 0.0002500 0.0000000 1.0000000 0.0123325 0.0000825 0.0000000 0.0000000 0.0492500 1.6149150 0.0000000 0.0015850 1.0000000
4:218177 0.0043350 0.0000000 0.0011675 0.0000000 0.0075000 0.0057500 0.0000000 0.0000825 0.0006675 0.0003350 0.0000000 0.0000000 0.0000000 0.0030000 0.0005825 0.0000000 0.0001675 0.0000000
4:238785 0.0386650 0.0392500 0.0187500 0.0110825 0.8070850 0.0010000 0.0730825 0.0649175 0.1550825 1.0905000 0.0000000 0.0000000 0.0190825 0.0670000 0.1513325 0.0000000 0.0365000 0.1577500
4:238815 0.0015850 0.0010825 0.0008325 0.0000825 0.0045850 0.0000825 0.0054175 0.0036675 0.0170000 0.0000000 0.0000000 0.0000000 0.0000825 0.0053325 0.0137500 0.0000000 0.0007500 0.0009175
4:238824 0.0088350 0.0026650 0.0019150 0.0002500 0.0142500 0.0000000 0.0052500 0.0090000 0.0250000 0.0004175 0.0000000 0.0000000 0.0000000 0.0119150 0.0238325 0.0000000 0.0008325 0.0021650
4:238845 0.0060000 0.0020825 0.0013325 0.0000000 0.0085000 0.0000000 0.0043325 0.0050000 0.0180000 0.0000000 0.0000000 0.0000000 0.0000000 0.0104175 0.0195825 0.0000000 0.0000000 0.0016650
4:238880 0.0008350 0.0000000 0.0011675 0.0062500 0.0153325 0.0156675 0.0596650 0.0035000 0.0420000 0.0028325 0.0000000 0.0000000 0.0000000 0.0023325 0.0498350 0.0000000 0.0000000 0.0223325
4:238911 0.0003325 0.0000000 0.0005825 0.0056675 0.0063350 0.0068325 0.0025825 0.0011650 0.0280000 0.0016675 0.0000000 0.0000000 0.0000000 0.0018325 0.0282500 0.0000000 0.0000000 0.0140000
4:238920 0.0004150 0.0000000 0.0019175 0.0105825 0.0211650 0.0187500 1.1203350 0.0050825 0.0715000 0.0042500 1.0000000 0.0000000 0.0000000 0.0053325 0.0649150 0.0000000 0.0000000 0.0357500
4:238923 0.0011675 0.0000000 0.0005000 0.0113325 0.0257500 0.0210000 0.0077500 1.2553325 0.0840825 0.0055000 0.0000000 0.0000000 0.0000000 0.0070000 0.0876675 0.0000000 0.0000000 0.0431650
4:238947 0.0004175 0.0000000 0.0009175 0.0030825 0.0059150 0.0078350 0.0020000 0.0025850 0.0266650 0.0020850 0.0000000 0.0039175 0.0000000 0.0018325 0.0276675 0.0000000 0.0000000 0.0144175
4:294766 0.0007500 0.0059150 0.0029175 0.0006675 0.0010000 0.0010825 0.0042500 0.0016675 0.0048350 0.0069175 0.0000000 0.0002500 0.0005000 0.0001675 0.0107500 0.0000000 0.0024175 0.0000000
4:294772 0.0015000 0.0356650 0.0195825 0.0132500 0.0130825 0.0088325 0.0410850 0.0104150 0.0475000 0.0473350 0.0001675 0.0039175 0.0066675 0.9423325 0.0894175 0.0006675 1.0003325 1.0000000
4:294781 0.0000000 0.0133350 0.0055825 0.0025825 0.0031675 0.0025850 0.0145000 0.0048350 0.0140825 0.9788325 0.0000000 0.0009150 0.0008325 0.0035825 0.0112500 0.0005825 0.0059150 0.0000000
4:294802 0.0000000 0.0008350 0.0010000 0.0002500 0.0002500 0.0000825 0.0017500 0.0005000 0.0020000 0.0018325 0.0000000 0.0000000 0.0002500 0.0006675 0.0015825 0.0002500 0.0007500 0.0001675
4:294805 0.0005000 0.0145000 0.0057500 0.0029175 0.0031675 0.0022500 0.0130825 0.0026650 0.0109175 0.0121675 0.0000000 0.0000000 0.0009175 0.0028325 0.0121675 0.0002500 0.0065000 0.0000000
4:294822 0.0001675 0.0026650 0.0023325 1.0000000 0.0012500 0.0013350 0.0038325 0.0004150 0.0017500 0.9813325 0.0001675 0.0000000 0.0002500 0.0009175 0.0037500 0.0000000 0.0031675 0.0000000
4:294865 0.0000000 0.0019150 0.0002500 0.0018350 0.0089175 0.0022500 0.0008325 0.0000000 0.0060825 0.0000825 0.0000825 0.0000000 0.0002500 0.0018325 0.0013325 0.0000000 0.0176675 0.0000000
4:294871 1.0000000 0.0060825 0.0015000 0.0050000 0.0473325 0.0049175 0.0005825 0.0006675 0.0115000 0.0008325 0.0000825 0.0005000 0.0012500 0.0061675 0.0084175 0.0000000 0.0536650 1.0000000
4:294874 0.0000000 0.0048325 0.0010000 0.0060825 0.0178325 0.0050850 0.0004175 0.0002500 0.0120000 0.0010850 0.0002500 0.0005825 0.0018350 0.0052500 0.0035000 0.0000000 0.0360000 0.0005000
4:294908 0.0000000 0.0016675 0.0005825 0.0030850 0.0076650 0.0008350 0.0002500 0.0002500 0.0028350 0.0002500 0.0000000 0.0001675 0.0006675 0.0015000 0.0014175 0.0000000 0.0111675 0.0002500
4:294928 0.0000000 0.0061650 0.0022500 0.0059175 0.0237500 0.0046650 0.0007500 0.0012500 0.0085000 0.0006675 0.0001675 0.5450000 0.0015000 0.0064175 0.0066675 0.0000000 0.0436675 0.0000000
4:332437 0.0710000 0.8419150 0.0000000 0.0000000 0.0049175 0.1413325 0.0464175 1.0000000 0.0202500 0.0195850 0.1447500 0.0000000 0.0024175 0.0756675 0.0019175 0.0000000 0.0012500 0.0000000
4:332441 0.0109175 0.0000000 0.0000000 0.0000000 0.0006675 0.0175000 0.0000000 0.0000000 0.0018325 0.0015000 0.0163325 0.0000000 0.0010000 0.0078325 0.0005000 0.0000000 0.0000000 0.0000000
4:332453 0.0118325 0.0000000 0.0000000 0.0000000 0.0004175 0.0267500 0.0000000 0.0000000 0.0028350 0.0010000 0.0262500 0.0000000 0.0003325 0.0126675 0.0002500 0.0000000 0.0000000 0.0000000
4:332493 0.0383350 0.0000000 0.0000000 0.0000000 0.1834175 0.0677500 0.9999175 0.0002500 0.9997500 0.0020000 0.0671650 0.0000000 0.5157500 0.0319175 0.0009175 1.0000000 0.0006650 0.9979175
