50 242
4:10035 0.0000000 0.0000000 0.0000000 0.0000000 0.0001675 0.0000000 0.0000000 0.0000000 0.0000000 0.0000000 0.0000000 0.0000000 0.0000000 0.0000000 0.0024150 0.0027500 0.0030000 0.0001675 0.0000000 0.0000000 0.0000000 0.0000000 0.0014150 0.0015000 0.0000000 0.0000000 0.0000000 0.0000000 0.0000000 0.0000000 0.0000000 0.0000000 0.0000000 0.0000000 0.0000000 0.0000000 0.0000000 0.0004175 0.0000000 0.0007500 0.0070000 0.0000000 0.0000000 0.0000000 0.0005000 0.0000000 0.0000000 0.0000000 0.0000000 0.0000000 0.0000000 0.0000000 0.0008350 0.0000000 0.0000000 0.0000000 0.0006675 0.0014175 0.0000000 0.0052500 0.0036675 0.0027500 0.0030000 0.0046675 0.0080000 0.0015000 0.0080000 0.0038350 0.0099175 0.0064150 0.0000000 0.0074175 0.0044175 0.0045850 0.0099175 0.0025000 0.0000000 0.0014175 0.0004175 0.0085000 0.0047500 0.0004175 0.0001675 0.0000000 0.0000000 0.0001675 0.0000000 0.0000000 0.0000000 0.0000000 0.0000000 0.0002500 0.0000000 0.0000000 0.0000000 0.0000000 0.0000000 0.0000000 0.0000000 0.0107500 0.0139175 0.0000000 0.0002500 0.0030000 0.0030825 0.0011675 0.0000000 0.0000000 0.0075825 0.0035825 0.0000000 0.0007500 0.0037500 0.0000000 0.0002500 0.0000000 0.0000000 0.0019175 0.0018325 0.0050000 0.0139150 0.0010000 0.0002500 0.0001650 0.0008325 0.0005825 0.0009175 0.0002500 0.0012500 0.0010000 0.0007500 0.0015000 0.0023325 0.0010000 0.0012500 0.0003350 0.0088325 0.0066650 0.0021675 0.0008325 0.0005000 0.0010000 0.0024175 0.0004150 0.0003325 0.0000825 0.0000000 0.0013350 0.0005825 0.0000000 0.0041650 0.0059150 0.0015000 0.0002500 0.0021675 0.0036650 0.0000825 0.0000000 0.0000000 0.0000000 0.0000000 0.0000000 0.0000000 0.0000000 0.0000000 0.0000000 0.0000000 0.0000000 0.0000000 0.0000000 0.0001675 0.0000000 0.0000000 0.0002500 0.0005825 0.0005000 0.0022500 0.0000000 0.0085000 0.0000000 0.0000000 0.0001675 0.0000000 0.0001675 0.0000000 0.0001675 0.0000000 0.0000000 0.0000000 0.0000000 0.0000000 0.0000000 0.0011675 0.0000000 0.0000000 0.0000000 0.0000000 0.0000000 0.0000000 0.0000000 0.0021675 0.0000000 0.0000000 0.0000000 0.0010825 0.0003325 0.0016675 0.0000000 0.0000000 0.0000000 0.0005000 0.0000000 0.0000000 0.0002500 0.0000000 0.0000000 0.0000000 0.0000000 0.0138325 0.0023325 0.0002500 0.0000000 1.0544150 0.0000000 1.0000000 0.0000000 0.0000000 0.0004150 0.0033350 0.0000000 0.0015825 0.0000000 0.0000000 0.0000000 0.0000000 0.0005000 0.0007500 0.0004175 0.0026675 0.0017500 0.0013325 0.0064150
4:10038 0.0000825 1.0000000 0.0000000 0.0000000 1.0000000 1.0000000 0.0221675 1.0000000 1.0000000 1.0000000 0.0025000 0.0000000 2.0000000 1.0000000 0.9980825 1.2488325 0.2673325 1.0000000 1.0000000 0.0000000 2.0000000 0.0000000 0.0743325 0.0820000 0.0000000 0.0000000 0.0000000 1.0000000 1.0000000 2.0000000 1.9787500 0.0099175 1.0000000 0.0000000 1.0000000 1.0000000 0.0002500 1.0002500 1.0000000 1.5880850 0.5062500 0.0025825 1.0000000 1.0000000 0.0390825 1.0000000 1.0000000 1.0000000 0.0000000 1.0000000 1.0019150 0.0000000 0.1374175 2.0000000 0.0000000 1.0000000 0.0205825 0.0702500 1.0160000 0.2584175 1.4050825 0.1449175 0.1466675 0.2458325 0.4593325 0.0791675 0.4977500 0.2745825 0.5174175 0.5040000 1.0000000 0.2558325 0.1493350 0.2489150 0.4960000 0.1484175 1.0037500 0.0424175 0.0215000 0.5067500 1.2542500 1.0002500 1.9081650 1.0000000 1.0000000 0.0399175 0.0001675 1.0000000 0.0003325 0.0000000 1.0000000 0.0122500 1.0000000 0.0002500 0.0115850 0.0000000 1.0000000 0.0000000 1.0005825 0.5111675 0.5158350 0.0000825 0.0186675 0.1395000 0.1435000 0.0425000 0.0188325 0.0003325 0.2643350 0.9978325 1.0000000 0.0226675 0.2564175 0.0024150 0.0100000 0.0055000 0.0091650 0.0759175 0.0867500 0.2509175 0.5134175 0.0819175 0.0435850 1.9200000 0.0189150 0.0191650 0.0413325 0.0095000 0.0805000 1.0000000 0.0179175 0.0773325 0.1490850 0.0406675 0.0443350 0.0407500 0.5035825 0.5018325 0.1410825 0.0400825 0.0215850 0.0873325 0.1457500 0.0840000 0.0222500 0.0056675 0.0029150 1.5702500 1.7246650 1.0012500 0.1436675 0.2622500 0.0433325 0.0048325 0.1508325 0.1444175 0.0242500 0.0000000 0.0000000 1.0000000 2.0000000 0.0000000 0.0000000 0.0000000 0.8931675 0.0000000 1.9981650 0.0000000 1.9905000 0.0003350 1.0005825 0.0000000 1.0000000 0.0003325 0.0429175 1.0000000 1.7376675 1.0000000 0.4507500 0.0046675 1.0000000 0.0021675 0.0000000 0.0055000 0.0000000 0.0030825 0.0000000 1.0000000 1.0000000 0.0000000 0.0000000 0.0000000 0.0235825 1.0000000 1.0000000 1.0000000 0.0000000 0.0000000 0.0000000 0.0002500 1.0002500 1.0000000 1.0000000 1.0000000 0.0238325 0.0215825 0.0505825 0.0000000 1.0000000 1.0000000 0.0457500 0.0008350 0.0003325 0.0029150 1.0000000 0.0000000 1.9760000 0.0000000 0.2660000 0.2740825 0.0065850 0.0000000 1.6007500 0.0002500 1.0000000 1.0000000 0.0000000 0.0109175 0.0451675 1.0000000 1.8486675 1.0132500 1.0286650 0.0000825 0.0000000 0.0124175 1.0000000 0.0086675 1.0000000 0.0495000 1.0004175 1.4326675
4:10041 0.0000000 0.0000000 1.0000000 0.0000000 0.0000000 0.0000000 0.0023350 0.0000000 1.0000000 0.0000000 0.0000000 0.0000000 0.0000000 0.0000825 0.0147500 0.0340000 0.0665000 0.0010825 1.0000000 0.0000000 0.0000000 1.0000000 0.0090825 0.0092500 0.0000000 1.0000000 0.0000000 1.0000000 0.0000000 0.0000000 0.0000000 0.0008325 0.0000000 0.0000000 0.0000000 0.0000000 0.0000000 0.0048350 0.0000000 0.0074175 0.0571650 0.0002500 0.0000000 0.0000000 0.0038350 0.0000000 0.0000000 0.0000000 0.0000000 0.0000000 0.0000000 0.0000000 0.0186650 0.0000000 0.0000000 0.0000000 0.0023325 0.0069150 0.0003325 0.0052500 0.0185825 0.0138350 0.0120000 0.0326675 0.0680000 0.0070000 0.0620000 0.0658350 0.0580000 0.0621675 0.0000000 0.0259175 0.0142500 0.0291675 0.0565825 0.0194175 0.0005000 0.0037500 0.0037500 0.0582500 0.0287500 0.0000825 0.0010000 0.0000000 0.0000000 0.0035825 0.0000000 0.0000000 0.0000000 1.0000000 0.0000000 0.0007500 0.0000000 0.0000000 0.0009175 0.0000000 0.0000000 0.0000000 0.0015000 0.0584150 0.0607500 0.0000000 0.0017500 0.0150825 0.0141675 0.0044150 0.0008325 0.0000000 0.0320825 0.0150825 0.0000000 0.0012500 0.0275000 1.0000000 0.0007500 0.0007500 0.0021650 0.0064175 0.0076650 0.0305825 0.0593325 0.0052500 0.0044150 0.0005000 0.0014175 0.0000000 0.0040000 0.0004150 0.0050000 0.0035000 0.0013325 0.0088325 0.0166675 0.0021675 0.0032500 0.0019175 0.0585000 0.0565850 0.0184175 0.0036675 0.0020000 0.0139175 0.0145825 0.0085825 0.0021650 0.0006675 0.0003325 0.0062500 0.0040000 0.0024150 0.0160825 0.0288350 0.0047500 0.0002500 0.0148350 0.0145000 0.0020000 0.0000000 0.0000000 1.0000000 0.0000000 0.0000000 0.0000000 0.0000000 0.0000000 0.0000000 0.0000000 0.0000000 0.0000000 0.0000000 0.0004175 0.0000000 0.0000000 0.0000000 0.0042500 0.0014175 0.0030850 0.0000000 0.0665825 0.0006675 0.0000000 0.0000000 0.0000000 0.0001675 0.0000000 0.0000000 0.0000000 0.0000000 0.0000000 0.0000000 0.0000000 0.0000000 0.0008325 0.0000000 0.0000000 0.0000000 0.0000000 0.0000000 0.0000000 0.0000000 0.0017500 0.0000000 0.0000000 0.0000000 0.0012500 0.0000825 0.0024150 0.0000000 0.0000000 0.0000000 1.1422500 1.9065000 0.0000825 0.0002500 0.0000000 0.0000000 0.0001675 0.0009175 0.0176650 0.0665000 0.0002500 0.5104175 0.0035000 0.0000000 0.0002500 0.0000000 0.0000000 0.0002500 0.0021650 0.0005000 0.0010000 0.0000000 0.0000000 0.0000000 0.0000000 0.0006675 0.0005825 0.0007500 0.0023350 0.0022500 0.0022500 0.0074150
4:10054 0.0000000 0.0000000 0.0000000 0.0000000 0.0000000 0.0000000 0.0000000 0.0000000 0.0000000 0.0000000 0.0001675 0.0000000 0.0000000 0.0000000 0.0006675 0.0022500 0.0564150 0.0000000 0.0000000 0.0000000 0.0000000 0.0000000 0.0004175 0.0007500 0.0000000 0.0000000 0.0000000 0.0000000 0.0000000 0.0000000 0.0000000 0.0000000 0.0000000 0.0000000 0.0000000 0.0000000 0.0000000 0.0000000 0.0000000 0.0000000 0.0039150 0.0003350 0.0000000 0.0000000 0.0001675 0.0000000 0.0000000 0.0000000 0.0000000 0.0000000 0.0000000 0.0000000 0.0020000 0.0000000 0.0000000 0.0000000 0.0000000 0.0011675 0.0000000 0.0000825 0.0005850 0.0015850 0.0003325 0.0042500 0.0125825 0.0004175 0.0045000 0.0580850 0.0035000 0.0017500 0.0000000 0.0025850 0.0006675 0.0021650 0.0077500 0.0008325 0.0000000 0.0004175 0.0000000 0.0035000 0.0010850 0.0000825 0.0000000 0.0000000 0.0000000 0.0004175 0.0000000 0.0000000 0.0000000 0.0000000 0.0000000 0.0000000 0.0000000 0.0000000 0.0002500 0.0000000 0.0000000 0.0000000 0.0005000 0.0022500 0.0038325 0.0000000 0.0000000 0.0007500 0.0008325 0.0000000 0.0000825 0.0000000 0.0005000 0.0005000 0.0000000 0.0000000 0.0017500 0.0000000 0.0000000 0.0000000 0.0000000 0.0002500 0.0002500 0.0036675 0.0045850 0.0009175 0.0006675 0.0000000 0.0000000 0.0000000 0.0000000 0.0000000 0.0006675 0.0000000 0.0001675 0.0005825 0.0006675 0.0005000 0.0000000 0.0006675 0.0019175 0.0035825 0.0010000 0.0003325 0.0000825 0.0004175 0.0005850 0.0006675 0.0000000 0.0000000 0.0000000 0.0002500 0.0003325 0.0001675 0.0009175 0.0019150 0.0001675 0.0000000 0.0011650 0.0010825 0.0000000 0.0000000 0.0000000 0.0000000 0.0000000 0.0000000 0.0000000 0.0000000 0.0000000 0.0000000 0.0000000 0.0000000 0.0000000 0.0000000 0.0000000 0.0000000 0.0000000 0.0000000 0.0000000 0.0005000 0.0005000 0.0000000 0.0242500 0.0000000 0.0000000 0.0000000 0.0000000 0.0000000 0.0000000 0.0000000 0.0000000 0.0000000 0.0000000 0.0000000 0.0000000 0.0000000 0.0004175 0.0000000 0.0000000 0.0000000 0.0000000 0.0000000 0.0000000 0.0000000 0.0003325 0.0000000 0.0000000 0.0000000 0.0000000 0.0002500 0.0009175 0.0000000 0.0000000 0.0000000 0.0008325 0.0000000 0.0000000 0.0000000 0.0000000 0.0000000 0.0000000 0.0000000 0.0052500 0.0588325 0.0000000 0.0000000 0.0010850 0.0000000 0.0000000 0.0000000 0.0000000 0.0000000 0.0001675 0.0000000 0.0004175 0.0000000 0.0000000 0.0000000 0.0000000 0.0000000 0.0000000 0.0002500 0.0003325 0.0008325 0.0000825 0.0021675
4:10059 0.0000000 0.0000000 0.0000000 0.0000000 0.0000000 0.0006675 0.0048350 0.0000000 0.0000000 0.0004175 0.0008325 0.0000000 0.0000000 0.0005825 0.0358350 0.0731675 0.0825825 0.0004150 0.0000000 0.0000000 0.0000000 0.0000000 0.0190825 0.0198325 0.0000000 0.0000000 0.0000000 0.0000000 0.0005825 0.0000000 0.0002500 0.0030000 0.0000000 0.0000000 0.0000000 0.0000000 0.0002500 0.0072500 0.0000000 0.0218350 0.1333325 0.0005000 0.0000000 0.0000000 0.0090000 0.0000000 0.0000000 0.0000000 0.0000000 0.0000000 0.0000000 0.0000000 0.0320850 0.0000000 0.0000000 0.0000000 1.0000825 0.0188325 0.0003350 0.0159150 0.0345000 1.1095000 0.0383325 0.0697500 0.1260000 0.0195850 0.1380000 0.0804150 0.1310000 0.1488325 0.0005850 1.0593350 0.0282500 0.0620825 0.1354150 0.0395825 0.0005825 0.0090825 1.0000000 0.1390000 0.0605825 0.0001675 0.0025850 0.0000000 0.0000000 1.3541650 1.9974175 0.0000000 0.0000000 0.0000000 0.0000000 1.0000000 0.0000000 0.0000000 0.0027500 0.0000000 0.0000000 1.0000000 0.0047500 0.1384150 0.1195825 0.0000000 0.0042500 0.0395000 0.0360000 0.0071675 0.0028325 0.0000000 0.0709150 0.9913350 0.0005000 0.0044150 0.0715850 0.0025000 0.0024175 1.7980825 1.0000000 0.9848350 0.0157500 0.0686650 0.1190000 0.0168350 0.0081675 0.0011675 0.0051675 0.0000000 0.0091675 0.0017500 0.0177500 0.0074175 0.9445825 0.9950000 0.0325000 0.0093325 1.3616675 0.7967500 0.1341675 0.1292500 0.0345825 0.0123350 1.5030000 0.0210850 0.0314175 0.0174175 1.0000000 0.9997500 0.0004175 0.0170000 0.0086650 0.0054175 0.0303325 0.0677500 1.3561675 0.0005850 0.0340825 0.0163325 0.0065850 0.0000000 1.0000000 0.0000000 0.0000000 0.0000000 0.0000000 0.0000000 0.0001675 0.0000000 0.0000000 0.0000000 0.0000825 0.0000825 0.0015850 0.0000000 0.0000000 0.0000000 0.0073325 0.0020000 0.0050000 0.0000000 0.1243325 0.0005000 0.0000000 1.0000000 0.0000000 0.0001650 0.0000000 0.0007500 0.0000000 0.0000000 0.0000000 0.0000000 0.0000000 0.0000000 1.0000000 0.0000000 0.0000000 0.0000000 0.0000000 0.0000000 0.0000000 0.0000000 0.0045825 1.0000000 0.0000000 0.0000000 0.0020000 0.3280000 0.0035000 0.0000000 0.0000000 1.0000000 0.0031650 0.0005000 0.0000000 0.0000825 0.0000000 0.0000000 0.0002500 0.0000000 0.0300000 0.0809175 0.0007500 0.0000000 0.0080850 0.0000000 0.0001675 0.0000825 0.0000000 0.0008325 0.0040000 0.0002500 0.0029175 0.0000825 0.0002500 0.0000000 0.0000000 0.9970000 0.0005825 0.0009175 0.0026675 0.0028325 0.0025825 0.0160825
4:10066 0.0000000 0.0000000 0.0000000 0.0000000 0.0000000 0.0000000 0.0002500 0.0000000 0.0000000 0.0000000 0.0002500 0.0000000 0.0000000 0.0000000 0.0013350 0.0026675 0.0093325 0.0002500 0.0000000 0.0000000 0.0000000 0.0000000 0.0005000 0.0005000 0.0000000 0.0000000 0.0000000 0.0000000 0.0000000 0.0000000 0.0000000 0.0000000 0.0000000 0.0000000 0.0000000 0.0000000 0.0000000 0.0000000 0.0000000 0.0016675 0.0075000 0.0002500 0.0000000 0.0000000 0.0007500 0.0000000 0.0000000 0.0000000 0.0000000 0.0000000 0.0000000 0.0000000 0.0015000 0.0000000 0.0000000 0.0000000 0.0000000 0.0007500 0.0000000 0.0014150 0.0045850 0.0020850 0.0016650 0.0043325 0.0060000 0.0015000 0.0081675 0.0099150 0.0081650 0.0043325 0.0000000 0.0025825 0.0031675 0.0045000 0.0108325 0.0017500 0.0000000 0.0004150 0.0003325 0.0075000 0.0035000 0.0000000 0.0002500 0.0000000 0.0000000 0.0004175 0.0000000 0.0000000 0.0000000 0.0000000 0.0000000 0.0001675 0.0000000 0.0000000 0.0000000 0.0000000 0.0000000 0.0000000 0.0004150 0.0064150 0.0098350 0.0000000 0.0000825 0.0030825 0.0026675 0.0005000 0.0006675 0.0000000 0.0071675 0.0020825 0.0000000 0.0001675 0.0041650 0.0002500 0.0000000 0.0000825 0.0000000 0.0010000 0.0017500 0.0049175 0.0079175 0.0009175 0.0010825 0.0000000 0.0006675 0.0000000 0.0002500 0.0001675 0.0002500 0.0011650 0.0007500 0.0013325 0.0020000 0.0002500 0.0005825 0.0004175 0.0089150 0.0082500 0.0022500 0.0000000 0.0000825 0.0009175 0.0032500 0.0008325 0.0007500 0.0000000 0.0000000 0.0013350 0.0008325 0.0000000 0.0021675 0.0052500 0.0002500 0.0000825 0.0022500 0.0027500 0.0007500 0.0000000 0.0000000 0.0000000 0.0000000 0.0000000 0.0000000 0.0000000 0.0000000 0.0000000 0.0000000 0.0000000 0.0000000 0.0000000 0.0001675 0.0000000 0.0000000 0.0000000 0.0005000 0.0005825 0.0010000 0.0000000 0.0093325 0.0001675 0.0000000 0.0000000 0.0000000 0.0001675 0.0000000 0.0000000 1.0000000 0.0000000 0.0000000 0.0000000 0.0000000 0.0000000 0.0004150 0.0000000 0.0000000 0.0000000 0.0000000 0.0000000 0.0000000 0.0000000 0.0008350 0.0000000 0.0000000 0.0000000 0.0005000 0.0000000 0.0010000 0.0000000 0.0000000 0.0000000 0.0006675 0.0002500 0.0000000 0.0000000 0.0000000 0.0000000 0.0000000 0.0000000 0.0077500 0.0097500 0.0000000 0.0000000 0.0027500 0.0000000 0.0000825 0.0000000 0.0000000 0.0004175 0.0018325 0.0000000 0.0010825 0.0000000 0.0001675 0.0000000 0.0000000 0.0009175 0.0002500 0.0008325 0.0020000 0.0019175 0.0006650 0.0055000
4:21031 0.0000000 0.0000000 0.0002500 0.0000000 0.0000000 0.0142500 0.1287500 0.0019175 0.0000000 0.0041675 0.0004175 0.0325000 0.0000000 0.0001675 0.0059175 0.0335000 0.0462500 0.0155825 0.0000825 0.0000000 0.0000000 0.0000000 0.0014175 0.0102500 0.0000000 0.0040000 0.0194175 0.0000000 0.0003325 1.0000000 0.9963350 0.0020825 0.0010000 0.0000000 0.0072500 0.0000000 0.0383350 0.0038325 0.0000000 0.0168350 0.0169175 0.0145825 0.0001675 0.0000000 0.0203325 0.7846675 0.0000000 0.0002500 0.0000000 0.0000000 0.0000000 0.0000000 0.0309175 0.0000000 0.0000000 0.0000000 0.0030000 0.0171650 0.0001675 0.0071675 0.0026650 0.0005825 0.0074175 0.0025825 0.0155000 0.0022500 0.0030825 0.0441675 0.0066650 0.0078325 0.0000000 0.0130000 0.0000000 0.0006675 0.0600825 0.0038325 0.0010850 0.0000000 0.0000000 0.0022500 0.0008325 0.0000000 0.0000000 0.0000000 0.0000000 0.0000000 0.0000000 0.0000000 0.0001675 0.0000000 0.0000000 0.0006675 0.0000000 0.0000000 0.0303325 0.0131650 0.0000000 0.0000000 0.0016650 0.0008350 0.0039175 0.0002500 0.0161675 0.0339175 0.0160000 0.0000000 0.0174175 0.0165850 0.0148350 0.0015000 0.0077500 0.0003325 0.0165825 0.0059150 0.0335825 0.0000000 0.0023325 0.0012500 0.0069175 0.0178325 0.0069150 0.0000000 0.0005000 0.0005825 0.0020000 0.0000000 0.0320000 0.0265825 0.0011675 0.0155825 0.0015825 0.0094175 0.0003350 0.0011650 0.0003325 0.0008350 0.0153325 0.0077500 0.0148350 0.0004175 0.0008325 0.0030000 0.0087500 0.0010000 0.0000000 0.0000000 0.0019150 0.0000000 0.0011675 0.0022500 0.0002500 0.0360000 0.0042500 0.0002500 0.0047500 0.0000825 0.0003325 0.0000000 0.0004175 0.0000000 0.0000000 0.0000000 0.0000000 0.0000000 0.0000000 0.0002500 0.0000825 0.0000000 0.0000000 0.0002500 0.0367500 0.0019175 0.0000000 0.0035850 0.0088350 0.9210825 0.0082500 0.0000000 0.0368325 0.0021675 0.0000000 0.0000000 0.0010850 0.0020000 0.0000000 0.0000000 0.0000000 0.0092500 0.0000000 0.0000000 0.0010000 0.0000000 0.0015000 0.0019150 0.0015850 0.0002500 0.0000000 0.0010850 0.0000000 0.0020825 0.0343325 0.0002500 0.0000000 0.0000000 0.0020850 0.0025000 0.0366650 0.0002500 0.0005000 0.0000000 0.0002500 0.0013350 0.0000000 0.0090850 0.0000000 0.0000000 0.0019175 0.0007500 0.0176675 0.0423350 0.0141675 0.0000000 0.0002500 0.0000000 0.0005825 0.0002500 0.0000000 0.0000000 0.0000000 0.0030850 0.0009150 0.0004175 0.0109150 0.0000000 0.0008350 0.0375000 0.0004150 0.0165000 0.0054175 0.0020825 0.0000000 0.0000000
4:21035 0.0000000 0.0000000 0.0002500 0.0000000 0.0000000 0.0020825 0.0005000 0.0025000 0.0000000 0.0033325 0.0007500 0.0375850 0.0000000 0.0000000 0.0052500 0.0343350 0.0148350 0.0177500 0.0000000 0.0003325 0.0000000 0.0000000 0.0007500 0.0089175 0.0000000 0.0037500 0.0100000 0.0002500 0.0004175 0.0002500 0.0025000 0.0015000 0.0000825 0.0000825 0.0013350 0.0000000 0.0371675 0.8690825 0.0000000 0.0004175 0.0187500 0.0145825 0.0002500 0.0002500 0.0300000 0.0242500 0.0002500 0.0010000 0.0000000 0.0000000 0.0000000 0.0000000 0.0435825 0.0000000 0.0000000 0.0000000 0.0071675 0.0188325 0.0000000 0.0130000 0.0027500 0.0011675 0.0104150 0.0040850 0.0150000 0.0019175 0.0042500 0.0107500 0.0112500 0.0107500 0.0000000 0.0282500 0.0002500 0.0010850 0.0027500 0.0057500 0.0013325 0.0000000 0.0000000 0.0037500 0.0015000 0.0000000 0.0000000 0.0000000 0.0000000 0.0000000 1.0000000 0.0000000 0.0000000 0.0000000 0.0000000 0.0018350 0.0000000 0.0000000 0.0507500 0.0310825 0.0000000 0.0000000 0.0023350 0.0013325 0.0092500 0.0015000 0.0250000 0.0268325 0.0229175 0.0003325 0.0301675 0.0297500 0.0210000 0.0037500 0.0131675 0.0020000 0.0248325 0.0117500 0.0497500 0.0000000 0.0047500 0.0032500 0.0108350 0.0185850 0.0120000 0.0002500 0.0015000 0.0025825 0.0027500 0.0000000 0.0539175 0.0511675 0.0035825 0.0298325 0.0030000 0.0122500 0.0010000 0.0015000 0.0015825 0.0023325 0.0152500 0.0113325 0.0221650 0.0007500 0.0012500 0.0047500 0.0099150 0.0023325 0.0000000 0.0005000 0.0033325 0.0000000 0.0010000 0.0032500 0.0002500 0.0477500 0.0028350 0.0000000 0.7184175 0.0006675 0.0019150 0.0000000 0.0002500 0.0000000 0.0000000 0.0000000 0.0000000 0.0000000 0.0000000 0.0021650 0.0010825 0.0000000 0.0000000 0.0005000 0.0695850 0.0031650 0.0000000 1.0000000 0.0162500 0.0117500 0.0288325 0.0000000 0.0415000 0.0080000 0.0004175 0.0000825 0.0019175 0.0048350 0.0000000 0.0000000 0.0000000 0.0272500 0.0000000 0.0000000 0.0093325 0.0000000 0.9258325 0.0047500 1.0008325 0.0000000 0.0018325 1.0000000 1.0000000 0.0037500 0.0990825 0.0000000 0.0000000 0.0017500 0.9670825 0.0062500 0.1054175 0.0000000 0.0039175 0.0000000 0.0019175 0.0038325 0.0000000 0.0281675 0.0000000 0.0006675 0.0095825 0.0044175 1.0041675 0.0130825 0.0570825 0.0023325 0.0015000 0.0000000 0.0010000 0.0000000 0.0000000 0.0000000 0.0002500 0.0072500 0.0017500 0.0015825 0.0255825 0.0000000 0.0030825 0.1045000 0.0017500 0.0522500 1.0000000 0.0160000 0.0000000 0.0000000
4:21041 0.0000000 0.0000000 0.0000000 0.0000000 0.0000000 0.0000000 0.0000000 0.0002500 0.0000000 0.0000000 0.0000000 0.0022500 0.0000000 0.0000000 0.0002500 0.0006650 0.0258350 0.0011675 0.0000000 0.0000000 0.0000000 0.0000000 0.0007500 0.0002500 0.0000000 0.0000000 0.0000825 0.0000000 0.0000000 0.0000000 0.0000000 0.0000000 0.0002500 0.0000000 0.0000000 0.0000000 0.0003325 0.0002500 0.0000000 0.0000000 0.0017500 0.0126650 0.0000000 0.0000000 0.0015000 0.0008325 0.0000000 0.0000000 0.0000000 0.0000000 0.0000000 0.0000000 0.0022500 0.0000000 0.0000000 0.0000000 0.0004175 0.0023350 0.0000000 0.0000825 0.0000000 0.0005850 0.0005825 0.0005825 0.0035850 0.0002500 0.0008350 0.0237500 0.0004175 0.0004175 0.0000000 0.0016675 0.0000000 0.0003325 0.0000000 0.0002500 0.0000000 0.0000000 0.0000000 0.0006675 0.0000000 0.0000000 0.0000000 0.0000000 0.0000000 0.0000000 0.0000000 0.0000000 0.0000000 0.0000000 0.0000000 0.0000000 0.0000000 0.0000000 0.0011675 0.0012500 0.0000000 0.0000000 0.0002500 0.0000000 0.0000000 0.0000000 0.0004175 0.0002500 0.0010000 0.0000000 0.0008350 0.0011675 0.0002500 0.0002500 0.0005000 0.0000000 0.0004150 0.0001675 0.0013350 0.0000000 0.0000000 0.0002500 0.0012500 0.0016675 0.0005000 0.0000000 0.0000000 0.0002500 0.0000000 0.0000000 0.0007500 0.0010000 0.0000000 0.0010000 0.0000000 0.0009175 0.0000000 0.0000000 0.0000000 0.0000000 0.0005825 0.0005825 0.0009175 0.0000000 0.0000000 0.0000825 0.0005000 0.0000000 0.0000000 0.0000000 0.0002500 0.0000000 0.0000000 0.0002500 0.0000000 0.0024150 0.0000000 0.0000000 0.0001675 0.0000000 0.0000000 0.0000000 0.0000000 0.0000000 0.0000000 0.0000000 0.0000000 0.0000000 0.0000000 0.0000000 0.0000000 0.0000000 0.0000000 0.0000000 0.0020850 0.0000000 0.0000000 0.0000000 0.0004175 0.0002500 0.0008350 0.0000000 0.0030000 0.0002500 0.0000000 0.0000000 0.0001675 0.0000000 0.0000000 0.0000000 0.0000000 0.0003325 0.0000000 0.0000000 0.0005850 0.0000000 0.0000825 0.0005000 0.0002500 0.0000000 0.0000000 0.0000000 0.0000000 0.0000825 0.0020850 0.0000000 0.0000000 0.0000000 0.0004175 0.0000000 0.0025000 0.0000000 0.0001675 0.0000000 0.0000000 0.0002500 0.0000000 0.0005000 0.0000000 0.0000000 0.0000000 0.0001675 0.0020000 0.0239175 0.0013325 0.0002500 0.0001675 0.0000000 0.0000000 0.0000000 0.0000000 0.0000000 0.0000000 0.0005000 0.0002500 0.0000000 0.0005000 0.0000000 0.0002500 0.0021650 0.0002500 0.0026675 0.0010825 0.0001675 0.0000000 0.0000000
4:21044 0.0000000 0.0000000 0.0010825 0.0000000 0.0000000 0.0039150 0.0002500 0.0016675 0.0000000 0.0105000 0.0003325 0.0720000 0.0000000 0.0004175 0.0091675 0.0711675 0.0274150 0.0409175 0.0000000 0.0000825 1.0000000 0.0000000 0.0038350 0.0189150 0.0002500 0.0058350 0.0201650 0.0000000 0.9995850 0.0006675 0.0057500 0.0020825 1.0000000 0.0006675 0.0029150 1.9972500 0.0705825 0.0120850 0.0000000 0.0011675 0.0306675 0.0211675 0.0000000 0.0004175 0.0231675 0.0349150 0.0000825 1.4995000 0.0000000 0.0000000 0.0000000 0.0000000 0.0371675 0.0000000 0.0000000 0.0000000 0.0095000 0.0355825 0.0009150 0.0150000 0.0038325 0.0020000 0.0193350 0.0050000 0.0305850 1.0003325 0.0060000 0.0249175 0.0178350 0.0166675 0.0000000 0.0305000 0.0000000 0.0027500 0.0032500 0.0103350 0.0019175 0.0001675 0.0000000 0.0070850 0.0016650 0.0000000 0.0000000 0.0000000 0.0000000 0.0000000 0.0000000 0.0000000 1.0000000 0.0000000 0.0000000 0.0012500 0.0000000 0.0000000 0.0605850 0.0275850 1.0000000 0.0000000 0.0019175 0.0032500 0.0060850 0.0007500 0.0287500 0.0341650 0.0307500 0.0003325 0.0261675 0.0252500 0.0370850 0.0044150 0.0179175 0.0008325 0.0297500 0.0145000 0.0665000 0.0000000 0.0048325 0.0037500 0.0127500 1.0277500 0.0116675 0.0002500 0.0010000 0.0019175 0.0032500 0.0000000 0.0590000 0.0645825 0.0021650 0.0316675 0.0034150 0.0161675 0.0020825 0.0016650 0.0008350 0.0020850 0.0375000 0.0182500 0.0366675 0.0005825 0.0009150 0.0045850 0.0153325 0.0016675 0.0000000 0.0002500 0.0020825 0.0000000 0.0002500 0.0070000 0.0000000 0.0687500 0.0024150 0.0005000 1.0670825 0.0000000 0.0005000 0.0000000 0.0001675 0.0000000 0.0000000 0.0000000 0.0000000 0.0000000 0.0000000 0.0025000 0.0000825 0.0000000 0.0000000 0.0003325 0.0559175 0.0020000 0.0000000 0.0033325 0.0112500 0.0072500 0.0079175 0.0000000 0.0458325 0.0020000 0.0005000 0.0001675 0.0000825 0.0001675 0.0000000 0.0000000 0.0000000 0.0037500 0.0000000 0.0000000 0.0014175 0.0000000 0.0013350 0.0025000 0.0008325 0.0000000 0.0003350 0.0003350 0.0000000 0.0005850 0.0336675 0.0000000 0.0000000 0.0007500 0.0026675 0.0016675 0.0328325 0.0000000 0.0003325 0.0000000 0.0003325 0.0012500 0.0000000 0.0053325 0.0000000 0.0001675 0.0020850 0.0015825 0.0132500 0.0256650 0.0166675 0.0006650 0.0007500 0.0000000 0.0005000 0.0002500 0.0000000 0.0000000 0.0000000 0.0012500 0.0000000 0.0000000 0.0062500 0.0001675 0.0008325 0.0256675 0.0006675 0.0139175 0.0040000 0.0028325 0.0000000 0.0000000
4:21052 0.0000000 0.0000000 0.6524150 0.0000000 0.0000000 0.0025000 0.0005825 0.0020825 0.0000000 0.0081650 0.0003350 0.0540000 0.0000000 0.0004175 0.0056650 0.0554150 0.0231650 0.0235000 0.0000825 0.0000000 0.0000000 0.0000000 0.0010000 0.0104175 0.0002500 0.0029175 0.0136650 0.0000000 0.0001675 0.0003325 0.0024175 0.0017500 0.0018325 0.0003325 0.0012500 0.0000000 0.0502500 0.0056650 0.0000000 0.0002500 0.0249175 0.0179175 0.0004175 0.0000825 0.0199150 0.0240825 0.0001675 0.0006650 0.0000000 0.0000000 0.0000000 0.0000000 0.0508325 0.0000000 0.0000000 0.0000000 0.0062500 0.0245000 0.0004175 0.0129175 0.0017500 0.0017500 0.0152500 0.0040825 0.0223325 0.0032500 0.0053325 0.0212500 0.0120000 0.0145000 0.0000000 0.0208325 0.0000000 0.0010850 0.0030000 0.0075825 0.0010000 0.0000000 0.0000000 0.0050000 0.0021675 0.0000000 0.0000000 0.0000000 0.0000825 0.0000000 0.0000000 0.0004175 0.0000000 0.0000000 0.0000000 0.0009175 0.0000000 0.0000000 0.0465000 0.0249175 0.0000000 0.0000000 0.0011675 0.0015000 0.0065825 0.0004175 0.0250850 0.0276675 0.0228325 0.0001675 0.0212500 0.0229150 0.0204150 0.0027500 0.0110825 1.0000000 0.0238350 0.9820825 0.0530000 0.0000000 0.0020850 0.0038325 0.0115825 0.0272500 0.0105850 1.0000000 0.0007500 0.0011675 0.0037500 0.0000000 0.0437500 0.0515000 0.8635850 0.0205000 0.0022500 0.0111675 0.0009175 0.0014150 0.0005000 0.0017500 0.0266675 0.0146675 0.0227500 0.0001650 0.0023325 0.0030000 0.0109150 0.0015000 0.0000000 0.0001675 0.0027500 0.0000000 0.0002500 0.0028350 0.0001675 0.0510000 1.1595825 0.0000825 0.0046650 0.0001675 0.0004175 0.0000000 0.0001675 0.0000000 1.0000000 0.0000000 0.0000000 0.0000000 0.0000000 0.0016675 0.0003325 0.0000000 1.0000000 0.0000000 0.0420825 0.0013325 0.0000000 0.0040000 0.0132500 0.0058325 0.0061675 0.0000000 0.0472500 0.0020825 0.0007500 0.0000000 0.0006675 0.0009175 0.0000000 0.0000000 0.0000000 0.0039150 0.0000000 0.0000000 0.0015000 0.0000000 0.0010000 0.0015825 0.0010000 0.0000000 0.0002500 0.0001675 0.0000000 0.0010850 0.0309175 0.0000000 0.0000000 0.0004150 0.0024175 0.0009175 0.0285000 0.0000000 0.0010825 0.0000000 0.0004175 0.0008350 0.0000000 0.0028350 0.0000000 0.0000825 0.0028325 0.0010825 0.0160000 0.0268325 0.0151650 0.0013325 0.0010000 0.0000000 0.0003325 0.0000000 1.0000000 0.0000000 0.0000000 0.0015850 0.0005000 0.0000000 0.0074175 0.0000000 0.0013325 0.0327500 0.0004175 0.0150000 0.0038325 0.0015825 0.0000000 0.0000000
4:21071 0.0000000 0.0000000 0.0000000 0.0000000 0.0000000 0.0010000 0.0000000 0.0007500 0.0000000 0.0020825 0.0000000 0.0146675 0.0000000 0.0000000 0.0015850 0.0159175 0.0467500 0.0057500 0.0001675 0.0002500 0.0000000 0.0000000 0.5232500 0.0034175 0.0000000 0.0012500 0.0052500 0.0000000 0.0005000 0.0002500 0.0009175 0.0008325 0.0002500 0.0001675 0.0005000 0.0000000 0.0160850 0.0016675 0.0000000 0.0002500 0.0097500 0.0177500 1.0000000 0.0004175 0.0087500 0.0100850 0.0000000 0.0003350 0.0000000 0.0000000 0.0000000 0.0000000 0.0117500 0.0000000 0.0000000 0.0000000 0.0012500 0.0111675 0.0000000 0.0038325 0.0010825 0.0000000 0.0036650 0.0017500 0.0110825 0.0006675 0.0015000 0.0460850 0.0047500 0.0045000 0.0000000 0.0100850 0.0000000 0.0009175 0.0005825 0.0022500 0.0003325 0.0000000 0.0000000 0.0011675 0.0006650 0.0000825 0.0000000 0.0000000 0.0002500 0.0000000 0.0000000 0.0000000 0.0000000 0.0000000 0.0000000 0.0001675 0.0000000 0.0000000 0.0193350 0.0105825 0.0000000 0.0000000 0.0005825 0.0004175 0.0031650 0.0010000 0.0114150 0.0082500 0.0100850 0.0000000 0.0088350 0.0100850 0.0091675 0.0019150 0.0052500 0.0002500 0.0088325 0.0047500 0.0203350 0.0000000 0.0015825 0.0011675 0.0060000 0.0084175 0.0056675 0.0000000 0.0010850 0.0010000 0.0010000 0.0000000 0.0180850 0.0174175 0.0002500 0.0085825 0.0005000 0.0050000 0.0000000 0.0010825 0.0007500 0.0004175 0.0073350 0.0038325 0.0082500 0.0002500 0.0005825 0.0005825 0.0070825 0.0004175 0.0000000 0.0000000 0.0022500 0.0000000 0.0001675 0.0008350 0.0002500 0.0162500 0.0011650 0.0000000 0.0010850 0.0002500 0.0005000 0.0000000 0.0000000 0.0000000 0.0000000 0.0000000 0.0000000 0.0000000 0.0000000 0.0004175 0.0003325 0.0000000 0.0000000 0.0000000 0.0195825 0.0005000 0.0000000 0.0010825 0.0075825 0.0018325 0.0092500 0.0000825 0.0244175 0.0030850 0.0001675 0.0000825 0.0001675 0.0003325 0.0000000 0.0000000 0.0000000 0.0034150 0.0000000 0.0000000 0.0002500 0.0000000 0.0010850 0.0020000 0.0008325 0.0000000 0.0000825 0.0001675 0.0000000 0.0005000 0.0330000 0.0000000 0.0000000 0.0010850 0.0016675 0.0022500 0.0363350 0.0000000 0.0007500 0.0000000 0.0000825 0.0005825 0.0000000 0.0100000 0.0000000 0.0000000 0.0026675 0.0012500 0.0152500 0.0452500 0.0139175 0.6414175 0.0010825 0.0000000 0.9994150 1.0000000 0.0000000 0.0000000 0.0004175 0.0014175 0.0001650 0.0015000 0.0103350 0.0080825 0.0012500 0.0380000 0.0008325 0.0190000 0.0057500 0.0026675 0.0000000 0.0001675
4:21083 0.0000000 0.0000000 0.0002500 0.0000000 0.0000000 0.0000825 0.0000000 0.0002500 0.0000000 0.0010000 0.0000000 0.0076675 0.0000000 0.0000000 0.0002500 0.0064150 0.0006650 0.0040000 0.0000000 0.0000000 0.0000000 0.0000000 0.0000000 0.0008325 0.0000000 0.0000825 0.0015000 0.0000000 0.0000000 0.0000000 0.0002500 0.0002500 0.0000000 0.0000000 0.0003325 0.0000000 0.0081675 0.0010000 0.0000000 0.0000000 0.0036650 0.0021675 0.0000825 0.0000000 0.0033325 0.0053325 0.0000000 0.0001675 0.0000000 0.0000000 0.0000000 0.0000000 0.0035850 0.0000000 0.0000000 0.0000000 0.0015000 0.0030825 0.0000000 0.0033350 0.0003350 0.0000000 0.0023350 0.0008325 0.0019150 0.0007500 0.0018325 0.0012500 0.0026675 0.0004175 0.0000000 0.0055000 0.0000000 0.0000000 0.0011675 0.0008325 0.0000000 0.0000000 0.0000000 0.0005000 0.0004175 0.0000000 0.0000000 0.0000000 0.0000000 0.0000000 0.0000000 0.0000000 0.0000000 0.0000000 0.0000000 0.0000000 0.0000000 0.0000000 0.0118350 0.0042500 0.0000000 0.0000000 0.0002500 0.0001675 0.0015825 0.0000825 0.0039175 0.0047500 0.0045825 0.0000000 0.0054150 0.0049175 0.0085825 0.0004175 0.0013325 0.0000000 0.0065850 0.0026675 0.0085000 0.0000000 0.0000825 0.0007500 0.0024150 0.0048350 0.0010000 0.0000000 0.0003325 0.0006675 0.0005000 0.0000000 0.0080000 0.0060825 0.0000000 0.0052500 0.0005000 0.0023325 0.0002500 0.0007500 0.0000000 0.0002500 0.0027500 0.0024175 0.0031650 0.0000000 0.0001675 0.0000000 0.0017500 0.0000000 0.0000000 0.0000000 0.0005000 0.0000000 0.0000000 0.0002500 0.0000000 0.0059175 0.0004175 0.0000000 0.0019175 0.0000000 0.0000000 0.0000000 0.0000000 0.0000000 0.0000000 0.0000000 0.0000000 0.0000000 0.0000000 0.0001675 0.0001675 0.0000000 0.0000000 0.0000000 0.0110000 0.0005000 0.0000000 0.0005000 0.0031675 0.0025000 0.0048350 0.0000000 0.0056675 0.0015825 0.0002500 0.0000000 0.0000000 0.0000000 0.0000000 0.0000000 1.0000000 0.0040825 0.0000000 0.0000000 0.0001675 0.0001675 0.0010000 0.0014150 0.0008350 0.0000000 0.0000000 0.0001675 0.0000000 0.0000825 0.0161650 0.0000000 0.0000000 0.0000000 0.0010825 0.0006675 0.0205000 0.0000000 0.0008325 0.0000000 0.0001675 0.0009175 0.0000000 0.0018325 0.0000000 0.0002500 0.0016675 0.0002500 0.0101675 0.0006675 0.0104175 0.0004175 0.0000000 0.0000000 0.0000825 0.0000000 0.0000000 0.0000000 0.0005000 0.0024175 0.0005000 0.0000000 0.0042500 0.0000000 0.0012500 0.0210825 0.0003325 0.0115850 0.0040825 0.8610825 1.0000000 0.0000000
4:21109 1.0000000 1.0000000 1.0000825 0.0000000 0.0000000 0.0065000 0.0002500 0.0017500 0.0000000 0.0109150 0.0011675 0.0841650 0.0000000 0.0005000 0.0086675 0.0905850 0.0197500 0.0418325 0.0000000 0.0000000 0.0000000 0.0000000 0.0021675 0.0192500 0.0000000 0.0047500 0.0221675 0.0000000 0.0000825 0.0005000 0.0057500 0.0024175 0.0041675 0.0005850 0.0020825 0.0000000 0.0901675 0.0103325 0.0000000 0.0012500 0.0440825 0.0312500 0.0001675 1.0000000 0.0405000 0.0416675 0.0000825 0.0017500 0.0000000 0.0000000 0.0000000 1.0000000 0.0364175 0.0000000 0.0000000 0.0000000 0.0108350 0.0388350 0.0010825 0.0216675 0.0039175 0.0002500 0.0252500 0.0048350 0.0360000 0.0036675 0.0108325 0.0272500 0.0174175 0.0193325 0.0000000 0.0375850 1.0000000 0.0027500 0.0038325 0.0121675 0.0011675 0.0000000 0.0000000 0.0115850 0.0025000 0.0000000 0.0000000 0.0000000 0.0000000 0.0000000 0.0000000 1.0000000 0.0000000 0.0000000 0.0000000 0.0020825 1.0000000 0.0000000 0.0775825 0.0405825 0.0000000 0.0000000 0.0035825 0.0020825 0.0118325 0.0011675 0.0375825 0.0384175 0.0397500 0.0002500 0.0433325 0.0380000 0.0380000 0.0056650 0.0240000 0.0016650 0.0429175 0.0213325 0.0779175 0.0002500 0.0035000 0.0051675 0.0207500 0.0366675 0.0219175 0.0000000 0.9663350 0.0020850 0.0044175 0.0000000 0.0803325 0.0793325 0.0019175 0.0373325 0.0069175 0.0266675 0.0011675 0.0022500 0.0010825 0.0022500 0.0421650 0.0209175 0.0439150 0.0004175 0.0021675 0.0062500 0.0219175 1.3899150 0.0000000 0.0005000 0.0079175 0.0001675 0.0004175 0.0048350 0.0008325 0.0792500 0.0063350 0.0005000 0.0109150 0.0000825 0.0015000 0.0000000 0.0002500 0.0001675 0.0000000 1.0000000 0.0000000 0.0000000 1.0000000 0.0027500 0.0005000 0.9991675 0.0000000 0.0003325 0.0770850 0.0021675 0.0000000 1.0000000 0.0198325 0.0122500 0.0181675 0.0000000 0.0612500 0.0039175 0.0007500 0.0000000 0.0010000 0.0012500 0.0000000 0.0000000 0.0000000 0.0080850 0.0000000 0.0000000 0.0000825 0.0000000 0.0022500 1.0000000 0.0019175 0.0000000 0.0000825 0.0010000 0.0000000 0.0021650 0.0758325 0.0000000 0.0000000 0.0008325 0.0030000 0.0017500 0.0642500 0.0000000 0.0010000 1.0000000 0.0005000 0.0028325 0.0000000 0.0052500 0.0000000 0.7840825 0.0034175 0.0027500 0.0385000 0.0300850 0.0359150 0.0006675 0.0000000 0.0000000 0.0019150 0.0000000 0.0000000 0.0000000 0.0002500 0.0030000 0.0012500 0.0007500 0.0160000 0.0000000 0.0020825 0.0695000 0.0015000 0.0359175 0.0083350 0.0043325 0.0000000 1.0000000
4:171310 0.1222500 0.0000000 0.0001675 0.0047500 0.0786675 0.1510825 0.2780000 0.0045850 1.0000000 0.1489150 1.1383325 0.0003325 0.0000000 0.1454175 0.0483325 0.1419150 0.1354175 0.3037500 0.0009175 0.0001675 0.0000000 0.0001650 0.1475000 0.0196650 1.0000000 0.0105825 0.0010850 0.0001675 0.1450825 0.0837500 1.2468325 0.0820825 0.1421675 0.9855850 0.0232500 1.0000000 0.0431675 0.2896650 0.0000000 0.0800850 1.2493325 0.1120000 0.0007500 0.0206650 0.0200000 0.9925000 1.1360825 0.0049175 0.0000000 0.0171675 0.0000000 0.2787500 0.1322500 0.0030000 1.0000000 0.0010000 0.2721650 0.0751675 0.2842500 0.1337500 1.2481650 0.0378350 0.2831650 0.2677500 0.9974150 0.0776675 0.1426675 0.1470000 0.2817500 0.2891675 0.0122500 0.0387500 0.0731650 1.0000000 0.1408325 1.0003325 0.0359150 1.4009150 1.7176650 0.1342500 0.1345000 0.0111675 0.0385850 0.0106675 0.1360000 0.0045000 0.0185000 0.0745000 0.0000000 0.0800825 0.0046650 1.0005000 0.0032500 0.0378350 0.2700000 0.0785825 0.0357500 1.3844175 1.1264175 0.1388325 1.0080000 0.2737500 0.2771650 0.2770850 0.2699175 0.0396650 1.0000000 1.3792500 0.2744175 0.0105850 0.0814175 1.0000000 0.1385000 1.0000000 0.9959150 0.1352500 0.1475850 0.0750000 0.2756650 0.1402500 0.0736650 0.0045850 0.1312500 1.1295000 0.1447500 0.0010000 0.0395850 0.9996675 0.2911650 0.0364150 1.0000000 0.1427500 0.9747500 0.0720825 1.1414175 0.0110825 0.2884175 0.0748350 0.1448325 0.0790825 0.1437500 0.0408350 0.2866650 0.2771675 0.0003325 1.0007500 1.0000825 0.0192500 0.0031675 0.1417500 0.0166675 0.0786675 0.0189175 0.0018325 0.0700000 0.0753350 0.1256675 0.0020850 1.2262500 0.0730000 0.0705825 0.0084175 1.0000000 1.3733350 0.0743325 0.1244175 0.0360000 0.9993325 0.0024150 0.0110825 0.1260000 0.0016650 0.0372500 0.2640825 0.1300000 0.1337500 0.2340000 0.9193325 0.2629150 0.0307500 0.0198325 0.0355850 0.0000000 0.0649150 1.0000000 0.0007500 0.1166675 0.2400825 0.0314175 0.0031675 0.2318325 0.1182500 0.2325000 0.2315825 0.0645850 0.1205000 0.0047500 0.0630850 0.0162500 1.0041675 0.0616650 1.0003325 1.0000000 0.0205000 0.2450825 0.2418350 0.2360825 0.2347500 0.0596675 0.0304150 1.0000000 1.2112500 0.0009175 0.1164175 1.0000000 0.0342500 0.1177500 0.0048325 0.2286675 0.1410850 0.0318350 0.9888350 0.0635000 0.0065000 0.0007500 1.0000000 0.0011675 0.0034150 1.0000000 0.0010000 0.0620000 1.3340825 0.0000000 0.0028350 0.0154150 0.0170850 0.9828350 0.0095000 0.2263325 0.0091675 0.0293325 0.0005000
4:171315 0.0000000 0.0000000 0.0000000 0.0002500 0.0059175 0.0150825 0.0243350 0.0003325 0.0000000 0.0072500 0.0137500 0.0000000 0.0000000 0.0117500 0.0022500 0.0131675 0.0218325 0.0241675 0.0000000 0.0000000 0.0000000 0.0000000 0.0119150 0.0005825 0.0001675 0.0018350 0.0000000 0.0000000 0.0110000 0.0055000 0.0046675 0.0040000 0.0127500 0.0060825 0.0016675 0.0000825 0.0030000 0.0244175 0.0000000 0.0063325 0.0050850 0.0125850 0.0000000 0.0007500 0.0013350 0.0026675 0.0130850 0.0000000 0.0000000 0.0002500 0.0000000 0.0240000 0.0152500 0.0000000 0.0001675 0.0002500 0.0265825 0.0082500 0.0230850 0.0157500 0.0056650 0.0028350 0.0276675 0.0255825 0.0050825 0.0079175 0.0130850 0.0241675 0.0235000 0.0245000 0.0003325 0.0021650 0.0076675 0.0004175 0.0140825 0.0031650 0.0030000 0.0025850 0.0000825 0.0110825 0.0129175 0.0002500 0.0025825 0.0008325 0.0160850 0.0002500 0.0011650 0.0046675 0.0000000 0.0077500 0.0004175 0.0021675 0.0008325 0.0035825 0.0285000 0.0029150 0.0035825 0.0030000 0.0123325 0.0143325 0.0030000 0.0255825 0.0242500 0.0212500 0.0236675 0.0025000 0.0001675 0.0026650 0.0213325 0.0005825 0.0047500 0.0007500 0.0117500 0.0012500 0.0038325 0.9959175 0.0125000 0.0069150 0.0270000 0.0126675 0.0068325 0.0011675 0.0150825 0.0118325 0.0139175 0.0000000 0.0018325 0.0012500 0.0291650 0.8462500 0.0003325 0.9907500 0.0011675 0.0076650 0.0136675 0.0008325 0.0242500 0.0060825 0.0119175 0.0070000 0.0139175 0.0022500 0.0208350 0.0250000 0.0000000 0.0030000 0.0006650 0.0015000 0.0000000 0.0157500 0.0015000 0.0054175 0.0017500 0.0001675 0.0050000 0.0074175 0.0135825 0.0002500 0.0066675 0.0077500 0.0055000 0.0010000 0.0000000 0.0034175 0.0078350 0.0135000 0.0035825 0.0000000 0.0000000 0.0004175 0.0125850 0.0002500 0.8891675 0.0290825 0.0127500 0.0138350 0.0245825 0.0044175 0.0297500 0.0047500 0.0005000 0.0021675 0.0000000 0.0073325 0.0000000 0.0002500 0.0154175 0.0328325 0.0030000 0.0000000 0.0307500 0.0139175 0.0301650 0.0323350 0.0075000 0.0140000 0.0004150 0.0086675 0.0021675 0.0017500 0.0109175 0.0020825 0.0010000 0.0015000 0.0245000 0.0280000 0.0245000 0.0347500 0.0061650 0.0039175 0.0004175 0.0077500 0.0001675 0.0123325 0.0000000 0.0020850 0.0141675 0.0002500 0.0295000 0.0246675 0.0024150 0.0030000 0.0054175 0.0003325 0.0000000 0.0002500 0.0000000 0.0009175 0.0000825 0.0000000 0.0050825 0.0030825 0.0329175 0.0002500 0.0014150 0.9405000 0.0003325 0.0002500 0.0244150 0.0009150 0.0020000 0.0000000
4:171318 0.0000000 0.0000000 0.0000000 0.0002500 0.0020000 0.0027500 0.0057500 0.0005000 0.0000000 0.0008325 0.0020000 0.0000000 0.0000000 0.0035825 0.0033325 0.0030000 0.0027500 0.0050000 0.0000000 0.0000000 0.0000000 0.0000000 0.0034150 0.0007500 0.0000000 0.0007500 0.0000000 0.0000000 0.0010000 0.0015825 0.0012500 0.0013350 0.0020000 0.0006675 0.0000000 0.0000000 0.0005000 0.0070825 0.0000000 0.0014150 0.0038325 0.0029175 0.0000000 0.0003325 0.0004150 0.0016675 0.0028325 0.0001675 0.0000000 0.0005000 0.0000000 0.0097500 0.0032500 0.0000825 0.0000000 0.0000000 0.0087500 0.0015850 0.0093325 0.0055000 0.0022500 0.0016675 0.0075000 0.0040000 0.0019175 0.0010850 0.0040000 0.0017500 0.0070000 0.0064175 0.0002500 0.0010000 0.0037500 0.0005825 0.0048325 0.0006675 0.0010000 0.0001675 0.0003325 0.0049175 0.0044175 0.0002500 0.0000000 0.0005825 0.0055000 0.0000000 0.0015000 0.0012500 0.0000000 0.0031675 0.0000000 0.0001650 0.0000825 0.0009150 0.0107500 0.0010825 0.0016675 0.0025825 0.0043350 0.0040825 0.0012500 0.0111650 0.0111675 0.0082500 0.0094150 0.0013325 0.0001675 0.0000000 0.0100000 0.0002500 0.0028325 0.0000000 0.0049175 0.0008325 0.0025850 0.0002500 0.0038325 0.0027500 0.0115000 0.0043325 0.0018325 0.0001675 0.0060825 0.0056675 0.0035825 0.0001675 0.0000000 0.0004175 0.0109150 0.0001675 0.0000000 0.0019175 0.0005825 0.0033325 0.0034150 0.0002500 0.0082500 0.0021650 0.0041675 0.0028325 0.0040825 0.0011650 0.0117500 0.0083350 0.0000000 0.0004175 0.0000000 0.0006675 0.0000000 0.0030825 0.0004175 0.0040000 0.0004175 0.0002500 0.0025825 0.0025825 0.0085000 0.0004175 0.0002500 0.0028325 0.0028325 0.0004150 0.0001675 0.0025000 0.0000000 0.0065850 0.0000000 0.0000000 0.0000000 0.0004175 0.0068325 0.0000000 0.0000000 0.0155825 0.0080000 0.0067500 0.0214175 0.0030000 0.0076675 0.0023325 0.0001675 0.0009175 0.0000000 0.0057500 0.0000000 0.0000000 0.0092500 0.0002500 0.0033350 0.0003325 0.0030000 0.0026675 0.0219175 0.0220000 0.0062500 0.0087500 0.0007500 0.0068325 0.0000000 0.0017500 0.0101675 0.0004150 0.0005000 0.0012500 0.0211675 0.0238325 0.0113325 0.0097500 0.0050000 0.0005000 0.0001675 0.0040000 0.0000000 0.0101675 0.0000000 0.0023325 0.0125825 0.0003350 0.0189175 0.0020825 0.0029150 0.0021650 0.0069150 0.0004175 0.0000000 0.0005825 0.0000000 0.0000000 0.0010825 0.0002500 0.0068350 0.0043325 0.0000000 0.0003325 0.0013325 0.0023350 0.0003325 0.0015850 0.0257500 0.0022500 0.0036675 0.0000000
4:171334 0.0000000 0.0000000 0.0000000 0.0000000 0.0085825 0.0135825 0.0270000 0.0130000 0.0000000 0.0061650 0.0126675 0.0000000 0.0000000 0.0140825 0.0043325 0.0117500 0.0578350 0.0251675 0.0000000 0.0000000 0.0000000 0.0000000 0.0132500 0.0022500 0.0002500 0.0005825 0.0005000 0.0000000 0.0125825 0.0069175 0.0082500 0.0024175 0.0132500 0.0142500 0.0012500 0.0000825 0.0040850 0.0305000 0.0017500 0.0081675 0.0095000 0.0316650 0.0000825 0.0016650 0.0012500 0.0030000 0.0141675 0.0005000 0.0000000 0.0010850 0.0000000 0.0353325 0.0164175 0.0001675 0.0000000 0.0004175 0.0362500 0.0074175 0.0311650 0.0167500 0.0107500 0.0042500 0.0359150 0.0079175 0.0065850 0.0075825 0.0188325 0.0471675 0.0340000 0.0306675 0.0003325 0.0032500 0.0083325 0.0014150 0.0180000 0.0050000 0.0039175 0.0009175 0.0010825 0.0150000 0.0185825 0.0014175 0.0000000 0.9964175 0.0167500 0.0005850 0.0049175 0.0047500 0.0000000 0.0084175 0.0005000 0.0054175 0.0007500 0.0042500 0.0300000 0.0035000 0.0053325 0.0086650 0.0155850 0.0140850 0.0047500 0.0285000 0.0330000 0.0281675 0.0309175 0.9998325 1.0000000 0.0001675 0.0295825 0.0013350 1.0316675 0.0012500 0.0197500 0.0017500 0.0042500 0.0013325 0.0183325 0.0101675 0.0303325 0.0156675 0.0099175 0.0004150 0.0194150 0.0199175 0.0148325 0.0000825 0.0022500 0.0008350 0.0267500 0.0002500 0.0004150 0.0070000 0.0020000 0.0085000 0.0128325 0.0011675 0.0302500 0.0063325 0.0181675 0.0109175 0.0147500 0.0044175 0.0291675 0.0291650 0.0005825 0.0019175 0.0006675 0.0026675 0.0000000 0.0178350 0.0020000 0.0095000 0.0007500 0.0000825 0.0083325 0.0085825 0.0245825 0.0004175 0.0003325 0.0152500 0.0095000 0.0024150 0.0000000 0.0042500 0.0000000 0.0203325 0.0002500 0.0003350 0.0003350 0.0008325 0.0174175 0.0003325 0.0000825 0.0381650 0.0160825 0.0195825 0.0500000 0.0065000 0.0310825 0.0071675 0.0014175 0.0065825 0.0000000 0.0121675 0.0002500 0.0000000 0.0233325 0.0004175 0.0052500 0.0006675 0.0062500 0.0053325 0.0457500 0.0455825 0.0115825 0.0237500 0.0006675 0.0118350 0.0000000 0.0028325 0.0245850 0.0030850 0.0013350 0.0019175 0.0414175 0.0473350 0.0235825 0.0242500 0.0115825 0.0006675 0.0001650 0.0100850 0.0000000 0.0246650 0.0000000 0.0025000 0.0216650 0.0010000 0.0475825 0.0601650 0.0049150 0.0045000 0.0107500 0.0005825 0.0002500 0.0004175 0.0001675 0.0005000 0.0020000 0.0001675 0.0107500 0.0060850 0.0000000 0.0000825 0.0040000 0.0041650 0.0007500 0.0005000 0.0456650 0.0025850 0.0071650 0.0001675
4:171339 0.0000000 0.0000000 0.0000000 0.0001675 0.0079175 0.0110850 0.0299175 0.0002500 0.0000000 0.0056650 0.0120825 0.0000000 0.0000000 0.0126675 0.0034150 0.9297500 0.0071650 0.0275825 0.0000000 0.0000000 0.0000000 0.0000000 0.0126675 0.0020850 0.0005000 0.0015000 0.0002500 0.0000000 0.0134175 0.0055000 0.0057500 0.0047500 0.0137500 0.0041650 0.0020000 0.0000825 0.0013325 0.0334175 0.0000000 0.0075000 0.0068350 0.0102500 0.0000000 0.0013325 0.0010850 0.0044150 0.0132500 0.0002500 0.0000000 0.0005000 0.0000000 0.0329175 0.0156675 0.0002500 0.0000000 0.0000825 0.0280825 0.0064175 0.0285850 0.0160825 0.0060000 0.0056675 0.0305825 0.0075825 0.0065850 0.0074150 0.0155000 0.0065825 0.0314150 0.0232500 0.0008325 0.0041650 1.0343325 0.0010850 0.0143325 0.0042500 0.0018350 0.0003325 0.0013325 0.0143325 0.0144175 0.0010825 0.0002500 0.0015000 0.0179175 0.0002500 0.0018325 0.0043325 0.0000000 0.0068325 0.0008325 0.0007500 1.0000000 0.0049175 0.0365000 0.0048325 0.0038325 0.0043325 0.0169175 0.0158350 0.0042500 0.0352500 0.0358350 0.0311675 0.0335000 0.0050825 0.0000825 0.0000000 0.0319175 0.0005000 0.0085000 0.0010850 0.0135825 0.0027500 0.0030825 0.0012500 0.0152500 0.0074150 0.0310000 0.0141650 0.0065825 0.0004175 0.0208350 0.0174150 0.0185850 0.0000000 0.0015825 0.0016650 0.0304175 0.0010000 0.0001675 0.0079150 0.0013325 0.0078350 0.0163325 0.0015000 0.0312500 0.0073350 0.0153350 0.0087500 0.0179175 0.0041650 0.0323325 0.0310825 0.0000000 0.0022500 0.0000000 0.0018325 0.0002500 0.0149175 0.0017500 0.0087500 0.0022500 0.0004175 0.0110850 0.0076650 0.0204150 0.0002500 0.0003325 0.0185850 0.0098325 0.0014150 0.0000000 0.0036650 0.0009150 0.0209150 0.0005000 0.0000000 0.0005000 0.0014175 0.0207500 0.0001675 0.0001675 0.0367500 0.0205000 0.0198350 0.0512500 0.0076675 0.0286650 0.0068325 0.0014150 0.0025000 0.0000000 0.0165000 0.0002500 0.0002500 0.0267500 0.0000825 0.0064150 0.0006675 0.0077500 0.0085825 0.0660000 0.0565850 0.9805825 0.0279150 0.0001675 0.0173325 0.0000000 0.0042500 0.0147500 0.0034150 0.0013350 0.0035000 0.0587500 0.0529175 0.0290825 0.0215000 0.0136650 0.0005825 0.0003325 0.0133325 1.0000000 0.9437500 0.0000000 0.0028325 0.0298325 0.0005000 0.0501675 0.0052500 0.0080000 0.0084175 0.0145825 0.0005825 0.0001675 0.0000000 0.0001675 0.0001650 0.0014175 0.0000000 0.0144150 0.0083325 0.0000000 0.0001650 0.0027500 0.0034175 0.0006650 0.0006675 0.0587500 0.0028325 0.0086675 0.0000000
4:218124 0.0000000 0.0000000 0.0000000 0.0000000 0.0001675 0.0000000 0.0078325 0.0016675 0.0000000 0.0000000 0.0021675 0.0000000 0.0000000 0.0000000 0.0003325 0.0245825 0.0389175 0.0201675 0.0000000 0.0000000 0.0000000 0.0000000 0.0019150 0.0064175 0.0000000 0.0008325 0.0000000 0.0000000 0.0000825 0.0000000 0.0000000 1.0000000 0.0000000 0.0000000 0.0000000 0.0000000 0.0000000 0.0030000 0.0000825 1.0000000 0.0034175 0.0003325 0.0000000 0.0010825 0.0181675 0.0000000 0.0060850 0.0000000 0.0000000 0.0000000 0.0000000 0.0041675 0.0207500 0.0000000 1.0000000 0.0001675 0.0180825 0.0103325 0.0008350 0.0000000 0.0119175 0.0001675 0.0077500 0.0012500 0.0030825 0.0016675 0.0052500 0.0378350 0.0031675 0.0218325 0.0000000 0.0002500 0.0000000 0.0003325 0.0093325 0.0022500 0.0000000 0.0000000 0.0000000 0.0020850 0.0010000 0.0002500 0.0000000 0.0000000 0.0000825 0.0000000 0.0001675 0.0000000 0.0000000 0.0020825 0.0000000 0.0073350 0.0002500 0.0001675 0.0180825 0.0000000 0.0000000 0.0000000 0.0156675 0.0165825 0.0081650 0.0011650 0.0142500 0.0201675 0.0049175 0.0000000 0.0000000 0.0000000 0.0052500 0.0000000 0.0000000 0.0000000 0.0088325 0.0000825 0.0000000 0.0000000 0.0000000 0.0020825 0.0035000 0.0004150 0.0006675 0.0000000 0.0000000 0.0000000 0.0005000 0.0000000 0.0000000 0.0000000 0.0019175 0.0000000 0.0000000 0.0047500 0.0004175 0.0020000 0.0059175 0.0000000 0.0029175 0.0045825 0.0027500 0.0008325 0.0039175 0.0045825 0.0025850 0.0003325 0.0000000 0.0000000 0.0000000 0.0000000 0.0000000 0.0001675 0.0005000 0.0003350 0.0000000 0.0000000 0.0000000 0.0000000 0.0000000 0.0009175 0.0000000 0.0000000 0.0000000 0.0000000 0.0000000 0.0000000 0.0000000 0.0002500 0.0012500 0.0009175 0.0000825 0.0008350 0.0020000 0.0000000 0.0000000 0.0004150 0.0143350 0.0021650 0.0050825 0.0014175 0.0280000 0.0021675 0.0002500 0.0017500 0.0000000 0.0007500 0.0000000 0.0000000 0.0070000 0.0000000 0.0000000 0.0000000 0.0019175 0.0020825 0.0070850 0.0049175 0.0020000 0.0031675 0.0000000 0.0039175 0.0000000 0.0000000 0.0013350 0.0000000 0.0000000 0.0010000 0.0011675 0.0014150 0.0060000 0.0006675 0.0000000 0.0009175 0.0000000 0.0002500 0.0000000 0.0051675 0.0000000 0.0000000 0.0016675 0.0012500 0.0099150 0.0370825 0.0074175 0.0000000 0.0101675 0.0004175 0.0045000 0.0053350 0.0000000 0.0000000 0.0106675 0.0025825 0.0010825 0.0003325 0.0110850 0.0013325 0.0000000 0.0013325 0.0000000 0.0014175 0.0016675 0.0115850 0.0000000 0.0095825
4:218136 0.0000000 0.0000000 0.0000000 0.0000000 0.0002500 0.0000000 0.0116650 0.0020850 0.0000000 0.0000000 0.0005000 0.0000000 0.0000000 0.0002500 0.0002500 0.0152500 0.0188325 0.0158325 0.0000000 0.0000000 0.0000000 0.0000000 0.0012500 0.0035000 0.0000000 0.0004175 0.0000000 0.0000825 0.0005000 0.0000000 0.0000000 0.0002500 0.0000000 0.0000000 0.0000000 0.0000000 0.0000000 0.0009150 0.0000000 0.0000000 0.0038325 0.0000000 0.0000000 0.0056650 0.0305000 0.0000000 0.0058350 0.0000000 0.0000000 0.0000000 0.0000000 0.0081650 0.0234175 0.0000000 0.0000000 0.0000000 0.0250000 0.0084150 0.0007500 0.0002500 0.0107500 0.0004175 0.0077500 0.0015000 0.0025825 0.0020000 0.0061675 0.0216650 0.0060000 0.0135000 0.0000000 0.0000825 0.0000000 0.0003325 0.0139175 0.0060000 0.0000000 0.0000000 0.0000000 0.0018325 0.0021650 0.0002500 0.0000000 0.0000000 0.0002500 0.0000000 0.0002500 0.0010000 0.0000000 0.0050825 0.0000000 0.0160825 0.0000825 0.0004175 0.0280000 0.0000000 0.0000000 0.0000000 0.0314150 0.0188325 0.0260850 0.0014150 0.0255000 0.0192500 0.0057500 0.0000000 0.0000000 0.0000000 0.0058325 0.0000000 0.0000000 0.0000000 0.0124150 0.0000000 0.0000000 0.0000000 0.0000000 0.0024150 0.0065825 0.0014175 0.0007500 0.0000825 0.0000000 0.0000000 0.0001675 0.0000000 0.0000000 0.0000000 0.0017500 0.0000000 0.0000000 0.0062500 0.0000000 0.0007500 0.0088325 0.0000000 0.0040000 0.0055825 0.0008325 0.0024150 0.0040000 0.0058325 0.0051675 0.0006675 0.0000000 0.0000825 0.0000000 0.0000000 0.0000000 0.0002500 0.0003350 0.0003325 0.0000000 0.0000000 0.0000000 0.0000000 0.0005000 0.0009175 0.0000000 0.0002500 0.0000000 0.0000000 0.0001675 0.0007500 0.0000825 0.0021675 0.0031675 0.0020000 0.0002500 0.0092500 0.0098325 0.0006675 0.0000000 0.0013350 0.0335825 0.0051675 0.0249175 0.9836675 0.0225000 0.0136650 0.0004175 0.0079175 0.0000000 0.0018325 0.0000825 0.0000000 0.0570825 0.0001675 0.0015000 0.0000000 0.0072500 0.0085000 0.0596650 0.0301650 0.9877500 0.0115850 0.0002500 0.0147500 0.0000000 0.0002500 0.0140825 0.0005000 0.0000000 0.0278350 0.0131675 0.0066675 0.0284175 0.0060000 0.0026675 0.0038325 0.0000000 0.0014175 0.0000000 0.0300825 0.0000000 0.0004175 0.0267500 0.0143325 0.0570825 0.0192500 0.0565000 0.0003325 0.0630000 0.0033325 0.0273350 0.0317500 0.0014175 0.0001675 0.0605850 0.0145000 0.0095000 0.0087500 0.0618325 0.0073350 0.0003325 0.0069175 0.0007500 0.0070825 0.0088325 0.0610000 0.0004175 0.0596675
4:218139 0.0000000 0.0000000 0.0000000 1.0000000 1.0000000 0.0070850 0.1250825 0.0378325 0.0003350 0.0002500 0.0137500 0.0000000 0.0000000 0.0025825 0.0045000 0.2510825 0.1219150 0.2471675 0.0004175 0.0000000 0.0000000 0.0000000 0.0164150 1.2270825 1.0000000 1.0000000 0.0000000 0.0016675 1.0000000 0.0000000 0.0000000 1.0000000 1.9865825 0.0000000 0.0000000 1.0000000 1.0000000 0.9855000 0.0028325 0.0010000 0.1227500 0.0016675 0.0012500 0.0315825 0.2448325 0.0006675 0.0695825 0.0000000 0.0001675 0.9999175 0.0001675 0.0660000 0.2474175 1.9874175 0.0001675 0.0109175 0.2305850 0.1237500 0.0101675 0.0033325 0.1218350 0.0097500 0.1173350 0.0083350 0.0345000 0.0346675 0.0637500 0.1259175 1.2140825 0.2520000 0.0000000 0.9999175 1.0000000 1.0022500 0.1210000 0.0701675 1.0000000 0.0000000 0.0015000 0.0381675 0.0175000 0.0002500 1.0000000 0.0000000 1.0000000 0.0013350 0.0006650 0.0104175 0.0000000 0.0688325 0.0000000 0.1176675 0.0034150 0.0029175 0.2439175 0.0022500 0.0012500 0.0000000 0.2553325 0.2430825 0.1260850 0.0171650 0.2372500 0.2501650 0.0701675 0.0005825 1.0000000 1.0000000 0.0672500 1.0000000 0.0000000 0.0000000 0.2455000 0.0024175 1.0000000 0.2158350 0.0000000 0.0160825 1.2088325 0.0065850 0.0157500 0.0000000 0.0000000 0.0000000 0.0026675 1.0000000 0.0000000 0.0000000 1.5241650 0.0004175 0.0000000 0.0657500 1.0000000 0.0160000 0.0664175 0.0000000 0.0335000 0.0677500 0.0191675 0.0357500 0.0332500 0.0690000 0.0651650 0.0175825 2.0000000 0.0000000 0.0000000 0.0000000 1.0000000 0.0029175 0.0052500 0.0053325 1.0000000 0.0000000 0.0000000 0.0000000 0.0034175 0.0160000 0.0006675 0.0024150 0.0001675 0.0008325 0.0018350 0.0042500 0.0000000 0.0159150 1.3547500 0.0186675 0.0031650 0.0640000 0.0643350 0.0034150 0.0001675 0.0218350 0.2388325 0.0302500 0.1107500 0.9920000 0.2287500 0.0556650 0.0020000 0.0339150 0.0000825 0.0117500 0.0000000 0.0000000 0.2145000 0.0011650 1.0000000 0.9995000 0.0322500 0.0355000 0.2178350 1.0929150 0.0572500 0.0494175 0.0004175 0.0631675 0.0000000 0.0018325 0.1208325 0.0019175 1.0000000 0.1105825 0.0566675 0.0307500 1.1035000 0.9843325 0.0085850 0.0131675 1.0000000 1.0000000 0.0000000 0.1060000 0.0000000 0.0011650 0.1107500 0.0320850 0.2187500 0.1332500 0.2298325 0.0026675 0.2184175 0.0052500 0.1016650 0.1065825 0.0039175 0.0016675 0.2156675 0.0541650 0.0294175 0.0139150 0.2177500 0.0279175 0.0020000 0.0593325 0.0051675 0.0254175 0.0153325 0.2122500 0.0004175 0.2140825
4:218143 0.0000000 0.0000000 0.0000000 0.0000000 0.0002500 0.0000000 0.0051675 0.0028325 0.0000000 0.0000000 0.0003325 0.0000000 0.0000000 0.0005000 0.0000000 0.0137500 0.0070000 0.0093350 0.0000000 0.0000000 0.0000000 0.0000000 0.0002500 0.0025000 0.0000000 0.0006675 0.0000000 0.0000000 0.0000000 0.0000000 0.0000000 0.0002500 0.0000000 0.0000000 0.0000000 0.0000000 0.0000000 0.0014150 0.0000000 0.0000000 0.0055000 0.0000000 0.0000000 0.0022500 0.0101650 0.0000000 0.0034175 0.0000000 0.0001675 0.0000000 0.0000000 0.0032500 0.0124175 0.0000000 0.0000000 0.0000000 0.0126675 0.0062500 0.0009175 0.0000000 0.0120850 0.0001675 0.0044150 0.0003325 0.0027500 0.0010850 0.0037500 0.0058350 0.0039150 0.0118325 0.0000000 0.0000000 0.0000000 0.0005000 0.0073325 0.0015850 0.0000000 0.0000000 0.0000000 0.0019175 0.0011675 0.0000000 0.0000000 0.0000000 0.0000000 0.0000000 0.0000000 0.0009175 0.0000000 0.0015000 0.0000000 0.0065825 0.0000825 0.0002500 0.0141675 0.0000000 0.0000000 0.0000000 0.0146650 0.0106650 0.0138325 0.0003325 0.0140825 0.0135850 0.0030000 0.0000000 0.0000000 0.0000000 0.0035000 0.0000000 0.0000000 0.0000000 0.0058350 0.0003325 0.0000000 0.0000000 0.0000000 0.0007500 0.0048325 0.0003325 0.0010850 0.0000000 0.0000000 0.0000000 0.0002500 0.0000000 0.0000000 0.0000000 0.0005000 1.0000000 0.0000000 0.0023325 0.0000000 0.0007500 0.0042500 0.0000000 0.0012500 0.0035850 0.0005000 0.4083350 0.0028325 0.0019175 0.0034150 0.0023350 0.0000000 0.0000000 0.0000000 0.0000000 0.0000000 0.0000000 0.0000000 0.0006675 0.0000000 0.0000000 0.0000000 0.0000000 0.0001675 0.0000825 0.0000000 0.0002500 0.0000000 0.0000000 0.0000000 0.0005000 0.0000000 0.0009175 0.0004175 0.0018325 0.0000000 0.1268325 0.0030000 0.0004150 0.0000000 0.0008325 0.0191675 0.0019175 0.0150000 0.0054175 0.0119175 0.0066650 0.0000000 0.0041650 0.0000000 0.0018350 0.0000000 0.0000000 0.0220850 0.0000000 0.0007500 0.0000000 0.0039175 0.0026675 0.0237500 0.0125825 0.0079150 0.0058350 0.0000000 0.0060850 0.0000000 0.0000000 0.0063350 0.0000825 0.0000000 0.0109150 0.0080000 0.0035000 0.0118350 0.0029175 0.0004175 0.0014150 0.0000000 0.0001675 0.0000000 0.0136650 0.0000000 0.0002500 0.0035825 0.0035000 0.0251675 0.0055000 0.0266650 0.0000000 0.0268325 0.0009175 0.0128325 0.0142500 0.0004175 0.0000825 0.0271675 0.0130850 0.0046675 0.0013325 0.0277500 1.0000000 0.0000000 0.0030000 0.0003350 0.0025825 0.0015000 0.0286650 0.0000000 0.0264175
4:218164 0.0000000 0.0000000 0.0000000 1.0000000 0.0005850 0.0005000 0.0090850 0.0010000 0.0000000 0.0000000 0.0010000 0.0000000 0.0000000 0.0000000 0.0002500 0.0159150 0.0057500 0.0164175 0.0000000 0.0000000 0.0000000 0.0000000 0.0014150 0.0055825 0.0000000 0.0010825 0.0000000 0.0000825 0.0000000 0.0000000 0.0000000 0.0001675 0.0000000 0.0000000 0.0000000 0.0000000 0.0000000 0.0027500 0.0001675 0.0000000 0.0053325 0.0001675 0.0000000 0.0020000 0.0197500 0.0000000 0.0047500 0.0000000 0.0000000 0.0000000 0.0000000 0.0046675 0.0178350 0.0000000 0.0002500 0.0017500 0.0194150 0.0070000 0.0001675 0.0000000 0.0086675 0.0004175 0.0095825 0.0002500 0.0034175 0.0019175 0.0051650 0.0041675 0.0039175 0.0165000 0.0000000 0.0005000 0.0000000 0.0000000 0.0094150 0.0016650 0.0000000 0.0000000 0.0000000 0.0025000 0.0019175 0.0000000 0.0002500 0.0000000 0.0000000 0.0000000 0.0000000 0.0009175 0.0000000 0.0067500 0.0000000 0.0095000 0.0000000 0.0002500 0.0164175 0.0000000 0.0000000 0.0000000 0.0206650 0.0154150 0.0120000 0.0008325 0.0168325 0.0176675 0.0038325 0.0000000 0.0000000 0.0000000 0.0059175 0.0005825 1.0000000 0.0000000 0.0060850 0.2179150 0.0000000 0.0000000 0.0000000 0.0015000 0.0049175 0.0005000 0.0009175 0.0000000 0.0000000 0.0000000 0.0002500 0.0000000 0.0000000 0.0000000 0.0009175 0.0000000 0.0000000 0.0032500 0.0000000 0.0007500 0.0070000 0.0000000 0.0016675 0.0048325 0.0010850 0.0025825 0.0021675 0.0035000 0.0041675 0.0011675 0.0000000 0.0000000 0.0000000 0.0000000 0.0000000 0.0002500 0.0005000 0.0001675 0.0000000 0.0000000 0.0000000 0.0000000 0.0000825 0.0011650 0.0000000 0.0000000 0.0000825 0.0000000 0.0004150 0.0003325 0.0000000 0.0023325 0.0010000 0.0008325 0.0000825 0.0051675 0.0045000 0.0000000 0.0000000 0.0012500 0.0191675 0.0021675 0.0120850 0.0066650 0.0144175 0.0072500 0.0000825 0.0052500 0.0000000 0.0015825 0.0000825 0.0000000 0.0280000 0.0000000 0.0005825 1.0000000 0.0036675 0.0035000 0.0268325 0.0141675 0.0073350 0.0054175 0.0000000 0.0059175 0.0000000 0.0002500 0.0065850 0.0000000 0.0000000 0.8170000 0.0050825 0.0039175 0.0130000 0.0051675 0.0004175 0.0015825 0.0000000 0.0004175 0.0000000 0.0121675 0.0000000 0.0000825 0.0079175 0.0040850 0.0241675 0.0058325 0.0270000 0.0000000 0.0231675 0.0009175 0.0110000 0.0090825 0.0007500 0.0000825 0.0222500 0.0064175 0.0025000 0.0013325 0.0232500 0.0028325 0.0000000 0.0047500 0.0004175 0.0032500 0.0011650 0.0179175 0.0000000 0.0212500
4:218174 0.0000000 0.0000000 0.0000000 1.0000000 1.0000000 0.0073325 0.1310000 0.0717500 0.0000000 0.0027500 0.0415000 1.0000000 0.0000000 0.0017500 0.0034175 0.2550000 0.1316675 0.2590825 1.0000000 0.0000000 0.0000000 0.0000000 0.0194175 1.2250000 1.0000000 1.0000000 0.0000000 0.0005000 1.0000000 0.0000000 0.0000000 1.0000000 1.9846675 0.0000000 0.0000000 1.0000000 1.0000000 0.9908325 0.0031650 0.0000000 0.0688325 0.0010825 0.0010850 0.0330000 0.2299175 0.0006675 0.0683325 0.0000000 0.0001675 0.9997500 0.0000000 0.1240000 0.2525850 1.9853325 0.0005000 0.0199175 0.2410000 0.1175825 0.0092500 0.0034175 0.1202500 0.0057500 0.1255825 0.0104175 0.0301675 0.0362500 0.0680850 0.1305850 1.2140000 0.2551675 0.0000000 0.9921675 1.0000000 0.0053325 0.1231650 0.0335000 1.0000000 0.0000000 0.0014150 0.0330825 0.0178325 0.0016650 0.0000000 0.0000000 1.0000000 0.0006675 0.0007500 0.0105000 0.0000825 0.0344150 0.0000825 0.1240000 0.0009150 0.0078350 0.2493350 0.0034175 0.0007500 0.0002500 0.2405000 0.2568350 0.1178350 0.0158350 0.2516675 0.2511675 0.0695000 0.0000000 1.0000000 1.0000000 0.0712500 1.0000000 0.0000000 0.0000000 0.1392500 0.0019175 1.0000000 0.2140000 0.0000000 0.0215825 1.2229150 0.0064175 0.0206675 0.0000825 0.0000000 0.0000000 0.0036675 1.0000000 0.0000000 0.0000000 1.5427500 0.0000000 0.0001675 0.0622500 1.0016650 0.0166675 0.0685825 0.0000000 0.0409175 0.0630000 0.0190850 0.0345000 0.0340000 0.0647500 0.0686650 0.0319175 2.0000000 1.0000000 0.0000000 0.0005000 1.0000000 0.0020000 0.0034175 0.0048350 1.0000000 0.0000000 0.0002500 0.0000000 0.0047500 0.0081675 0.0000825 0.0018325 0.0002500 0.0005000 0.0017500 0.0040000 0.0000000 0.0153325 1.0005850 0.0208325 0.0044150 0.0637500 0.0649175 0.0033325 0.0003325 0.0155850 0.2399175 0.0370850 0.1101650 0.9909175 0.2215000 0.0586675 0.0023350 0.0272500 0.0000000 0.0137500 0.0002500 0.0000000 0.2203350 0.0020825 1.0000000 0.9995825 0.0300000 0.0267500 0.2213325 1.1052500 0.0611650 0.0544175 0.0027500 0.0617500 0.0000825 0.0051675 0.1085850 0.0022500 1.0000000 0.1140000 0.0555000 0.0326675 1.1031675 0.9816675 0.0091675 0.0163325 1.0000000 1.0000000 0.0000000 0.1144150 0.0000000 0.0011675 0.0569150 0.0510000 0.2225825 0.1260825 0.2266675 0.0014175 0.2190000 0.0078325 0.1011675 0.1116675 0.0024175 0.0018325 0.2023325 0.0635000 0.0281650 0.0152500 0.2045000 0.0285850 0.0025000 0.0558325 0.0039150 0.0295000 0.0167500 0.2119175 0.0005850 0.2021650
4:218177 0.0000000 0.0000000 0.0000000 0.0000000 0.0000000 0.0005850 0.0035000 0.0015000 0.0000000 0.0000000 0.0003325 0.0000000 0.0000000 0.0000000 0.0001675 0.0079150 0.0259175 0.0065000 0.0000000 0.0000000 0.0000000 0.0000000 0.0000000 0.0005000 0.0000000 0.0002500 0.0000000 0.0000000 0.0002500 0.0000000 0.0000000 0.0002500 0.0000000 0.0000000 0.0000000 0.0000000 0.0000000 0.0007500 0.0001675 0.0000000 0.0014175 0.0000000 0.0000000 0.0009175 0.0071675 0.0000000 0.0018350 0.0000000 0.0000000 0.0000000 0.0000825 0.0015000 0.0076675 0.0000000 0.0000000 0.0003350 0.0080825 0.0043350 0.0000000 0.0002500 0.0055850 0.0004175 0.0032500 0.0000825 0.0011675 0.0012500 0.0008325 0.0229175 0.0009175 0.0061675 0.0000000 0.0000000 0.0000000 0.0000825 0.0037500 0.0005825 0.0000000 0.0000000 0.0000000 0.0007500 0.0005000 0.0000000 0.0000000 0.0000000 0.0002500 0.0001675 0.0000000 0.0001675 0.0000000 0.0004150 0.0000000 0.0032500 0.0000000 0.0002500 0.0055000 0.9978325 0.0000000 0.0000000 0.0057500 0.0051650 0.0045000 0.0000000 0.0075000 0.0087500 0.0012500 0.0000000 0.0000000 0.0000000 0.0008350 0.0000000 0.0000000 0.0000000 0.0024150 0.0000000 0.0000000 0.0000000 0.0000000 0.0005000 0.0020000 0.0004150 0.0001675 0.0000000 0.0000000 0.0000000 0.0002500 0.0000000 0.0000000 0.0000000 0.0004175 0.0000000 0.0000000 0.0019150 0.0000000 0.0005000 0.0017500 0.0000000 0.0006650 0.0009150 0.0000000 0.0009175 0.0005000 0.0019175 0.0024175 0.0000000 0.0000000 0.0000000 0.0000000 0.0000000 0.0000000 0.0000825 0.0000000 0.0002500 0.0000000 0.0000000 0.0000000 0.0000000 0.0000000 0.0000000 0.0000000 0.0000000 0.0000000 0.0000000 0.0000825 0.0000000 0.0000000 0.0008350 0.0004175 0.0004175 0.0000825 0.0030850 0.0021675 0.0000000 0.0000000 0.0013325 0.0086675 0.0016675 0.0040850 0.0019175 0.0075000 0.0015850 0.0000000 0.0017500 0.0000000 0.0004175 0.0000000 0.0000000 0.0095000 0.0000000 0.0001675 0.0000000 0.0016650 0.0011650 0.0095000 0.0054150 0.0020000 0.0025825 0.0000000 0.7389175 0.0000000 0.0000000 0.0032500 0.0000825 0.0000000 0.0055000 0.0015000 0.0004175 0.0052500 0.0010000 0.0003325 0.0010825 0.0001675 0.0000000 0.0000000 0.0052500 0.0000000 0.0000000 0.0044175 0.0015850 0.0094175 0.0158350 0.0092500 0.0000000 0.0055000 0.0000000 0.0035000 0.0035825 0.0000000 0.0000000 0.0100000 0.0017500 0.0015000 0.0005000 0.0067500 0.0008350 0.0001675 0.0006675 0.0000000 0.0008350 0.0007500 0.0073350 0.0000000 0.0078325
4:238785 0.0000000 0.0185000 0.0000000 0.0170000 0.0354150 0.0028325 0.0140825 0.0000000 0.0000000 0.0169150 0.1255000 0.1141675 0.0000000 0.0051650 0.0110825 0.1274175 0.2582500 0.0635825 0.0000000 0.0000000 0.0000000 0.0002500 0.1385825 0.0620000 0.1177500 1.0964175 1.6536675 0.1220000 0.0624175 0.1197500 0.0080000 0.0199175 0.0000000 0.7746675 0.9898350 0.0335825 0.0595850 0.1272500 0.0329175 0.0029175 0.1250000 0.0886675 0.0000000 0.0141650 0.8004150 0.0595825 0.0005000 0.0557500 0.0000000 0.7975000 0.0003325 0.0625825 0.0183325 0.0020850 0.0010825 0.0107500 0.1245850 0.1463350 0.0565825 0.0256650 0.0623350 0.1114150 0.0623350 0.1237500 0.1537500 0.0314175 0.1176675 0.2568325 0.1170825 0.0650825 0.0149150 0.1190825 0.1149150 0.0640000 0.1243325 0.1245850 0.1216675 0.0065000 0.0024175 0.0566675 0.0605000 0.0160850 0.0293350 0.0040000 0.0051675 0.0002500 0.0139175 0.0560825 0.0080850 0.0564175 0.0036675 0.0269150 0.0515000 0.0000825 0.1175000 0.0075000 0.0002500 0.0005000 0.0250825 0.1255825 0.1159175 0.1046675 0.1094150 0.1259175 0.1287500 0.0071650 0.0301650 0.0510825 0.1214150 0.0589150 0.1120850 0.1111675 0.1136675 0.1110825 0.0170825 0.0290825 0.1120825 0.1200825 0.1187500 0.1251675 0.1100825 1.0234150 0.0500825 0.9996675 0.0635850 0.0621675 1.0317500 0.1149175 0.1080825 0.0285825 0.0140000 0.1190825 0.7082500 0.0615850 0.0605825 0.0588325 0.1130850 0.0544150 0.0582500 0.1270000 0.1219150 0.0612500 0.1281675 0.0602500 0.1140000 0.0000000 0.1095825 0.0081675 0.1154175 0.1170000 0.7375825 0.1135825 0.0620825 0.0038325 0.0145000 0.0010000 0.0458325 0.0264150 0.0025850 0.0071675 0.0009150 0.0000000 0.0128350 0.9896650 0.0141650 0.0520000 0.0296675 0.0010000 0.0001675 0.0058350 0.0480825 0.8136675 0.0235825 0.0258350 0.0560850 0.0503350 0.0454175 0.0119175 0.1600000 0.0238350 0.0103325 0.0123350 0.9980000 0.0435000 0.0000000 0.0000825 0.0765825 0.0010850 0.0415000 0.1065825 0.0214175 0.0832500 0.0116675 0.0468350 0.0002500 0.0186675 0.0909175 0.0112500 0.0220825 0.0034175 0.0024150 0.0144175 0.0020000 0.0038325 0.0470825 0.0138325 0.0891675 0.0000000 0.0005000 0.0003325 0.0778325 0.0234150 0.0064175 0.0432500 0.0000000 0.0830000 0.0099175 0.0004175 0.0900000 0.2664175 0.0444175 0.0006675 0.0020000 1.0000000 0.0014175 1.0000000 0.0135000 0.0000000 0.0041650 0.0001675 0.9767500 0.0025000 0.0028325 0.0000000 0.0000000 0.0958325 0.9998325 0.0006675 0.1105825 0.0935825 0.0017500 0.0036675
4:238815 0.0000000 0.0005825 0.0000000 0.0003325 0.0010000 0.0000000 0.0000825 0.0000000 0.0000000 0.0000825 0.0014175 0.0020000 0.0000000 0.0000000 0.0002500 0.0025850 0.0245000 0.0014175 0.0000000 0.0000000 0.0000000 0.0000000 0.0025000 0.0005000 0.0008350 0.0000000 0.0000000 0.0024150 0.0005850 0.0015850 0.0000000 0.0002500 0.0000000 0.0001650 0.0000000 0.0000000 0.0002500 0.0020825 0.0000825 0.0000000 0.0023325 0.0013325 0.0000000 0.0006675 0.0001675 0.0011675 0.0002500 0.0010000 0.0000000 0.0000000 0.0000000 0.0008350 0.0004175 0.0000000 0.0000000 0.0007500 0.0008325 0.0032500 0.0010000 0.0003325 0.0017500 0.0039175 0.0011675 0.0024150 0.0066650 0.0000825 0.0013325 0.0219175 0.0031650 0.0005825 0.0001675 0.0025825 0.0018325 0.0020000 0.0029150 0.0026675 0.0008350 0.0000000 0.0000000 0.0020825 0.0002500 0.0000000 0.0009175 0.0000000 0.0000000 0.0000000 0.0000000 0.0009175 0.0000825 0.0006675 0.0000000 0.0007500 0.0002500 0.0000000 0.0015850 0.0001675 0.0000000 0.0000000 0.0003350 0.0011650 0.0025850 0.0022500 0.0015825 0.0039175 0.0030825 0.0002500 0.0008325 0.0005825 0.0023325 0.0018325 0.0012500 0.0027500 0.0015825 0.0011650 0.0003350 0.0000000 0.0023350 0.0026675 0.0038350 0.0010825 0.0029150 0.0012500 0.0002500 0.0000000 0.0009175 0.0017500 0.0008350 0.0022500 0.0027500 0.0005000 0.0004150 0.0017500 0.0009175 0.0002500 0.0011675 0.0006675 0.0016675 0.0001675 0.0004175 0.0027500 0.0020000 0.0005000 0.0018350 0.0008325 0.0018350 0.0000000 0.0002500 0.0000000 0.0018350 0.0029150 0.0009175 0.0009150 0.0007500 0.0002500 0.0000000 0.0000000 0.0010000 0.0006675 0.0000000 0.0000000 0.0000000 0.0000000 0.0001675 0.0000000 0.0002500 0.0008350 0.0002500 0.0000000 0.0000000 0.0000000 0.0010000 0.0000825 0.0001650 0.0003325 0.0012500 0.0018350 0.0013325 0.0003350 0.0071675 0.0001675 0.0002500 0.0008325 0.0000000 0.0024150 0.0000000 0.0000000 0.0035825 0.0001675 0.0010825 0.0029175 0.0006650 0.0007500 0.0001675 0.0010825 0.0000000 0.0004175 0.0015850 0.0000000 0.0002500 0.0001675 0.0001675 0.0009175 0.0000000 0.0002500 0.0019175 0.0001675 0.0021675 0.0000000 0.0000000 0.0001675 0.0028350 0.0001675 0.0001675 0.0000825 0.0000000 0.0030000 0.0000825 0.0000000 0.0033350 0.0241675 0.0015000 0.0000000 0.0000000 0.0000000 0.0000000 0.0000825 0.0001675 0.0000000 0.0000825 0.0000000 0.0000000 0.0000000 0.0004175 0.0000000 0.0000000 0.0031675 0.0000825 0.0000000 0.0037500 0.0032500 0.0000000 0.0001675
4:238824 0.0000000 0.0003325 0.0000000 0.0023350 0.0037500 0.0002500 0.0019175 0.0000000 0.0000000 0.0011675 0.0148350 0.0119150 0.0000000 0.0002500 0.0027500 0.0144150 0.0054175 0.0072500 0.0000000 0.0000000 0.0000000 0.0000000 0.0121675 0.0040000 0.0157500 0.0005825 0.0000000 0.0155825 0.0073325 0.0117500 0.0002500 0.0004175 0.0000000 0.0011675 0.0000000 0.0010000 0.0049175 0.0173325 0.0014175 0.0005000 0.0083350 0.0025000 0.0000000 0.0025000 0.0015000 0.0085850 0.0000000 0.0069175 0.0000000 0.0000000 0.0000000 0.0080000 0.0015825 0.0002500 0.0000825 0.0010000 0.0075850 0.0172500 0.0106675 0.0056675 0.0080850 0.0222500 0.0082500 0.0166675 0.0119175 0.0019175 0.0135000 0.0058325 0.0158325 0.0086675 0.0010825 0.0140825 0.0217500 0.0075000 0.0195000 0.0140000 0.0210825 0.0007500 0.6880850 0.0080000 0.0033350 0.0020000 0.0065825 0.0000000 0.0015000 0.0000000 0.0021650 0.0105825 0.0018350 0.0080825 0.0002500 0.0040850 0.0018325 0.0000000 0.0212500 0.0010000 0.0000000 0.0005850 0.0037500 0.0157500 0.0215000 0.0206675 0.0235000 0.0163325 0.0158325 0.0005000 0.0070825 0.0132500 0.0169175 0.0126675 0.0206675 0.0189175 0.0147500 0.0200825 0.0014175 0.0012500 0.0180000 0.0202500 0.0131675 0.0154150 0.0181675 0.0065850 0.0090850 0.0000000 0.0086650 0.0108325 0.0043350 0.0199175 0.0148350 0.0043325 0.0028325 0.0167500 0.0070850 0.0074175 0.0085000 0.0101675 0.0139175 0.0060000 0.0100825 0.0160850 0.0145000 0.0101650 0.0155000 0.0087500 0.0168325 0.0000000 0.0030000 0.0005000 0.0164175 0.0170850 0.0026650 0.0189175 0.0095000 0.0010000 0.0004175 0.0000825 0.0070000 0.0050825 0.0007500 0.0013350 0.0000000 0.0000000 0.0026650 0.0000000 0.0052500 0.0120000 0.0065000 0.0000000 0.0000000 0.0000825 0.0099150 0.0022500 0.0024150 0.0045850 0.0111675 0.0124175 0.0178325 0.0038325 0.0191650 0.0040850 0.0042500 0.0058325 0.0000000 0.0185000 0.0000000 0.0000000 0.0364150 0.0002500 1.0340825 0.0081675 0.0071650 0.0178325 0.0025825 0.0074175 0.0000000 0.9655825 0.0099175 0.0026650 0.0021650 0.0006675 0.0000000 0.0050850 0.0009175 0.0021675 0.0159150 0.0015850 0.0345000 1.0035000 0.0000000 0.0003325 0.0365000 0.0051650 0.0010825 0.0045000 0.0000000 0.0376675 0.0050000 0.0000000 0.0360000 0.0060825 0.0179150 0.0001675 0.0002500 0.9997500 0.0015825 0.0004175 0.0030850 0.0000000 0.0015825 0.0000000 0.0014175 0.0004175 0.0013325 0.0000000 0.0001675 0.0325000 0.0002500 0.0000000 0.0360850 0.0309175 0.0012500 0.0007500
4:238845 0.0000000 0.0010825 0.0000000 0.0002500 0.0020000 0.0005000 0.0017500 0.0000000 0.0000000 0.0011675 0.0033325 0.0070000 0.0000000 0.0000000 0.0010000 0.0076675 0.0025850 0.0040000 0.0000000 0.0000000 0.0000000 0.0000000 0.0090825 0.0020850 0.0084150 0.0000000 0.0000000 0.0096650 0.0031650 0.0085000 0.0002500 0.0000000 0.0000000 0.0003325 0.0000000 0.0018325 0.0018325 0.0117500 0.0002500 0.0000000 0.0059175 0.0010000 0.0000000 0.0016650 0.0005825 0.0070825 0.0000000 0.0054175 0.0000000 0.0000000 0.0000000 0.0055000 0.0005825 0.0000000 0.0000000 0.0004175 0.0060000 0.0060825 0.0045850 0.0023325 0.0044150 0.0110000 0.0053325 0.0100825 0.0098325 0.0016675 0.0089175 0.0014175 0.0116650 0.0049175 0.0005850 0.0126650 0.0136675 0.0045825 0.0137500 0.0095000 0.0131675 0.0009150 0.0005000 0.0046675 0.0043325 0.0025825 0.0038325 0.0000000 0.0002500 0.0000000 0.0010000 0.0096675 0.0005000 0.0060000 0.0005000 0.0038325 0.0020000 0.0000000 0.0158325 0.0010825 0.0000000 0.0000000 0.0032500 0.0105000 0.0136650 0.0184150 0.0113325 0.0110825 0.0087500 0.0010850 0.0041675 0.0087500 0.0085825 0.0076675 0.0125000 0.0139150 0.0116650 0.0144175 0.0023325 0.0017500 0.0099150 0.0137500 0.0089150 0.0105000 0.0172500 0.0055825 0.0070000 0.0000000 0.0055000 0.0074150 0.0032500 0.0108325 0.0144175 0.0034150 0.0018325 0.0105000 0.0063350 0.0058350 0.0040850 0.0073325 0.0100000 0.0035000 0.0055000 0.0110825 0.0106675 0.0063325 0.0100825 0.0059150 0.0133350 0.0000000 0.0007500 0.0009150 0.0112500 0.0102500 0.0006650 0.0142500 0.0060000 0.0005000 0.0005000 0.0000000 0.0059150 0.0027500 0.0002500 0.0005825 0.0000000 0.0000000 0.0034175 0.0000000 0.0014150 0.0071650 0.0060825 0.0000000 0.0000000 0.0002500 0.0109175 0.0019175 0.0013350 0.0022500 0.0067500 0.0059175 0.0150000 0.0025825 0.0082500 0.0052500 0.0048325 0.0029175 0.0000000 0.0135000 0.0000000 0.0000000 0.0283325 0.0000000 0.0075850 0.0022500 0.0068350 0.0112500 0.0019175 0.0089150 0.0000000 0.0076675 0.0065000 0.0016650 0.0000000 0.0010825 0.0004150 0.0043325 0.0001675 0.0009150 0.0130850 0.0022500 0.0269150 0.0000000 0.0000000 0.0001675 0.0311675 0.0014150 0.0001675 0.0041650 1.0000000 0.0272500 1.0000000 0.0000000 0.0225825 0.0019175 0.0121675 0.0000000 0.0000000 0.0006675 0.0009150 0.0000000 0.0037500 0.0000000 0.0007500 0.0000000 0.0005000 0.0007500 0.0010000 0.0000000 1.0000000 0.0269175 0.0002500 0.0000000 0.0263325 0.0273325 0.0005850 0.0007500
4:238880 0.0000000 0.0000000 0.0000000 0.0474175 0.0010000 0.0000000 0.0021650 0.0275850 0.0005000 0.0118325 0.1921675 0.1895850 0.0000000 0.0474175 0.0920000 1.0953325 0.0650850 0.1805000 2.0000000 0.0000000 0.0000000 0.0000000 0.0116675 0.2067500 0.1940000 0.0254175 0.0058350 0.1787500 0.1915850 0.1975000 0.0231650 1.0000000 1.6019175 0.0220825 0.0997500 0.0019175 0.0032500 1.0824175 0.0133350 0.0140825 0.0264150 1.0000000 0.0000000 0.0431675 0.0688325 0.0760000 0.0000000 0.0118350 0.0000000 0.0000000 0.0000000 0.0433350 0.0806675 0.0000000 0.0000000 0.0000000 0.0191650 0.1678325 0.0872500 1.0000000 0.0245825 0.9995825 0.0106650 0.0134150 0.1525825 0.0240000 0.0864175 0.0659175 0.1674175 0.0970825 0.0000000 0.1493325 0.1559150 0.1602500 0.0733325 0.0938350 0.0407500 0.0000000 0.0017500 1.1641650 0.9765850 1.2310825 0.0008325 1.0000000 0.0006650 1.9997500 1.9997500 0.0040850 0.9827500 0.0763325 0.0021675 0.0377500 0.0000000 0.0001675 0.0720000 0.0000825 0.9992500 0.0000000 0.0411675 0.1631650 0.1630000 0.0371675 0.1515850 0.1662500 0.1710000 1.0000000 0.0079175 0.0664175 0.0844150 0.0093325 0.1467500 0.1608325 0.1680850 0.1506675 0.0018350 0.0105850 0.0028325 0.0445000 0.1715825 0.0895000 0.0385825 0.0140825 0.0027500 0.0000000 0.0036675 0.0000825 0.0125000 0.0000825 0.0433350 0.0469175 0.0060000 0.0075850 0.0227500 0.0439175 0.1630000 0.0009175 0.0925825 0.1693325 0.0741675 0.0225000 0.1527500 0.0913325 1.1530000 0.1720850 0.1570825 0.0000000 0.0000000 0.0395850 0.1590850 0.0245825 0.0004175 0.0800825 0.0058325 0.0000000 0.0005850 0.9874175 0.0164175 0.0625825 0.9899150 0.0006675 0.0164175 1.9327500 0.0000825 0.0000000 0.0005000 0.0025000 0.0000000 0.0018325 0.0000000 0.0080825 0.0118325 0.0034175 0.0000000 0.0000000 0.0224175 0.0609175 0.0139175 0.0000000 0.1397500 0.0189150 0.0000000 0.0000000 0.0000000 0.0026675 0.0000000 0.0000000 0.0068325 0.0000000 0.0011675 0.0024150 0.0007500 0.0215850 0.0388325 0.0105850 0.0017500 0.0115000 0.0124175 0.0099175 0.0000000 0.0000000 0.0187500 0.0036675 0.0000000 0.0000000 0.0216675 0.0049175 0.0075000 0.0000825 0.0000000 0.0000000 0.0000825 0.0000825 0.0013325 0.0454150 0.0000000 0.0059150 0.0000000 0.0046650 0.0444150 0.0689175 0.0240825 0.0000000 0.0075000 0.0037500 0.0000000 0.0000000 0.0002500 0.0000000 0.0000000 0.0000000 0.0019175 0.0003325 0.0000000 0.0000000 0.0034175 0.0027500 0.0004175 0.0000000 0.0475000 0.0026650 0.0008325 0.0001675
4:238911 0.0000000 0.0000000 0.0000000 0.0024175 0.0000000 0.0000000 0.0000000 0.0016675 0.0000000 0.0005000 0.0110000 0.0117500 0.0000000 0.0015825 0.0070850 0.0085000 0.0145000 0.0131650 0.0000000 0.0000000 0.0000000 0.0000000 0.0005000 0.0114175 0.0110825 0.0021675 0.0000000 0.0135000 0.0145000 0.0120000 0.0011675 0.0001675 0.0001675 0.0010825 0.0059175 0.0000000 0.0000000 0.0056675 0.0005000 0.0007500 0.0020825 0.0000825 0.0000000 0.0042500 0.0110850 0.0127500 0.0000825 0.0005000 0.0000000 0.0000000 0.0000000 0.0044150 0.0057500 0.0000000 0.0000000 0.0000000 0.0020825 0.0153325 0.0078325 0.0006675 0.0020850 0.0002500 0.0012500 0.0012500 0.0138325 0.0018325 0.0092500 0.0170000 0.0170000 0.0051650 0.0000000 0.0185000 0.0170000 0.0175000 0.0103325 0.0070000 0.0043325 0.0000000 0.0000000 0.0026675 0.0012500 0.0025000 0.0002500 0.0000000 0.0000000 0.0000000 0.0000000 0.0010000 0.0000000 0.0114175 0.0009175 0.0034150 0.0000000 0.0000000 0.0101675 0.0000000 0.0000000 0.0416650 0.0053325 0.0147500 0.0194175 0.0047500 0.0175850 0.0147500 0.0140850 0.0007500 0.0020825 0.0135825 0.0088325 0.0014150 0.0195850 0.0200000 0.0166675 0.0181675 0.0000000 0.0011675 0.0005000 0.0056650 0.0175850 0.0057500 0.0046675 0.0008325 0.0005850 0.0000000 0.0001675 0.0000000 0.0003325 0.0000000 0.0043325 0.0048325 0.0003325 0.0003325 0.0021650 0.0031675 0.0217500 0.0001675 0.0053350 0.0129150 0.0095850 0.0006650 0.0192500 0.0066675 0.0040000 0.0155000 0.0185850 0.0000000 0.0000000 0.0047500 0.0195000 0.0018350 0.0000000 0.0090000 0.0006675 0.0000000 0.0000000 0.0015000 0.0042500 0.0140825 0.0037500 0.0002500 0.0030000 0.0000000 0.0000000 0.0000000 0.0000000 0.0005000 0.0000000 0.0008350 0.0000000 0.2890000 0.0035825 0.0009175 0.0000000 0.0000000 0.0020000 0.0116675 0.0156675 0.0001675 0.0190825 0.0190825 0.0001675 0.0000000 0.0000000 0.0022500 0.0000000 0.0000000 0.0039175 0.0000000 0.9986675 0.0025850 0.0019175 0.0175000 0.0374175 0.0100850 0.0021675 0.0097500 0.0110000 0.0090000 0.0000000 0.0000000 0.0204175 0.0022500 0.0000000 0.0000000 0.0206675 0.0022500 0.0030825 0.0000000 0.0000000 0.0000825 0.0000825 0.0000000 0.0036675 0.0355825 0.0000000 0.0049175 0.0000000 0.0047500 0.0393350 0.0153325 0.0191675 0.0001675 0.0035825 0.0030000 0.0000000 0.0000000 0.0005000 0.0000000 0.0000825 0.0002500 0.0015000 0.0014175 0.0002500 0.0000000 0.0022500 0.0003325 0.0001675 0.0000000 0.0323350 0.0025000 0.0003325 0.0000000
4:238920 0.0000000 0.0000000 0.0000000 0.0059150 0.0000000 0.0000000 0.0007500 0.0047500 0.0000000 0.0020825 0.0274175 0.0297500 0.0000000 0.0084150 0.0195825 0.0125850 0.0101650 0.0276675 0.0000000 0.0000000 0.0000000 0.0000000 0.0033350 0.0255825 0.0344175 0.0044150 0.0009175 0.0329175 0.0333350 0.0270825 0.0045850 0.0005000 0.0005850 0.0052500 0.0151675 0.0000000 0.0007500 0.0205000 0.0021650 0.0015825 0.0051675 0.0000000 0.0000000 0.0090000 0.0195000 0.0240850 0.0000000 0.0016675 0.0000000 0.0000000 0.0000000 0.0074175 0.0167500 0.0000000 0.0000000 0.0000000 0.0030000 0.0344175 0.0209175 0.0009175 0.0060000 0.0001675 0.0029150 0.0035825 0.0257500 0.0035000 0.0185850 0.0097500 0.0452500 0.0158350 0.0000000 0.0439150 0.0477500 0.0452500 0.0206675 0.0203350 0.0122500 0.0001675 0.0002500 0.0105825 0.0020825 0.0081675 0.0000000 0.0000000 0.0006675 0.0000000 0.0000000 0.0049175 0.0000000 0.0263325 0.0021675 0.0130825 0.0000000 0.0000000 0.0248350 0.0000000 0.0001675 0.0000000 0.0139175 0.0325000 0.0460000 0.0138325 0.0485850 0.0363350 0.0415000 0.0015000 0.0044150 0.0336650 0.0208325 0.0025000 0.0475825 0.0489175 0.0425825 0.0459175 0.0000000 0.0024150 0.0003325 0.0109175 0.0367500 0.0165000 0.0136650 0.0043350 0.0002500 0.0000000 0.0007500 0.0000000 0.0025825 0.0001675 0.0090000 0.0085000 0.0019175 0.0003325 0.0064175 0.0094175 0.0434175 0.0003325 0.0133325 0.0367500 0.0215825 0.0062500 0.0447500 0.0185000 0.0103350 0.0380850 0.0510000 0.0000000 0.0000000 0.0106675 0.0477500 0.0045825 0.0002500 0.0246675 0.0007500 0.0000000 0.0003325 0.0057500 0.0090850 0.0313350 0.0084175 0.0008325 0.0101675 0.0002500 0.0000825 0.0000000 1.0000000 0.0010000 0.0012500 0.0009175 0.0000000 0.0034175 0.0080825 0.0026650 0.0000000 0.0006675 0.0062500 0.0286650 0.0274175 1.0000000 0.0360000 0.1065000 0.0001675 0.9910825 0.0000000 0.0061675 0.0000000 0.0000000 0.0111675 0.0000000 0.0003325 0.0080825 0.0042500 0.0505850 0.1048325 0.0514150 0.0074175 0.0264175 0.0241675 0.0265850 0.0000000 0.0000000 0.0489150 0.0076675 0.0000000 0.0000000 0.0514150 0.0055825 0.0131650 0.0005000 1.0000000 0.0002500 0.0004175 0.0006650 0.0020000 0.0994150 0.0000000 0.0131675 0.0000000 0.0142500 0.0960000 0.0073325 0.0539175 0.0000000 0.0133350 0.0047500 0.0000000 1.0000000 0.0003325 0.0002500 0.0000000 0.0000000 0.0028325 0.0003325 0.0000825 0.0000000 0.0052500 1.2861675 0.0017500 0.0000000 0.0995825 0.0070000 0.0014175 0.0005825
4:238923 0.0000000 0.0000000 0.0000000 0.0038350 0.0000000 0.0000000 0.0002500 0.0028325 0.0001675 0.0010825 0.0228325 0.0250825 0.0000000 0.0040000 0.0137500 0.0111675 0.1349175 0.0297500 0.0000000 0.0000000 0.0000000 0.0000000 0.0011675 0.0285000 0.0263350 0.0026675 0.0010825 0.0255000 0.0265825 0.0207500 0.0035825 0.0002500 0.0002500 0.0024175 0.0139150 0.0000825 0.0001675 0.0155850 0.0021675 0.0011675 0.0047500 0.0012500 0.0000000 0.0137500 0.0228325 0.0186675 0.0000000 1.1230850 0.0000000 0.0000000 0.0000000 0.0050850 0.0203325 0.0000000 0.0000000 0.0000000 0.0039175 0.0349150 0.0180000 0.0006675 0.0044175 0.0001675 0.0021675 0.0037500 0.0512500 0.0021675 0.0182500 0.1295000 0.0325850 0.0170825 0.0000000 0.0483325 0.0339150 0.0439175 0.0252500 0.0156675 0.0090825 0.0000000 0.0000000 0.0086675 0.0030850 0.0054175 0.0001675 0.0000000 0.0002500 0.0000000 0.0000000 0.0026675 0.0000000 0.0185825 0.0020825 0.0097500 0.0000000 0.0000000 0.0203325 0.0000000 0.0000000 0.0000000 0.0134150 0.0293325 0.0435000 0.0096675 0.0405825 0.0325000 0.0325850 0.0012500 0.0027500 0.0221650 0.0166675 0.0029150 0.0345825 0.0379150 0.0358350 0.0379175 0.0002500 0.0020825 0.0005000 0.0104175 0.0350850 0.0171675 0.0116675 0.0025000 0.0014175 0.0000000 0.0000000 0.0000000 0.0029175 0.0000000 0.0085000 0.0094175 0.0014175 0.0016675 0.0036650 0.0085000 0.0329150 0.0000000 0.0133325 0.0305000 0.0170000 0.0051675 0.0368325 0.0149175 0.0077500 0.0300850 0.0335000 0.0000000 0.0000000 0.0109175 0.0335850 0.0036675 0.0001650 0.0135825 0.0015000 0.0000000 0.0000000 0.0039175 0.0098325 0.0240000 0.0064175 0.0001675 0.0064175 0.0000000 0.0000000 0.0000000 0.0000000 0.0008325 0.0007500 0.0005000 0.0001675 0.4386650 0.0112500 0.0025000 0.0000000 0.0000000 0.0055000 0.0271675 0.0212500 0.0005850 0.0633350 0.9684175 1.0000000 0.0000000 0.0000000 0.0046675 0.0000000 0.0000000 0.0117500 0.0000000 0.9996650 0.0051650 0.0019175 0.0395000 0.0825850 0.0228350 0.0045000 0.0176675 0.0201675 0.0179175 0.0000000 0.0000000 0.0362500 0.0054175 0.0000000 0.0000000 0.0381650 0.0055000 0.0083350 0.0005825 0.0000000 0.0003325 0.0005825 0.0009175 0.0041675 0.0697500 0.0000000 0.0080000 0.0000000 0.0195000 0.0738325 0.1333325 0.0372500 0.0000000 0.0096675 0.0043350 0.0000000 0.0000000 0.0000000 0.0000000 0.0000000 0.0003325 0.0032500 0.0014175 0.0000000 0.0000000 0.0070825 0.0041675 0.0002500 0.0000000 0.0701650 0.0047500 0.0005825 0.0000825
4:238947 0.0000000 0.0000000 0.0000000 0.0027500 0.0000000 0.0002500 0.0008325 0.0012500 0.0000000 0.0018325 0.0120000 0.0123325 0.0000000 0.0037500 0.0089175 0.0038325 0.0026675 0.0088325 0.0000000 0.0000000 0.0000000 0.0000000 0.0005825 0.0109150 0.0120825 0.0008325 0.0005000 0.0170000 0.0117500 0.0086650 0.0016675 0.0002500 0.0000825 0.0017500 0.0058325 0.0000000 0.0001675 0.0067500 0.0014175 0.0008325 0.0012500 0.0000000 0.0000000 0.0040000 0.0109150 0.0095000 0.0000000 0.0018350 0.0000000 0.0000000 0.0000000 0.0025000 0.0073325 0.0000000 0.0000000 0.0000000 0.0023325 0.0134150 0.0073325 0.0007500 0.0013325 0.0000000 0.0007500 0.0012500 0.0133350 0.0012500 0.0081650 0.0025825 0.0183350 0.0063325 0.0000000 0.0208325 0.0230825 0.0185000 0.0080000 0.0071675 0.0044150 0.0001675 0.0000000 0.0033325 0.0019175 0.0020825 0.0001650 0.0000000 0.0001675 0.0000000 0.0000000 0.0007500 0.0000000 0.0092500 0.0008325 0.0067500 0.0000000 0.0002500 0.9583325 0.0000000 0.0000000 0.0000000 0.0050825 0.0164175 0.0210825 0.0036675 0.0181650 0.0117500 0.0147500 0.0003325 0.0016675 0.0124175 0.0075850 0.0034175 0.0175825 0.0167500 0.0125000 0.0187500 0.0005000 0.0009150 0.0005825 0.0018325 0.0215000 0.0082500 0.0100000 0.0012500 0.0000825 0.0000000 0.0000825 0.0000000 0.0007500 0.0000000 0.0050000 0.0035850 0.0007500 0.0010850 0.0010000 0.0049175 0.0153325 0.0005000 0.0067500 0.0152500 0.0073350 0.0006675 0.0165825 0.0075000 0.0038325 0.0134175 0.0191650 0.0000000 0.0000000 0.0050825 0.0180000 0.0035825 0.0002500 0.0099175 0.0007500 0.0000000 0.0000000 0.0022500 0.0039175 0.0159175 0.0041650 0.0002500 0.0036675 0.0000000 0.0000000 0.0000000 0.0001675 0.0005000 0.0000000 0.0002500 0.0000000 0.0017500 0.0020000 0.0008325 0.0000000 0.0002500 0.0038325 0.0109175 0.0070850 0.0000000 0.0158325 0.0176675 0.0000000 0.0000000 0.0000000 0.0022500 0.0000000 0.0000000 0.0040825 0.0000000 0.0002500 0.0012500 0.0005000 0.0167500 0.0388325 0.0115000 0.9084175 0.0083325 0.0095000 0.0086675 0.0000000 0.0000000 0.0210000 0.0105000 0.0000000 0.0000000 0.0224175 0.0104150 0.0035000 0.0011675 0.0000000 0.0000000 0.0000825 0.0004175 0.0012500 0.0404150 0.0000000 0.0049175 0.0002500 0.0169175 0.0467500 0.0021650 0.0204150 1.0000000 0.0030825 0.0019150 0.0000000 0.0000000 0.0002500 0.0000000 0.0000000 0.0000000 0.0017500 0.0006650 0.0002500 0.0000000 0.0020000 0.0012500 0.0005000 0.0000000 0.0386675 0.0040850 0.0014150 0.0000825
4:294766 0.0000000 0.0000000 0.0001675 0.0007500 0.0003325 0.0000000 0.0074175 0.0027500 0.0000000 0.0038325 0.0015000 0.0000000 0.0000000 0.0013350 0.0005000 0.0080850 0.0047500 0.0041675 0.0000000 0.0000000 0.0000000 0.0000000 0.0044150 0.0000000 0.0000000 0.0053325 0.0009175 0.0007500 0.0000000 0.0014175 0.0000000 0.0002500 0.0019175 0.0000000 0.0007500 0.0000000 0.0000000 0.0005000 0.0000000 0.0002500 0.0046675 0.0000000 0.0001675 0.0006675 0.0081675 0.0005825 0.0000000 0.0000000 0.0000000 0.0000000 0.0000000 0.0000000 0.0022500 0.0033325 0.0000000 0.0000000 0.0067500 0.0040000 0.0013350 0.0030825 0.0004175 0.0002500 0.0054150 0.0000000 0.0010000 0.0026675 0.0013350 0.0036650 0.0020850 0.0050825 0.0000000 0.0000000 0.0002500 0.0013325 0.0072500 0.0015000 0.0000000 0.0023325 0.0005825 0.0008325 0.0024175 0.0004175 0.0000000 0.0010000 0.0000000 0.0000000 0.0010825 0.0002500 0.0003325 0.0007500 0.0000000 0.0175000 0.0011650 0.0006675 0.0155825 0.0000000 0.0014175 0.0004175 0.0012500 0.0030825 0.0082500 0.0001675 0.0054150 0.0044150 0.0062500 0.0070825 0.0000000 0.0010000 0.0069150 0.0004175 0.0088325 0.0022500 0.0056675 0.0000000 0.0015825 0.0000825 0.0026675 0.0031650 0.0034175 0.0042500 0.0009175 0.0002500 0.0000000 0.0000000 0.0005825 0.0000000 0.0000000 0.0000000 0.0000000 0.0000000 0.0000000 0.0012500 0.0004175 0.0026650 0.0010825 0.0014175 0.0020825 0.0025825 0.0025850 0.0015825 0.0072500 0.0055000 0.0061675 0.0085000 0.0000000 0.0000000 0.0000000 0.0001675 0.0013350 0.0031675 0.0011675 0.0013325 0.0006675 0.0000000 0.0000000 0.0000000 0.0043325 0.0006650 0.0004175 0.0009175 0.0000000 0.0000000 0.0000000 0.0000000 0.0001675 0.0000000 0.0004150 0.0009175 0.0000000 0.0000000 0.0010000 0.0027500 0.0000000 0.0050825 0.0100000 0.0025825 0.0035850 0.0050825 0.0094175 0.0184150 0.0000000 0.0008325 0.0000000 0.0038350 0.0000000 0.0000000 0.0068325 0.0000000 0.0082500 0.0009175 0.0170825 0.0000825 0.0043325 0.0350825 0.0045825 0.0005850 0.0019175 0.0139150 0.0000000 0.0005000 0.0136675 0.0005000 0.0000000 0.0295000 0.0120000 0.0178325 0.0135850 0.0138325 0.0003325 0.0000000 0.0000000 0.0104175 0.0009175 0.0174175 0.0000000 0.0003325 0.0006675 0.0001675 0.0148350 0.0061675 0.0079175 0.0006675 0.0080000 0.0081675 0.0000000 0.0000000 0.0005825 0.0000000 0.0005825 0.0000825 0.0010850 1.0000000 0.0039150 0.0005000 0.0035825 0.0040825 0.0087500 0.0015850 0.0006650 0.0014175 0.0007500 0.0173325
4:294772 0.0000825 0.0000000 0.9996650 0.0044175 0.0058325 0.0000000 0.0495825 0.0458325 0.0000000 0.0795000 0.0085825 1.0000000 0.0028325 0.0232500 0.0134175 0.0835825 0.2939150 0.0394175 0.0793325 1.0000000 0.0000000 1.0000000 0.0403325 0.0026675 0.0000825 0.0417500 0.0146650 0.0040000 0.0034175 0.0104175 0.0010825 0.0013350 0.0112500 0.0057500 0.0118325 0.0116650 0.0006675 0.0063325 0.0000825 0.0030850 0.0496675 0.0032500 0.0033325 0.0134150 0.0495825 0.0032500 0.0005000 0.0000000 0.0000000 0.0000000 1.0000000 0.0035000 0.0272500 0.0270000 0.0019175 0.0000000 0.0535000 0.0448350 0.0069175 0.9561675 0.0007500 0.7681675 0.0519175 0.0029175 0.0182500 0.0249175 0.0124175 0.3065825 0.0240825 0.0221650 0.0002500 0.0007500 0.0022500 0.0063325 0.0543325 0.0108325 1.0000000 0.0062500 0.0061675 0.0132500 0.0259175 0.0047500 0.0000000 0.0024175 0.0000000 0.0000000 0.0041650 0.0012500 0.0009175 0.0041675 0.0000000 0.0916675 0.0060000 0.0013325 0.1011675 0.0005000 0.0144175 0.0028325 0.0076675 0.0255000 0.0460825 0.0015000 0.0500825 0.0109150 0.0400825 0.0433350 0.0005000 0.0078350 0.0457500 1.0000000 0.0453325 0.0138350 0.0460825 0.0005825 0.0108350 0.0016650 0.0199150 0.0240850 0.0225000 0.0480000 0.0122500 0.0013325 0.0003325 0.0000000 0.0005825 0.0000000 1.0000000 0.0000000 0.0000825 0.0000000 0.0000825 0.0130000 0.0014175 0.0121675 0.0052500 0.0125825 0.0217500 0.0263350 0.0255000 0.0133350 0.0444175 0.0395000 0.0428350 0.0896675 0.0000000 0.0000000 1.0000000 0.0004175 0.0240825 0.0267500 0.0059175 0.0133325 0.0016650 0.0000000 0.0000825 0.0000000 0.0496675 0.0106675 0.0030000 0.0028325 0.0000000 0.0000000 0.0002500 0.0000000 0.0017500 0.0012500 0.0007500 0.0076650 0.0000000 0.0000000 0.9995000 0.9385000 0.0001675 0.0287500 0.0490000 0.0105000 0.0145000 0.0150000 0.1378350 0.0606675 0.0000000 0.0032500 0.0000000 0.0165000 0.0000000 0.0000000 0.0269150 0.0004175 0.0149175 0.0049175 0.0666650 0.0006675 0.0139175 0.1178350 0.0145000 0.0045825 0.0086650 0.0513325 0.0000000 0.0015000 0.0556675 0.0004150 0.0000000 0.1145000 0.0535000 1.0424175 0.0594175 0.0560850 1.0033325 0.0000000 0.0009175 0.0305825 0.0025850 0.0610825 0.0000000 0.7461650 0.0012500 0.0003350 0.0641650 0.2815000 0.0272500 0.0025000 0.0235000 0.0271675 0.0010825 0.0000000 1.0000000 0.0004175 1.0000000 0.0008325 0.0040000 0.0001675 0.0169175 0.0001650 0.0161650 0.0142500 0.0280825 0.0034175 0.0042500 0.0027500 0.0010000 0.0543325
4:294781 0.0000000 0.0000000 0.0003325 0.0032500 0.0044150 0.0000000 0.0189175 0.0223350 0.0000000 0.0205825 0.0048325 0.0000000 0.0000000 0.0050825 0.0065850 0.0440825 0.0256675 0.0213325 0.0000000 0.0000000 0.0000000 0.0000000 0.0205825 0.0007500 0.0000000 0.0225000 0.0055000 0.0007500 0.0011650 0.0079175 0.0005000 0.0008325 0.0057500 0.0028350 0.0025825 0.0002500 0.0000000 0.0016650 0.0000000 0.0014175 0.0245000 0.0010000 0.0016675 0.0021650 0.0230000 0.0017500 0.0000000 0.0000000 0.0000000 0.0000000 0.0000000 0.0005825 0.0120850 0.0105825 0.0008325 0.0000000 0.0200825 0.0225825 0.0026675 0.0067500 0.0000000 0.0008325 0.0255850 0.0007500 0.0050000 0.0114175 1.0000000 0.0233325 0.0138350 0.0115000 0.0003350 1.0000000 0.0010850 0.0038325 0.0240000 0.0071650 0.0000000 0.0034175 0.0020000 0.0052500 0.0103325 0.0015850 1.0000000 0.0032500 0.0002500 0.0000000 0.0045000 0.0003325 0.0007500 0.0021675 0.0000000 0.0457500 0.0065850 1.0000000 0.0445825 0.0000000 0.0074175 0.0013350 0.0035000 0.0112500 0.0240000 0.0005000 0.0272500 0.0047500 0.0225825 0.0250000 0.0003325 0.0024150 0.0228350 0.0007500 0.0240825 0.0080000 0.0257500 0.0000825 0.0068325 0.0002500 0.0113325 0.0113325 0.0118325 0.0214175 0.0074175 0.0015000 0.0004150 0.0000000 0.0002500 1.0000000 0.0000000 0.0000000 0.0000825 0.0000825 0.0000000 0.0059150 0.0011675 0.0064175 0.0024175 0.0080000 0.0140000 0.0110825 1.0470825 0.0105000 0.0266650 0.0231675 0.0189175 0.0455000 0.0000000 0.0000000 0.0000000 0.0003325 0.0026675 0.0112500 0.0033325 0.0090000 0.0005000 0.0000000 0.0000825 0.0000000 0.0268325 0.0055000 0.0023325 0.0019175 0.0000000 0.0000000 0.0000000 0.0000000 0.0007500 0.0000825 0.0009150 0.0022500 0.0000000 0.0000000 0.0025000 0.0063325 0.0000000 0.0135850 0.0259150 0.0063325 0.0070000 0.0099175 0.0515850 0.0324175 0.0000000 0.0022500 0.0000000 0.0073325 0.0000000 0.0000000 0.0169150 0.0004175 0.0081675 0.0005000 0.0330000 1.0051675 0.0076650 0.0655850 0.0079150 0.0019175 0.0019175 0.0319175 0.0000000 0.0009150 0.0329150 0.0008350 0.0000000 0.0653325 0.0331650 0.0295825 0.0325000 0.0290825 0.0001650 0.0000000 0.0005000 0.0153350 0.0014150 0.0285000 0.0000000 0.0010000 0.0018325 0.0001675 0.0305825 0.0259175 0.0172500 0.0003325 0.0164150 0.0170000 0.0002500 0.0000000 0.0004175 0.0003325 0.9087500 0.0005000 0.0016650 0.0000000 0.0088350 0.0006650 0.0084150 0.0071650 0.0210000 0.0018350 0.0021675 0.0021675 0.0004175 0.0262500
4:294802 0.0000000 0.0000000 0.0000000 0.0000000 0.0001675 0.0000000 0.0007500 0.0003325 0.0000000 0.0005825 0.0002500 0.0000000 0.0000000 0.0000000 0.0000000 0.0006675 0.0088350 0.0005000 0.0000000 0.0000000 0.0000000 0.0000000 0.0005000 0.0000000 0.0000000 0.0005000 0.0000000 0.0000000 0.0000000 0.0000000 0.0000000 0.0000000 0.0002500 0.0000000 0.0000000 0.0000000 0.0000000 0.0000000 0.0000000 0.0000000 0.0006675 0.0003325 0.0000000 0.0000000 0.0005825 0.0000000 0.0000000 0.0000000 0.0000000 0.0000000 0.0000000 0.0000000 0.0004175 0.0005825 0.0000000 0.0000000 0.0010825 0.0009150 0.0000000 0.0000825 0.0000000 0.0000000 0.0005825 0.0000000 0.0003325 0.0002500 0.0002500 0.0079175 0.0002500 0.0004175 0.0000000 0.0000000 0.0000000 0.0000000 0.0009175 0.0003325 0.0000000 0.0000000 0.0000000 0.0000000 0.0005825 0.0000000 0.0000000 0.0000000 0.0000000 0.0000000 0.0000000 0.0000000 0.0001675 0.0000000 0.0000000 0.0003325 0.0006675 0.0000000 0.0014175 0.0000000 0.0000000 0.0000000 0.0000000 0.0002500 0.0005000 0.0000000 0.0007500 0.0002500 0.0008350 0.0004175 0.0000000 0.0000000 0.0015000 0.0000000 0.0007500 0.0000000 0.0002500 0.0000000 0.0000000 0.0000000 0.0000000 0.0007500 0.0003325 0.0008350 0.0001675 0.0000000 0.0000000 0.0000000 0.0001675 0.0000000 0.0000000 0.0000000 0.0000000 0.0000000 0.0000000 0.0002500 0.0000000 0.0002500 0.0002500 0.0002500 0.0001650 0.0006675 0.0005825 0.0004175 0.0005850 0.0005000 0.0003325 0.0007500 0.0000000 0.0000000 0.0000000 0.0000000 0.0000000 0.0000825 0.0000000 0.0000825 0.0000000 0.0000000 0.0000000 0.0000000 0.0002500 0.0000000 0.0000000 0.0000000 0.0000000 0.0000000 0.0000000 0.0000000 0.0000000 0.0000000 0.0000000 0.0000000 0.0000000 0.0000000 0.0000000 0.0000000 0.0000000 0.0001675 0.0006675 0.0000825 0.0003325 0.0002500 0.0022500 0.0008350 0.0000000 0.0002500 0.0000000 0.0002500 0.0000000 0.0000000 0.0003325 0.0001675 0.0000825 0.0001675 0.0027500 0.0000000 0.0000000 0.0020850 0.0000000 0.0000000 0.0000000 0.0006675 0.0000000 0.0000000 0.0015850 0.0000000 0.0000000 0.0010850 0.0010825 0.0000825 0.0014175 0.0002500 0.0000000 0.0000000 0.0000000 0.0000000 0.0000000 0.0007500 0.0000000 0.0001675 0.0000000 0.0000000 0.0012500 0.0103325 0.0001675 0.0000000 0.0005000 0.0005825 0.0002500 0.0000000 0.0000000 0.0000000 0.0002500 0.0000000 0.0000000 0.0000000 0.0000000 0.0000000 0.0000000 0.0003325 0.0002500 0.0001675 0.0000000 0.0002500 0.0000000 0.0004150
4:294805 0.0000000 0.0000000 0.0000825 0.0016675 0.0036650 0.0000000 0.0293325 0.0334150 0.0000000 0.0282500 0.0101675 0.0000000 0.0000000 0.0089175 0.0081675 0.0624175 0.0310825 0.0323325 0.0000000 0.0000000 0.0000000 0.0000000 0.0297500 0.0024150 0.0002500 0.0290000 0.0088325 0.0017500 0.0014175 0.0078350 0.0011675 0.0006650 0.0075000 0.0062500 0.0043350 0.0001675 0.0005000 0.0055000 0.0000000 0.0034150 0.0388325 0.0000825 0.0010825 0.0054175 0.0268325 0.0015000 0.0002500 0.0000000 0.0000000 0.0000000 0.0000000 0.0010000 0.0150825 0.0141650 0.0004175 0.0000000 0.0287500 0.0293325 0.9737500 0.0091650 0.0000825 0.0014175 0.0349175 0.0024150 0.0073325 0.0128350 0.0065000 0.0280850 0.0137500 0.0141675 0.0003325 0.0000000 0.0012500 0.0024150 0.0310000 0.0095825 0.0000000 0.9721675 0.0037500 1.0000000 0.0135850 0.0015000 0.0000000 0.0020850 0.0002500 0.0000000 0.0017500 0.0003325 0.0005825 0.0027500 0.0000825 0.0590825 0.0048350 0.0011650 0.0589175 0.0005000 0.0080825 0.0020850 0.0046650 0.0194175 0.0311675 0.0010000 1.0206675 0.0068350 0.0300825 0.0316650 0.0010000 0.0056650 0.0349175 0.0009175 0.0317500 0.0101650 0.0296675 0.0004175 0.0078325 0.0009175 0.0158325 0.9893350 0.0155000 0.0338325 0.0104150 0.0014175 0.0001675 0.0000000 0.0006675 0.0000000 0.0000000 0.0000000 0.0003325 0.0001675 1.0000000 0.0088325 0.0011675 0.0072500 0.0039150 0.0085825 0.0187500 0.0145000 0.0155000 0.0071650 1.0226650 0.0305000 0.0319175 0.0582500 0.0000000 0.0002500 0.0000000 0.0003325 0.9469175 0.0135825 0.0044175 0.0093350 0.0016675 0.0000000 0.0001650 0.0000000 0.0154150 0.0055850 0.0009150 0.0023350 0.0000000 0.0000000 1.0000000 0.0000000 0.0011650 0.0002500 0.0005850 0.9998325 0.0000000 0.0000000 0.0015825 0.0075825 0.0000825 0.0154175 1.0254175 0.0087500 0.0073350 0.0077500 0.0578350 0.0294150 0.0000000 0.0023325 0.0000000 0.0070825 0.0000000 0.0000000 0.0109175 0.0000825 0.0067500 0.0021675 0.0270000 0.0000825 0.0077500 0.0560825 0.0063325 1.0000000 0.0023325 0.0276650 0.0000000 0.0009175 0.0334150 0.0000000 1.0000000 0.0642500 0.0301675 0.0286675 0.0231675 0.0162500 0.0005000 0.0000000 0.0000825 0.0075825 0.0000825 0.0223350 1.0000000 1.0000000 0.0012500 0.0001675 0.0277500 0.0307500 0.0135000 0.0004150 0.0120850 0.0125850 0.0000000 0.0000000 0.0006675 0.0001675 0.0010825 0.0000000 0.0073350 0.0001675 0.0081675 0.0008325 0.0065825 1.0000000 0.0108325 0.0009175 0.0008325 0.0008325 0.0010000 0.0200000
4:294822 1.0000000 0.0000000 0.0000000 0.0001675 0.0025000 0.0000000 0.0045825 0.0061675 0.0000000 0.0060000 0.0010000 0.0000000 0.0000000 0.0012500 0.0027500 0.0120825 0.0474175 0.0074150 0.0000000 0.0000000 0.0000000 0.0000000 0.0065000 0.0000825 0.0000000 0.0071650 0.0007500 0.0000825 0.0001675 0.0015000 0.0000000 0.0001675 0.0011675 0.0005825 0.0010000 0.0000000 0.0000825 0.0005000 0.0000825 0.0010000 0.0072500 0.0007500 0.0000000 0.0007500 0.0052500 0.0009175 0.0000000 0.0000000 0.0000000 0.0000000 0.0000000 0.0001675 0.0037500 0.0027500 0.0000825 0.0000000 0.0077500 0.0059175 0.0011675 0.0015825 0.0000000 0.0000825 0.0072500 0.0002500 0.0022500 0.0029175 0.0010000 0.0470825 0.0041650 0.0035825 0.0001675 0.0001675 0.0004175 0.0007500 0.0083325 0.0018325 0.0000000 0.0001675 0.0011675 0.0015000 0.0026675 0.0000000 0.0000000 0.0005000 0.0000000 0.0000000 0.0000000 0.0000000 0.0007500 0.0003325 0.0000000 0.0140825 0.0006675 0.0005000 0.0126675 0.0001675 0.0013325 0.0005850 0.0013325 0.0024150 0.0060000 0.0000000 0.0052500 0.0010000 0.0051675 0.0079175 0.0001675 0.0005825 0.0051675 0.0000000 0.0055000 0.0014150 0.0061650 0.0001675 0.0015000 0.5640000 0.0041675 0.0040850 0.0042500 0.0043325 0.0010825 0.0000825 0.0000000 0.0000000 0.0004175 0.0000000 0.0000000 0.0000000 0.0000000 0.0000000 0.0000000 0.0020825 0.0002500 0.0009175 0.0012500 0.0014150 0.0035825 0.0025000 0.0035000 0.0010000 0.0053350 0.0052500 0.0050000 0.0105850 0.0000000 0.0000000 0.0000000 0.0000000 0.0005850 0.0029150 0.0007500 0.0019175 0.0000000 0.0000000 0.0000000 0.0000000 0.0027500 0.0015000 0.0006675 0.0003325 0.0000000 0.0000000 0.0000000 0.0000000 0.0000825 0.0003350 0.0000825 0.0003350 0.0000000 0.0000000 0.0000825 0.0005825 0.0000000 0.0035000 0.0048325 0.0014150 0.0004175 0.0010000 0.0263350 0.0037500 0.0000000 0.0000000 0.0000000 0.0021675 0.0000000 0.0000000 0.0025825 0.0000000 0.0008325 0.0010850 0.0042500 0.0000000 0.0007500 0.0081675 0.0011650 0.0005000 0.0000000 0.0040000 0.0000000 0.0004175 0.0031675 0.0000825 0.0000000 0.0057500 0.0048325 0.0035825 0.0028325 0.0020825 0.0000000 0.0000000 0.0001675 0.0009175 0.0002500 0.0032500 0.0000000 0.0000000 0.0005000 0.0000000 0.0030000 0.0449175 0.0023325 0.0000000 0.0023350 0.0025000 0.0000825 0.0000000 0.0000000 0.0000000 0.0002500 0.0000000 0.0002500 0.0000000 0.0001650 0.0002500 0.0012500 0.0006675 0.0040825 0.0000000 0.0005825 0.0000000 0.0000000 0.0064175
