50 238
4:10035 0.0028350 0.0000000 0.0000000 0.0005000 0.0000000 0.0025000 0.0000000 0.0000000 0.0020000 0.0000000 0.0005000 0.0000000 0.0000000 0.0000000 0.0003325 0.0000000 0.0000000 0.0002500 0.0001675 0.0000825 0.0000000 0.0000000 0.0000000 0.0000000 0.0000000 0.0020000 0.0003350 0.0000000 0.0000000 0.0000000 0.0035000 0.0000000 0.0033350 0.0020850 0.0021650 0.0002500 0.0000825 0.0003325 0.0000000 0.0000000 0.0000000 0.0000000 0.0000000 0.0000000 0.0001675 0.0000000 0.0000000 0.0000000 0.0000000 0.0013350 0.0003350 0.0000000 0.0000000 0.0005000 0.0015825 0.0000000 0.0013325 0.0002500 0.0000000 0.0000000 0.0001675 0.0000000 0.0000000 0.0000000 0.0000000 0.0005850 0.0000000 0.0000000 0.0000000 0.0000000 0.0000000 0.0000000 0.0003325 0.0000000 0.0000000 0.0019175 0.0000000 0.0000000 0.0000000 0.0030000 0.0000000 0.0000000 0.0002500 0.0000000 0.0035000 0.0057500 0.0042500 0.0000000 0.0000000 0.0000000 0.0002500 0.0000000 0.0000000 0.0000000 0.0000000 0.0000000 0.0004175 0.0000000 0.0000000 0.0000000 0.0000000 0.0001675 0.0000000 0.0022500 0.0010850 0.0019150 0.0002500 0.0005000 0.0000000 0.0000000 0.0000000 0.0009175 0.0002500 0.0010000 0.0000825 0.0005825 0.0007500 0.0028325 0.0000000 0.0025850 0.0030850 0.0026675 0.0004175 0.0034150 0.0000000 0.0002500 0.0000000 0.0000000 0.0007500 0.0000000 0.0022500 0.0004175 0.0000000 0.0004175 0.0000000 0.0005825 0.0000000 0.0000000 0.0000000 0.0004175 0.0011675 0.0000000 0.0005000 0.0004150 0.0020000 0.0005000 0.0002500 0.0000000 0.0017500 0.0000000 0.0001675 0.0025825 0.0001675 0.0002500 0.0001675 0.0002500 0.0004175 0.0000000 0.0002500 0.0007500 0.0000825 0.0000000 0.0000000 0.0003325 0.0000000 0.0000000 0.0000000 0.0000000 0.0000000 0.0000000 0.0017500 0.0000825 0.0004175 0.0000000 0.0005000 0.0004175 0.0000000 0.0000000 0.0000000 0.0002500 0.0000000 0.0000000 0.0005850 0.0000000 0.0005000 0.0014150 0.0001675 0.0007500 0.0000000 0.0012500 0.0002500 0.0000000 0.0000000 0.0002500 0.0001675 0.0000825 0.0002500 0.0003325 0.4305850 0.0000000 0.0000000 0.0013325 0.0000000 0.0000000 0.0002500 0.0000000 0.0000000 0.0000000 0.0000000 0.0000000 0.0000000 0.0025000 0.0025000 0.0033350 0.0000000 0.0000000 0.0000000 0.0000000 0.0000000 0.0000000 0.0000000 0.0000000 0.0000000 0.0000000 0.0000000 0.0000000 0.0000000 0.0000000 0.0000000 0.0000000 0.0000000 0.0000000 0.0000000 0.0000000 0.0000000 0.0044175 0.0000000 0.0000000
4:10038 0.1563325 0.0088325 0.0000000 0.0385000 0.0000000 0.1455850 0.0000000 0.0003325 0.1445850 0.0000000 0.0200000 0.0000000 0.0000000 0.0000000 0.0391675 0.0000000 0.0026675 0.0360825 0.0184150 0.0180850 0.0040000 0.0020850 0.0010825 0.0000000 0.0075000 0.1836675 0.0415000 0.0062500 0.0000000 0.0000000 0.0009150 0.0018350 0.1749175 1.0899150 0.1716650 0.0072500 0.0037500 0.0475825 0.0017500 0.0002500 0.0000000 0.0000000 0.0000000 1.0000000 0.0006675 0.0000000 0.0000000 0.0000000 0.0000000 0.1445000 0.0159175 0.9866650 1.0000000 0.0408325 0.0704175 0.0000000 1.0668350 0.0098350 0.0007500 1.0000000 1.0000000 0.0000000 0.0000000 0.0000000 0.0000000 0.0346650 0.0027500 0.0000000 0.0000000 0.0000000 0.0000000 0.0001675 0.0697500 0.0052500 0.0027500 0.1434175 0.0000000 0.0008350 0.0000000 0.1735000 1.0000000 0.0003325 0.0060850 0.0000000 0.1818325 0.1949150 0.1815825 0.0000000 0.0000825 0.0012500 0.0068325 0.0000000 1.0000000 0.0001675 0.0000000 1.0000000 0.0270000 0.0000000 1.0000000 0.0000000 0.0004175 0.0200000 0.0000000 0.1655850 0.1520000 0.1582500 0.0046650 0.0413325 0.0014175 0.0000000 0.0000000 0.0852500 0.0108325 0.0429175 0.0145825 0.0821675 0.0218350 0.1611675 0.0000000 0.1699150 0.1577500 0.0748325 0.0217500 0.1509175 0.0000000 0.0720850 1.0000000 0.0000000 0.0408325 0.0000000 0.1476650 0.0420000 0.0022500 0.0095850 0.0000000 0.0381675 0.0028325 0.0054175 0.0040000 0.0395825 0.0734175 0.0046650 0.0410825 0.0455000 0.1550825 0.0398325 0.0747500 0.0230000 0.1472500 1.0000000 0.0105825 0.1510850 0.0177500 0.0229175 0.0093325 0.0008325 0.0794150 0.0006650 0.0375825 0.0780825 0.0195825 0.0004150 0.0050825 0.0205825 0.0002500 0.0017500 0.0034175 0.0000000 0.0055825 0.0021650 0.0781675 0.9553325 0.0172500 0.0000000 0.0792500 0.0148325 0.0000825 0.0033325 1.0000000 0.9863350 0.0009150 0.0022500 0.0417500 0.0107500 0.0230000 0.0755000 0.0086675 0.0727500 0.0022500 0.0938350 0.0235000 0.0039150 1.0000000 0.0218325 0.0050000 0.0053325 0.0219150 0.0821675 1.7360850 0.0010850 0.0000000 0.0464150 0.0000000 0.0000000 1.4283350 0.0000000 0.0000000 0.0000000 0.0000000 0.0184175 0.0000000 0.1816675 0.2771675 0.1605825 0.0000000 0.0000000 0.0261675 2.0000000 0.0000000 0.0000000 2.0000000 0.0000000 0.0000000 0.0000000 0.0000000 0.0000000 1.0000000 0.0000000 1.0000000 0.0000000 0.0015000 0.0000000 1.9573350 0.0000000 0.0000000 0.2004150 0.0000000 0.0000000
4:10041 0.0375825 0.0030000 0.0000000 0.0098350 0.0000825 0.0350000 0.0000000 0.0000000 0.0327500 0.0000000 0.0035825 0.0000000 0.0000000 0.0000000 0.0071675 0.0000825 0.0004175 0.0066650 0.0009150 0.0041650 0.0009175 0.0000825 0.0000000 0.0000000 0.0010825 0.0481675 0.0045825 0.0017500 0.0000000 0.0000000 0.0004175 0.0004150 0.0553325 0.0286675 0.0503325 0.0018350 0.0005000 0.0127500 0.0003350 1.0000000 0.0000000 0.0000000 0.0000000 0.0000000 0.0002500 0.0000000 0.0000000 0.0000000 0.0000000 0.0372500 0.0030000 0.0040000 0.0000000 0.0097500 0.0157500 0.0000000 0.0166675 0.0011650 0.0002500 0.0000000 0.0021650 0.0000000 0.0000000 0.0000000 0.0000000 0.0133325 0.0005825 0.0000000 0.0000000 0.0000000 0.0000000 0.0000000 0.0191675 0.0011675 0.0005825 0.0347500 0.0000000 0.0002500 0.0000000 0.0455825 0.0000000 0.0000000 0.0018325 0.0000000 0.0446650 0.0478325 0.0515000 0.0000000 0.0000000 0.0004175 0.0007500 0.0000000 0.0013350 0.0000000 0.0000000 0.0000000 0.0058350 0.0000000 0.0000000 0.0000000 0.0000825 0.0057500 0.0000000 0.0340825 0.0427500 0.0425825 0.0009175 0.0093325 0.0000000 0.0000000 0.0000000 0.0199175 0.0029150 0.0114175 0.0031650 0.0218350 0.0070850 0.0442500 0.0000000 0.0459175 0.0361675 0.0086650 0.0052500 0.0413325 0.0000000 0.0075000 0.0000000 0.0000000 0.0095000 0.0001675 0.0371675 0.0091675 0.0003325 0.0035825 0.0000000 0.0087500 0.0005000 0.0014175 1.0000000 0.0079150 0.0218325 0.0008350 0.0113325 0.0112500 0.0371650 0.9696675 0.0202500 0.0045825 0.0407500 0.0000000 0.0022500 0.0415000 0.0030825 0.0027500 0.0021650 0.0004175 0.0206675 0.0002500 0.0111675 0.0182500 0.0030000 0.0001675 0.0015000 0.0028325 0.0000000 0.0002500 0.0005000 0.0000000 0.0008350 0.0005825 0.0224175 0.0015000 0.0046675 0.0000000 0.0193350 0.0058325 1.0000000 0.0012500 0.0000000 0.0036675 0.0002500 0.1125825 0.0074150 0.0032500 0.0037500 0.0225000 0.0025000 0.0215825 0.0013350 0.0201650 0.0052500 0.0005000 0.0026675 0.0030000 0.0010825 0.0015850 0.0051650 0.0209175 0.0010825 0.0005825 0.0000000 0.0131675 0.0000000 0.0000000 0.0014150 0.0000000 0.0000000 0.0000000 0.0000000 0.0000000 1.7290000 0.0458350 0.0746675 0.0504175 0.0000000 0.0000000 0.0000000 0.0000000 0.0000000 0.0000000 0.0000000 0.0000000 0.0000000 0.0000000 0.0000000 0.0000000 0.0000000 0.0000000 0.0000000 0.0000000 0.0006675 0.0000000 0.0000000 0.0000000 0.0000000 0.0339175 0.0000000 0.0000000
4:10054 0.0188325 0.0007500 0.0000000 0.0047500 0.0000000 0.0170000 0.0002500 0.0000000 0.0165000 0.0000000 0.0030000 0.0000000 0.0000000 0.0000000 0.0084150 0.0000825 0.0005000 0.0042500 0.0007500 0.0026650 0.0005000 0.0005000 0.0000000 0.0000000 0.0022500 0.0246650 0.0099175 0.0005000 0.0000000 0.0000000 0.0005000 0.0005850 0.0530000 0.0160825 0.0307500 0.0006675 0.0006675 0.0090000 0.0000825 0.0000825 0.0000000 1.0000000 0.0000000 0.0000000 0.0000000 0.0000000 0.0000000 0.0000000 0.0000000 0.0242500 0.0025825 0.0018350 0.0000000 0.0047500 0.0071650 0.0000000 0.0112500 0.0015850 0.0000000 0.0000000 0.0013325 0.0000000 0.0000000 0.0000000 0.0000000 0.0029175 0.0003325 0.0000000 0.0000000 0.0000000 0.0000000 0.0000000 0.0084175 0.0001675 0.0000825 0.0200825 0.0000000 0.0000825 0.0000000 0.0275825 0.0000000 1.7490000 0.0006675 0.0000000 0.0280825 0.0278350 0.0290000 0.0000000 0.0000000 0.0000000 0.0003325 0.0000000 0.0015825 0.0000000 0.0000000 0.0000000 0.0030825 1.0000000 0.0000825 0.0000000 0.0002500 0.0032500 0.0000000 0.0252500 0.0273325 0.0293325 0.0005000 0.0063350 0.0000000 0.0000000 0.0000000 0.0142500 0.0025825 0.0082500 0.0010850 0.0159175 0.0047500 0.0260850 0.0000000 0.0331675 0.0256675 0.0064175 0.0027500 0.0250825 0.0000000 0.0101650 0.0000000 1.0000000 0.0077500 0.0000000 0.0295850 0.0069150 0.0000825 0.0016650 0.0000000 0.0065850 0.0001675 0.0008325 0.0007500 0.0055825 0.0160000 0.0008350 0.0109175 0.0071650 0.0295000 0.0064150 0.0143325 0.0038325 0.0304175 0.0002500 0.0015825 0.0318350 0.0022500 0.0018325 0.0032500 0.0000000 0.0129150 0.0000000 0.0052500 0.0119175 0.0017500 0.0000000 0.0011675 0.0050825 0.0000000 0.0009175 0.0000000 0.0000000 0.0009175 0.0000000 0.0182500 0.0011675 0.9997500 0.0000000 0.0139175 0.0030825 0.0000000 0.0007500 0.0000000 0.0017500 0.0005000 0.0007500 0.0060850 0.0019175 0.0029150 0.0121675 0.0015825 0.0123325 0.0007500 0.0185825 0.0029150 0.0003325 0.0019150 0.0072500 0.0006675 0.0010825 0.0031675 0.0130000 0.0004175 0.0003325 0.0000000 0.0083325 0.0000000 0.0000000 0.0015000 0.0000000 0.0000000 0.0000000 0.0000000 0.0000000 0.0000000 0.0254175 0.0590850 0.0326675 0.0000000 0.0000000 0.0000000 0.0000000 0.0000000 0.0000000 0.0000000 0.0000000 0.0000000 0.0000000 0.0000000 0.0000000 0.0000000 0.0000000 0.0000000 0.0000000 0.0000000 0.0000000 0.0000000 0.0000000 0.0000000 0.0150000 0.0000000 0.0000000
4:10059 0.0361675 0.0023350 0.0000000 0.0086650 0.0002500 0.0392500 0.0000000 0.0000825 0.0355825 0.0000000 0.0046650 0.0000000 1.0000000 1.0000000 0.0165850 0.0000000 0.0006650 0.0076650 0.0052500 0.0075825 0.0010000 0.0000825 0.0000000 0.0000000 0.0018325 0.0358350 0.0079150 0.0015825 0.0000000 0.0000000 0.0000825 0.0010825 0.0348350 0.0174175 0.0295825 0.0014175 0.0000825 0.0099175 0.0005850 0.0000000 0.0000000 0.0000000 0.0000000 0.0000000 0.0000000 0.0000000 1.0000000 0.0000000 0.0000000 0.0418350 0.0039150 0.0057500 0.0001675 0.0097500 1.0020000 0.0000000 0.0180825 0.0020000 0.0005000 0.0000000 0.0015850 0.0000000 0.0000000 0.0000000 0.0000000 0.0080000 0.0004175 0.0000000 0.0000000 0.0000000 0.0000000 0.0000000 0.0150850 0.0009175 0.0001675 0.0327500 0.0000000 0.0002500 0.0000000 0.0343325 0.0000000 0.0001675 0.0013350 0.0000000 0.0275850 0.0410850 0.0386650 0.0000000 0.0000000 0.0001675 0.0007500 0.0000000 0.0011675 0.0000000 0.0000000 0.0000000 0.0047500 0.0000000 1.0000000 0.0000000 0.0001675 0.0036675 0.0000000 0.0444150 0.0329175 0.0345000 0.0008350 0.0118325 1.4948350 0.0000000 0.0000000 0.0183325 0.0026650 0.0079150 0.0019150 0.0190000 0.0055825 0.0370000 0.0000000 0.0300000 0.0280000 0.0086675 0.0038350 0.0379175 0.0000000 0.0105825 0.0000000 0.0000825 0.0084150 0.0000825 0.0323350 0.0104175 0.0005825 0.0020000 0.0000000 0.0067500 0.0004175 0.0017500 0.0017500 0.0084175 0.0155825 0.0016675 0.0078325 0.0102500 0.0315850 0.0051675 0.0165850 0.0044150 0.0316650 0.0003325 0.0020825 0.0345825 0.0047500 0.0010000 0.0038350 0.0001675 0.0142500 0.0000825 0.0075825 0.0174175 0.0011675 0.0000000 0.0008325 0.0056675 0.0000000 0.0001675 0.0005000 0.0000000 0.0005850 0.0009175 0.0220850 0.0015000 0.0022500 0.0000000 0.0178325 0.0040825 0.0000000 0.0005850 0.0000000 0.0041675 0.0000000 0.0010000 0.0041675 0.0027500 0.0062500 0.0168350 0.0020000 0.0177500 0.0005825 0.0186650 0.0042500 0.0005825 0.0020850 0.0047500 0.0010000 0.0010000 0.0056650 0.0150000 0.0003325 0.0001675 0.0000000 0.0090825 0.0000000 0.0000000 0.0020850 0.0000000 0.0000000 0.0000000 0.0000000 0.0000000 0.0000000 0.0340825 0.0907500 0.0250000 0.0000000 0.0000000 0.0000000 0.0000000 0.0000000 0.0000000 0.0000000 0.0000000 0.0000000 0.0000000 0.0000000 0.0000000 0.0000000 0.0000000 0.0000825 1.0000000 0.0004175 0.0000000 0.0000825 0.0000000 0.0000000 0.0400000 0.0000000 0.0000000
4:10066 0.0065000 0.0007500 0.0000000 0.0011650 0.0003325 0.0073350 0.0000000 0.0000000 0.0062500 0.0000000 0.0007500 0.0000000 0.0000000 0.0000000 0.0014150 0.0000000 0.0001675 0.0015825 0.0006650 0.0000825 0.0003325 0.0000000 0.0000000 0.0000000 0.0003325 0.0060825 0.0015850 0.0002500 0.0000000 0.0000000 0.0000000 0.0000000 0.0111675 0.0030825 0.0075850 0.0000000 0.0001675 0.0009175 0.0000000 0.0000000 0.0000000 0.0000000 0.0000000 0.0000000 0.0000000 0.0000000 0.0000000 0.0000000 0.0000000 0.0094150 0.0023325 0.0011650 0.0000825 0.0024175 0.0033325 0.0000000 0.0043350 0.0006675 0.0001675 0.0000000 0.0000000 0.0000000 0.0000000 0.0000000 0.0000000 0.0022500 0.0000825 0.0000000 0.0000000 0.0000000 0.0000000 0.0000000 0.0034150 0.0001675 0.0002500 0.0059175 0.0000000 0.0000000 0.0000000 0.0077500 0.0000000 0.0000000 0.0000000 0.0000000 0.0059150 0.0105825 0.0082500 0.0000000 0.0000000 0.0000000 0.0000825 1.0000000 0.0003325 0.0000000 0.0000000 0.0000000 0.0010000 0.0000000 0.0000000 0.0000000 0.0000000 0.0004175 0.0000000 0.0069150 0.0051675 0.0072500 0.0000000 0.0018350 0.0004175 0.0000000 0.0000000 0.0026650 0.0005000 0.0030850 0.0005000 0.0038325 0.0005825 0.0060000 0.0000000 0.0079175 0.0080850 0.0012500 0.0007500 0.0073325 0.0000000 0.0036675 0.0000000 0.0000000 0.0019150 0.0000000 0.0061650 0.0019150 0.0000825 0.0000825 0.0000000 0.0022500 0.0000000 0.0004175 0.0006675 0.0026650 0.0030825 0.0000000 0.0029150 0.0029150 0.0073325 0.0017500 0.0029175 0.0002500 0.0068325 0.0002500 0.0003325 0.0079150 0.0005000 0.0001650 0.0009175 0.0000000 0.0022500 0.0000825 0.0017500 0.0045850 0.0007500 0.0000000 0.0003325 0.0008325 0.0000000 0.0000000 0.0000825 0.0000000 0.0003325 0.0000000 0.0040825 0.0000000 0.0003325 0.0000000 0.0034150 0.0008350 0.0000000 0.0000000 0.0000000 0.0005000 0.0000000 0.0000000 0.0016650 0.0005825 0.0005000 0.0038325 0.0001650 0.0025825 0.0005000 0.0049175 0.0010825 0.0000000 0.0002500 0.0011675 0.0003325 0.0000825 0.0008325 0.0044150 0.0002500 0.0000825 0.0000000 0.0025000 0.0000000 0.0000000 0.0006650 0.0000000 0.0000000 0.0000000 0.0000000 0.0000000 0.0000000 0.0070825 0.0115850 0.0056650 0.0000000 0.0000000 0.0000000 0.0000000 0.9822500 0.0000000 0.0000000 0.0000000 0.0000000 0.0000000 0.0000000 0.0000000 0.0000000 0.0000000 0.0000000 0.0000000 0.0000000 0.0000000 0.0000000 0.0000000 0.0000000 0.0107500 0.0000000 0.0000000
4:21031 0.0000000 0.0250000 0.0000000 0.0002500 0.0031650 0.0001675 0.0000000 0.0026675 0.0000000 0.0000000 0.0000000 0.0000000 0.0000000 0.0000000 0.0000000 0.0000000 0.0000000 0.0000000 0.0004175 0.0027500 0.0000825 0.0000000 0.0000000 0.0000000 0.0260000 0.0035000 0.0270000 0.0004175 0.0000000 0.0371650 0.0293350 0.0021650 0.0367500 0.0334175 0.0375850 0.0012500 0.0162500 0.0181650 0.0000000 0.0284175 0.0000000 0.0030000 1.0000000 0.0089175 0.0050000 0.0357500 0.0000000 0.0217500 0.0000000 0.0189175 0.0083350 0.0107500 0.0001675 0.0245000 0.0023325 0.0206675 0.0045000 0.0216675 0.0000000 0.0000000 0.0244150 0.0000000 0.0001675 0.0000000 0.0000000 0.0008325 0.0000825 0.0000000 0.0000000 0.0000000 0.0000000 0.0233325 0.0000825 0.0015000 0.0000000 0.0000000 0.0210850 0.0000000 0.0000000 0.0014150 0.0003325 0.0035825 0.0171675 0.0002500 0.0025000 0.0000000 0.0276675 0.0000825 0.0050000 0.3437500 0.0004150 0.0341675 0.0318350 0.0027500 0.0100850 0.0304175 0.0076650 0.0000000 0.0000825 0.0005850 0.0000000 0.0000000 0.0000000 0.0065825 0.0084175 0.0057500 0.0045825 0.0002500 0.0000000 0.0035000 0.0063325 0.0005000 0.0014175 0.0076675 0.0000000 0.0006675 0.0069175 0.0036675 0.0000000 0.0000000 0.0263350 0.0028325 0.0015825 0.0271650 0.0000000 0.0053325 0.0000000 0.0000825 0.0009175 0.0277500 0.0324175 0.0028325 0.0065825 0.0026650 0.0000000 0.0121650 0.0001675 0.0000000 0.0258325 0.0026675 0.0060825 0.0051675 0.0252500 0.0021650 0.0121675 0.0169175 0.0271675 0.0011675 0.0135000 0.0011675 0.0064175 0.0005000 0.0004175 0.0005825 0.0000000 0.0267500 0.0014175 0.0000825 0.0033350 0.0028350 0.0031675 0.0024175 0.0000000 0.0129150 0.0000000 0.0002500 0.0000000 0.0297500 0.0000000 0.0019175 0.0128325 0.0135000 0.0036675 0.0000000 0.0065825 0.0089175 0.0005000 0.0000000 0.0010850 0.0002500 0.0005000 0.1420000 0.0009175 0.0017500 0.0002500 0.0110825 0.0000825 0.0503325 0.0132500 0.0155825 0.0005825 0.0045825 0.0161650 0.0038325 0.0284150 0.0000000 0.0019175 0.0284150 0.0002500 0.0004175 0.0000000 0.0079175 0.0000000 0.0000000 0.0149175 0.0000000 0.0010000 0.0374150 0.0010000 0.0000000 0.0003325 0.0086675 0.0510000 0.0369175 0.0000000 0.0004150 0.0284175 0.0003325 0.0000000 0.0000000 0.0013350 0.0007500 0.0000000 0.0000000 0.0102500 0.0000000 0.0000000 0.0002500 0.0011675 0.0000000 0.0000000 0.0000000 0.0044175 0.0060000 0.0000000 0.0001675 0.0000000 0.0000000
4:21035 0.0000000 0.0064175 0.0000000 0.0000000 0.0002500 0.0000000 0.0000825 0.0005850 0.0000000 0.0000000 0.0000000 0.0000000 0.0000000 0.0000000 0.0000000 0.0000000 0.0000000 0.0000000 0.0002500 0.0008325 0.0000825 0.0000000 0.0000000 0.0000000 0.0114150 0.0000000 0.0101650 0.0000000 0.0000000 0.0055825 0.0012500 0.0005825 0.0075000 0.0079175 0.0040825 0.0002500 0.0030825 0.0026650 0.0000000 0.0090000 0.0000000 0.0003325 0.0003325 0.0020850 0.0005000 0.0078350 0.0000000 0.0050825 0.0000000 0.0072500 0.0018325 0.0020850 0.0000000 0.0057500 0.0011650 0.0045825 0.0018325 0.0004150 0.0000000 0.0000000 0.0046675 0.0000000 0.0000000 0.0000000 0.0000000 0.0000000 0.0000000 0.0000000 0.0000000 0.0000000 0.0000000 0.0050000 0.0000825 0.0004175 0.0000000 0.0000000 0.0002500 0.0000000 0.0000000 0.0001675 0.0005000 0.0002500 0.0055000 0.0001675 0.0002500 0.0000000 0.0079150 0.0000000 0.0019175 0.0012500 0.0001675 0.0060825 0.0156675 0.0000825 0.0027500 0.0105825 0.0023350 0.0001675 0.0000000 0.0000825 0.0001675 0.0000000 0.0000000 0.0012500 0.0017500 0.0024175 0.0010000 0.0000000 0.0000000 0.0005825 0.0005000 0.0002500 0.0004150 0.0008325 0.0000000 0.0000000 0.0013350 0.0010850 0.0000000 0.0000000 0.0049175 0.0014175 0.0000825 0.0040825 0.0000000 0.0000825 0.0000000 0.0488350 0.0002500 0.0063325 0.0039150 0.0002500 0.0011675 0.0003325 0.0000000 0.0030000 0.0000000 0.0000000 0.0065825 0.0000825 0.0011650 0.0004175 0.0075825 0.0004175 0.0029175 0.0031650 0.0047500 0.0000000 0.0015000 0.0001650 0.0017500 0.0003325 0.0000000 0.0000825 0.0000000 0.0038325 0.0005000 0.0000000 0.0005000 0.0005825 0.0013325 0.0004175 0.0000000 0.0022500 0.0000000 0.0000000 0.0000000 0.0052500 0.0000000 0.0003325 0.0027500 0.0010825 0.0003325 0.0000000 0.0012500 0.0019175 0.0000000 0.0000000 0.0000825 0.0000000 0.0000000 0.0003350 0.0002500 0.0005825 0.0000000 0.0033325 0.0001675 0.0005000 0.0056650 0.0039150 0.0001675 0.0005850 0.0025825 0.0008325 0.0051650 0.0000000 0.0000000 0.0053325 0.0002500 0.0002500 0.0000000 0.0030825 0.0000000 0.0000000 0.0052500 0.0000000 0.0004150 0.0078350 0.0002500 0.0000000 0.0000000 0.0033350 0.0115825 0.0071675 0.0000000 0.0000000 0.0097500 0.0000000 0.0000000 0.0000000 0.0008325 0.0001675 0.0000000 0.0000000 0.0043325 0.0000000 0.0000000 0.0000000 0.0002500 0.0000000 0.0000000 0.0000000 0.0012500 0.0028325 0.0000000 0.0000000 0.0000000 0.0000000
4:21041 0.0001675 0.0700000 0.0000000 0.0010825 0.0091650 0.0010850 1.0004175 0.0098325 0.0000000 0.0000000 0.0000000 0.0000000 0.0000000 0.0000000 0.0000000 0.0000000 0.0000000 0.0002500 0.0055825 0.0119150 0.0027500 0.0000000 0.0000000 0.0000000 0.0610000 0.0055825 0.0641675 0.0025000 0.0000000 0.0608325 0.0042500 0.0037500 0.0608350 0.0550825 0.0310825 0.0045850 0.0333325 0.0310850 0.0000825 0.0653325 0.0000000 0.0045825 0.0009175 0.0203325 0.0092500 0.0606650 0.0000000 0.0728325 0.0000825 0.0683325 0.0367500 0.0334175 0.0000825 0.0801650 0.0100850 0.0645825 0.0215850 0.0110825 0.0003325 0.0000000 0.0781675 0.0000000 0.0001675 0.0000000 0.0000000 0.0027500 0.0003325 0.0003350 0.0000000 0.0000000 0.0000000 0.0780825 0.0003325 0.0088350 0.0002500 0.0000000 0.0002500 0.0000825 1.9952500 0.0015000 0.0014175 0.0010850 0.0305000 0.0010825 0.0049150 0.0000000 0.0621675 1.0000000 0.0086675 0.0021675 0.0007500 0.0369150 0.0608325 0.0016675 0.0156650 0.0635000 0.0167500 0.0005825 0.0005825 0.0010850 0.0000000 0.0005000 0.0000000 0.0159175 0.0173325 0.0195850 0.0087500 0.0000825 0.0000000 0.0091675 0.0089175 0.0005825 0.0038325 0.0178350 0.0000825 0.0011650 0.0180000 0.0105000 1.0000000 0.0000825 0.0717500 0.0095000 0.0030000 0.0714175 0.0000000 1.1219175 0.0000000 0.0001675 0.0017500 0.0751675 0.0687500 0.0070825 0.0175000 0.0062500 0.0000000 0.0324150 0.0001650 1.9864175 0.0655850 0.0085000 0.0166675 0.0115000 0.0619175 0.0043325 0.0318325 1.0268325 0.0723325 0.0041675 0.0368325 0.0042500 0.0181675 0.0010825 0.0009175 0.0023350 0.0003325 0.0794175 0.0033350 0.0005000 0.0067500 0.0085825 0.0089175 0.0051650 0.0006650 0.0402500 0.0000000 0.0000825 0.0000000 0.0674175 0.0000000 0.0097500 0.0320825 0.0317500 0.0120825 0.0000000 0.0172500 0.0203325 0.0064150 0.0000825 0.0019175 0.0000000 0.0025850 0.0012500 0.0017500 0.0048325 0.0008325 0.0379175 1.0000000 0.0050000 0.0316675 0.0309150 0.0005825 0.0103325 0.0332500 0.0106675 0.0675825 0.0000825 0.0032500 0.0679150 0.0001675 0.0015825 0.0000825 0.0150000 0.0000000 0.0000000 0.0369175 0.0000000 0.0041650 0.0650000 0.0039175 0.0000000 0.0008325 0.0175000 0.0227500 0.0690850 0.0000000 0.0000825 0.0696675 0.0005825 0.0001675 0.0000000 0.0034150 0.0010000 0.0000000 0.0000000 0.0352500 0.0000000 0.0000000 0.0002500 0.0018325 0.0000000 0.0002500 0.0000000 0.0090000 1.0614150 1.9712500 0.0003350 0.0000000 0.0000000
4:21044 0.0000000 0.0005000 0.0000000 0.0000000 0.0004175 0.0000000 0.0000000 0.0000000 0.0000000 0.0000000 0.0000000 0.0000000 0.0000000 0.0000000 0.0000000 0.0000000 0.0000000 0.0000000 0.0000825 0.0000000 0.0000000 0.0000000 0.0000000 0.0000000 0.0061650 0.0006675 0.0069175 0.0005825 0.0000000 0.0071675 0.0008350 0.0001675 0.0050000 0.0062500 0.0020000 0.0000000 0.0039150 0.0025825 0.0000000 0.0058325 0.0000000 0.0000825 0.0001675 0.0013350 0.0002500 0.0060850 0.0000000 0.0020000 0.0000000 0.0026675 0.0001675 0.0007500 0.0000825 0.0015825 0.0001675 0.0016675 0.0007500 0.0004175 0.0000000 0.0000000 0.0012500 0.0000000 0.0000000 0.0000000 0.0000000 0.0000000 0.0000000 0.0000000 0.0000000 0.0000000 0.0000000 0.0015825 0.0000000 0.0002500 0.0000000 0.0000000 0.0000000 0.0000000 0.0000000 0.0000000 0.0000000 0.0001675 0.0027500 0.0000000 0.0004175 0.0000000 0.0058350 0.0000000 0.0001675 0.0002500 0.0001675 0.0026650 0.0092500 0.0001675 0.0025825 0.0045000 0.0028325 0.0000000 0.0000000 0.0001675 0.0000000 0.0000000 0.0000000 0.0021675 0.0006675 0.0009150 0.0003325 0.0000000 0.0000000 0.0000000 0.0000000 0.0000000 0.0000000 0.0004175 0.0000000 0.0000000 0.0001675 0.0005000 0.0000000 0.0000000 0.0021650 0.0000000 0.0000825 0.0017500 0.0000000 0.0000825 0.0000000 0.0000000 0.0000825 0.0015000 0.0010000 0.0000000 0.0005825 0.0000000 0.0000000 0.0012500 0.0000000 0.0000000 0.0033325 0.0002500 0.0003325 0.0004175 0.0022500 0.0002500 0.0010000 0.0005000 0.0015825 0.0000000 0.0008350 0.0004175 0.0006675 0.0000000 0.0000000 0.0000000 0.0000000 0.0016675 0.0000000 0.0000000 0.0005000 0.0001675 0.0004150 0.0000000 0.0000000 0.0009175 0.0000000 0.0000000 0.0000000 0.0023325 0.0000000 0.0001675 0.0017500 0.0012500 0.0001675 0.0000000 0.0003325 0.0010000 0.0005000 0.0000000 0.0001675 0.0000000 0.0000000 0.0000000 0.0001675 0.0000000 0.0000000 0.0005825 0.0000000 0.0000000 0.0030000 0.0033325 0.0000000 0.0003350 0.0007500 0.0002500 0.0016650 0.0000000 0.0000825 0.0029175 0.0000000 0.0000000 0.0000000 0.0010825 0.0000000 0.0000000 0.0026675 0.0000000 0.0002500 0.0071650 0.0000825 0.0000000 0.0000000 0.0013325 0.0293325 0.0035850 0.0000000 0.0000000 0.0030825 0.0000000 0.0000000 0.0000000 0.0005000 0.0000000 0.0000000 0.0000000 0.0026675 0.0000000 0.0000000 0.0000000 0.0002500 0.0000000 0.0000000 0.0000000 0.0001650 0.0017500 0.0000000 0.0000000 0.0000000 0.0000000
4:21052 0.0000000 0.0031675 0.0000000 0.0000000 0.0005825 0.0000000 0.0000000 0.0004175 0.0000000 0.0000000 0.0000000 0.0000000 0.0000000 0.0000000 0.0000000 0.0000000 0.0000000 0.0000000 0.0000000 0.0000000 0.0000000 0.0000000 0.0000000 0.0000000 0.0061675 0.0008325 0.0062500 0.0002500 0.0000000 0.0087500 0.0002500 0.0005000 0.0107500 0.0075000 0.0055000 0.0007500 0.0045825 0.0035825 0.0000000 0.0076650 0.0000000 0.0003325 0.9997500 0.0020000 0.0007500 0.0075850 0.0000000 0.0040825 0.0000000 0.0035825 0.0022500 0.0020000 0.0000000 0.0018325 0.0001675 0.0036650 0.0005850 0.0000825 0.0000000 0.0000000 0.0020825 0.0000000 0.0000000 0.0000000 0.0000000 0.0002500 0.0000000 0.0000000 0.0000000 0.0000000 0.0000000 0.0017500 0.0000000 0.0003325 0.0000000 0.0000000 0.0000000 0.0000000 0.0000000 0.0002500 0.0001675 0.0001675 0.0064175 0.0000000 0.0000825 0.0000000 0.0089175 0.0000000 0.0005825 0.0002500 0.0000825 0.1787500 0.0092500 0.0004175 0.0024175 0.0097500 0.0022500 0.0000000 0.0000825 0.0000000 0.0000000 0.0000000 0.0000000 0.0015000 0.0005850 0.0006650 0.0006650 0.0000000 0.0000000 0.0005000 0.0006675 0.0001675 0.0001675 0.0014175 0.0000000 0.0000000 0.0007500 0.0013325 0.0000000 0.0000000 0.0046650 0.0006675 0.0000000 0.0025000 0.0000000 0.0001675 0.0000000 0.0000000 0.0000000 0.0066650 0.0032500 0.0004175 0.0009150 0.0002500 0.0000000 0.0024175 0.0000825 0.0000000 0.0050000 0.0003350 0.0006675 0.0001675 0.0063325 0.0000000 0.0025825 0.0011675 0.0028350 0.0002500 0.0030000 0.0001675 0.0014175 0.0000825 0.0001675 0.0000000 0.0000000 0.0025850 0.0002500 0.0000000 0.0005850 0.0007500 0.0005825 0.0002500 0.0000000 0.0011650 0.0000000 0.0000000 0.0000000 0.0034150 0.0000000 0.0007500 0.0032500 0.0020000 0.0007500 0.0000000 0.0011650 0.0006650 0.0002500 0.0000000 0.0000825 0.0000000 0.0000825 0.0001675 0.0000000 0.0000825 0.0000000 0.0030850 0.0000000 0.0000000 0.0040000 0.0054175 0.0000000 0.0005000 0.0037500 0.0011650 0.0054150 0.0000000 0.0004175 0.0047500 0.0000000 0.0000000 0.0000000 0.0025000 0.0000000 0.0000000 0.0038325 0.0000000 0.0005000 0.0065000 0.0010825 0.0000000 0.0000000 0.0009175 0.0307500 0.0072500 0.0000000 0.0000000 0.0064150 0.0001675 0.0000000 0.0000000 0.0004175 0.0000000 0.0000000 0.0000000 0.0031675 0.0000000 0.0000000 0.0000000 0.0000825 0.0000000 0.0000000 0.0000000 0.0007500 0.0012500 0.0000000 0.0000825 0.0000000 0.0000000
4:21071 0.0002500 0.0654175 0.0000000 0.0005000 0.0075825 0.0007500 0.0004175 0.0086675 0.0000000 0.0000000 0.0000000 0.0000000 0.0000000 0.0000000 0.0000000 0.0000000 0.0000825 0.0005000 0.0044175 0.0096650 0.0004175 0.0000000 0.9999175 0.0000000 0.0715825 0.0050000 0.0708325 0.9999175 0.0000000 0.0753350 0.0010850 0.0040825 0.0620825 0.0670000 0.0340825 0.0011650 0.0324150 0.0313350 0.0000000 0.0725850 0.0000000 0.0025000 0.0007500 0.0162500 1.1252500 0.0709175 0.0000000 0.0695000 1.8810825 0.0615000 0.0310000 0.0344150 0.0000000 0.0589175 0.9999175 0.0621675 0.0183325 0.0109175 0.0002500 0.0000000 0.0650825 0.0000000 0.0002500 0.0000000 0.0000825 0.0027500 0.0000000 0.0009175 0.0000000 0.0000000 0.0000000 0.0649175 0.0007500 0.0066675 0.0006675 0.0000000 0.0010850 0.0000000 0.0000000 0.0018350 0.0015825 0.7132500 0.0324150 0.0000000 0.0056675 0.0000000 0.0743325 0.0000000 0.0049175 0.0018325 0.0017500 0.0294175 0.0688325 0.0015850 0.0174150 0.0667500 0.0185000 1.0000000 0.0002500 0.0005000 0.0004175 0.0001675 0.0000000 0.0177500 0.0191650 0.0137500 0.0091675 0.0000000 0.0000000 0.0076650 0.0081675 0.0005825 0.0018350 0.0146675 0.0000000 0.0024150 0.0156675 0.0110850 0.0000000 0.0000000 0.0642500 0.0099150 0.0029175 0.0600825 0.0002500 0.0088325 1.0000000 0.0000825 0.0019175 0.0725825 0.0707500 0.0074175 0.0174175 0.0053350 0.0000000 0.0330825 0.0007500 0.0000000 0.0694150 0.0107500 0.0186675 0.0080000 0.0682500 0.0047500 0.0360000 0.0375850 0.0685825 0.0022500 0.0309175 0.0037500 1.0640000 0.0008325 0.0008325 0.0011650 0.0002500 0.0655850 0.0035000 0.0010000 0.0086675 0.0085000 0.0078350 0.0055000 0.0003325 0.0386675 0.0000000 0.0006650 0.0000000 0.0682500 0.0000000 0.0079175 0.0331650 0.0303350 1.1245000 0.0000000 0.0157500 0.0173325 0.0031650 0.0001675 0.0024175 0.0000825 0.0028325 0.0007500 0.0025850 0.0050000 0.0005000 0.0315825 0.0007500 0.0053325 0.0310000 0.0293350 0.0008350 0.0084150 0.0317500 0.0091675 0.0723325 0.0000825 0.0038325 0.0633325 1.0000000 0.0020825 0.0000000 0.0178325 0.0000000 0.0000000 0.0347500 0.0000000 0.0038350 0.0370000 0.0047500 0.0000000 0.0000825 0.0162500 0.0439150 0.0723325 0.0000000 0.0004175 0.0710000 0.0003350 0.0000825 0.0000000 0.0048325 0.0023325 0.0000000 0.0000000 0.0285825 0.0000000 0.0008325 0.0000000 0.0014150 0.0000000 0.0000000 0.0000000 0.0090000 0.0147500 0.0001675 0.0005825 0.0000000 0.0000000
4:21083 0.0000000 0.0012500 0.0000000 0.0000000 0.0000000 0.0000000 0.0000000 0.0000825 0.0000000 0.0000000 0.0000000 0.0000000 0.0000000 0.0000000 0.0000000 0.0000000 0.0000000 0.0000000 0.0002500 0.0000000 0.0000000 0.0000000 0.0000000 0.0000000 0.0022500 0.0001675 0.0003325 0.0000000 0.0000000 0.0010850 0.0000000 0.0001675 0.0003325 0.0011675 0.0002500 0.0000000 0.0005000 0.0004175 0.0000000 0.0010000 0.0000000 0.0002500 0.0001675 0.0005825 0.0000000 0.0012500 0.0000000 0.0006675 0.0000000 0.0010825 0.0000825 0.0000825 0.0000000 0.0005850 0.0000000 0.0015850 0.0001675 0.0000000 0.0000000 0.0000000 0.0002500 0.0000000 0.0000000 0.0000000 0.0000000 0.0000000 0.0000000 0.0000000 0.0000000 0.0000000 0.0000000 0.0003325 0.0000000 0.0000000 0.0000000 0.0000000 0.0000000 0.0000000 0.0000000 0.0000000 0.0000000 0.0000000 0.0004175 0.0000000 0.0003325 0.0000000 0.0002500 0.0000000 0.0005825 0.0000000 0.0000825 0.0008350 0.0022500 0.0000000 0.0005000 0.0021650 0.0000000 0.0000000 0.0000000 0.0002500 0.0000000 0.0000000 0.0000000 0.0005000 0.0001675 0.0000000 0.0002500 0.0000000 0.0000000 0.0000000 0.0000825 0.0000000 0.0002500 0.0004175 0.0000000 0.0000000 0.0000000 0.0002500 0.0000000 0.0000000 0.0004175 0.0000000 0.0000000 0.0008325 0.0000000 0.0001675 0.0000000 0.0000000 0.0000000 0.0004175 0.0008325 0.0004175 0.0000000 0.0000000 0.0000000 0.0008325 0.0000000 0.0000000 0.0008350 0.0001675 0.0002500 0.0000000 0.0002500 0.0000000 0.0004175 0.0002500 0.0001675 0.0000000 0.0003325 0.0000000 0.0003325 0.0000000 0.0000000 0.0000000 0.0000000 0.0005000 0.0000000 0.0000000 0.0000000 0.0000825 0.0000000 0.0000000 0.0000000 0.0001650 0.0000000 0.0000000 0.0000000 0.0009175 0.0000000 0.0000000 0.0007500 0.0006675 0.0004175 0.0000000 0.0000000 0.0000000 0.0000000 0.0000000 0.0000000 0.0000000 0.0000000 0.0000000 0.0000000 0.0002500 0.0000000 0.0000000 0.0000000 0.0001675 0.0003325 0.0006675 0.0000000 0.0000000 0.0002500 0.0001675 0.0004150 0.0000000 0.0000000 0.0007500 0.0000000 0.0000000 0.0000000 0.0004175 0.0000000 0.0000000 0.0002500 0.0000000 0.0000000 0.0006675 0.0001675 0.0000000 0.0000000 0.0000000 0.0020825 0.0005000 0.0000000 0.0000000 0.0011675 0.0000000 0.0002500 0.0000000 0.0000825 0.0000000 0.0000000 0.0000000 0.0019175 0.0000000 0.0000000 0.0000000 0.0004175 0.0000000 0.0000000 0.0000000 0.0002500 0.0003325 0.0000000 0.0000000 0.0000000 0.0000000
4:21109 0.0000000 0.0020000 0.0000000 0.0000000 0.0006675 0.0000000 0.0000000 0.0000000 0.0000000 0.0000000 0.0000000 0.0000000 0.0000000 0.0000000 0.0000000 0.0000000 0.0000000 0.0000000 0.0000825 0.0000000 0.0002500 0.0000000 0.0000000 0.0000000 0.0070000 0.0005000 0.0097500 0.0001675 0.0000000 0.0077500 0.0000000 0.0002500 0.0053350 0.0075000 0.0015000 0.0002500 0.0069150 0.0046675 0.0000000 0.0090000 0.0000000 0.0000825 0.0000000 0.0013350 0.0014175 0.0081675 0.0000000 0.0031675 0.0000000 0.0047500 0.0014175 0.0018325 0.0000000 0.0020850 0.0012500 0.0025825 0.0004175 0.0003325 0.0000000 0.0000000 0.0020000 0.0000000 0.0000000 0.0000000 0.0000000 0.0000000 0.0000000 0.0000000 0.0000000 0.0000000 0.0000000 0.0020850 0.0000000 0.0000825 0.0000000 0.0000000 0.0000000 0.0000000 0.0000000 0.0000825 0.0000000 0.0010000 0.0038350 0.0000000 0.0008350 0.0000000 0.0027500 0.0000000 0.0007500 0.0003325 0.0006675 0.0034150 0.0117500 0.0007500 0.0019175 0.0093325 0.0047500 0.0000000 0.0003325 0.0003325 0.0002500 0.0000000 0.0000000 0.0006675 0.0006675 0.0007500 0.0005000 0.0000000 0.0000000 0.0004150 0.0002500 0.0000000 0.0000000 0.0004175 0.0000000 0.0002500 0.0002500 0.0003325 0.0000000 0.0002500 0.0019175 0.0004150 0.0000000 0.0032500 0.0000000 0.0004150 0.0000000 0.0000000 0.0002500 0.0025825 0.0020000 0.0002500 0.0005825 0.0002500 0.0000000 0.0024175 0.0001675 0.0000000 0.0066650 0.0000000 0.0011675 0.0004175 0.0034175 0.0005000 0.0013325 0.0013325 0.0032500 0.0000000 0.0016675 0.0001675 0.0008325 0.0000000 0.0000000 0.0000000 0.0000000 0.0037500 0.0000000 0.0000000 0.0005000 0.0003325 0.0005000 0.0000825 0.0001675 0.0011675 0.0000000 0.0000000 0.0000000 0.0035000 0.0000000 0.0003350 0.0025850 0.0027500 0.0004175 0.0000000 0.0000825 0.0001675 0.0004175 0.0000000 0.0004175 0.0000000 0.0002500 0.0000000 0.0000000 0.0002500 0.0000000 0.0010850 0.0002500 0.0005000 0.0046675 0.0044175 0.0000000 0.0000825 0.0018325 0.0005825 0.0025000 0.0000000 0.0003325 0.0031675 0.0000000 0.0000000 0.0000000 0.0005850 0.0000000 0.0000000 0.0030000 0.0000000 0.0010825 0.0024150 0.0005825 0.0000000 0.0000000 0.0025825 0.0260850 0.0042500 0.0000000 0.0000825 0.0071675 0.0000000 0.0000000 0.0000000 0.0000825 0.0007500 0.0000000 0.0000000 0.0030000 0.0000000 0.0002500 0.0002500 0.0001675 0.0000000 0.0000000 0.0000000 0.0007500 0.0023325 0.0000000 0.0001675 0.0000000 0.0000000
4:171310 0.0028325 0.0000000 0.0000000 0.0116650 0.0029175 0.0000000 0.0000000 0.0000825 0.0000825 0.0004150 0.0010850 0.0000000 0.0000000 1.0000000 0.0001675 0.0006675 0.0008325 0.0022500 0.0000000 0.0075000 0.0000825 0.0000000 0.0025850 0.0000000 0.0081650 0.0306675 0.0047500 0.0144175 0.0000000 1.0000000 0.0005850 0.0002500 0.0175825 0.0339150 0.0036675 0.0000000 0.0029175 0.0070825 0.0412500 0.0084175 0.0044150 0.0185000 0.0300000 0.0688350 0.0298325 0.0175825 0.0000000 0.0000000 0.0011675 0.0503325 0.0239150 0.0103325 0.0008350 0.0063350 0.0058325 0.0024175 0.0418350 0.0000000 0.0015000 0.0000000 0.0029150 0.0002500 0.0003325 0.0000000 0.0000000 0.0025000 0.0117500 0.0000000 0.0000000 0.0003350 0.0000000 0.0014150 0.0000000 0.0002500 0.0010000 0.0000000 0.0000000 0.0205000 0.0000000 0.0021650 0.0039175 0.0690000 0.0110000 0.0071650 0.0172500 0.0041675 0.0648325 0.0200850 0.0312500 0.0368325 0.0369150 1.0000000 0.0384175 0.0146675 0.0071675 0.0192500 0.0101675 0.0340850 0.0310825 0.0168325 0.0334175 0.0028350 0.0000000 0.0580825 0.0106650 0.0003325 0.0467500 0.0069150 0.0131650 0.0005000 0.0399175 0.0019175 0.0018325 0.0014175 0.0071675 0.0624150 0.0210000 0.0000825 0.0004175 0.0125000 0.0426675 0.0039150 0.0073325 0.0122500 0.0041675 0.0056675 0.0001675 1.4195825 0.0072500 0.0000000 0.0121675 0.0015850 1.2771650 0.0046650 0.0000000 0.0065825 0.0000000 0.0003325 0.0136650 0.0090825 0.0112500 0.0035850 0.0610000 0.0146675 0.0055000 0.0115825 0.0457500 0.0066675 0.0456675 0.0125000 0.0502500 1.0000000 0.0025000 0.0445825 0.8444150 0.0024150 0.0255825 0.0066675 0.0520000 0.0497500 0.0057500 0.0245825 0.0213350 0.0000000 0.0005000 0.0006675 0.0037500 0.0048325 0.0005000 0.0220825 0.0653325 0.0101675 0.0051675 0.0454175 0.0242500 0.0058350 1.0000000 0.0002500 0.0002500 0.0033350 0.0222500 0.0155825 0.0014175 0.0450850 0.0058325 0.0224175 0.0154175 0.0034175 0.0420000 0.0322500 0.0123325 0.0005000 0.0133350 0.0149175 0.0000000 0.0069150 0.0009175 0.0298325 0.0064175 0.0002500 0.0000000 0.0147500 0.0000000 0.0000000 0.0547500 0.0000000 0.0000000 0.0002500 0.0000000 0.0000825 0.0013350 0.0304150 0.1522500 0.0499175 0.0015850 0.0000000 0.0265000 0.0000000 0.0245825 0.0029175 0.0259150 0.0015000 0.0028325 0.0003325 0.0070000 0.0030000 0.0005000 0.0000825 0.0675000 0.0062500 0.0314175 0.0133350 0.0569175 0.0023325 0.0009175 0.0010000 0.0001675 0.0001675
4:171315 0.0005850 0.0000000 0.0000000 0.0021650 0.0002500 0.0000000 0.0000000 0.0000000 0.0002500 0.0000000 0.0000000 0.0000000 0.0000000 0.0000000 0.0000000 0.0000000 0.0004175 0.0001675 0.0000000 0.0010850 0.0000000 0.0000000 0.0006675 0.0000000 0.0032500 0.0055825 0.0000825 0.0024175 0.0000000 0.0000000 0.0000000 0.0000000 0.0047500 0.0062500 0.4108325 0.0000825 0.0005000 0.0013350 0.0060000 0.0012500 0.0008350 0.0019150 0.0072500 0.0125825 0.0070000 0.0015850 0.0000000 0.0000000 0.0000000 0.0171675 0.0070850 0.0038325 0.0000000 0.0027500 0.0016650 0.0008325 0.0090000 0.0000000 0.0005000 0.0000000 0.5610000 0.0000000 0.0000000 0.0000000 0.0000000 0.0005000 0.0042500 0.0000000 0.0000000 0.0000000 0.0000000 0.0002500 0.0000000 0.0000000 0.0002500 0.0000000 0.0000000 0.0037500 0.0000000 0.0005000 0.0019175 0.0080850 0.0011675 0.0003325 0.0050825 0.0005850 0.0130000 0.0022500 0.0060825 0.0075000 0.0089175 0.0009150 0.0060000 0.0035000 0.0014150 0.0023325 0.0017500 0.0047500 0.0051675 0.0025000 0.0056650 0.0005000 0.0000000 0.0129150 0.0015825 0.0000000 0.0087500 0.0021650 0.0040000 0.0001675 0.0115825 0.0007500 0.0010000 0.0002500 0.0016675 0.0140850 0.0056650 0.0000000 0.0000000 0.0025825 0.0107500 0.0007500 0.0007500 0.0027500 0.0014175 0.0010000 0.0000000 0.0000000 0.0016675 0.0000000 0.0042500 0.0000825 0.0005825 0.0015000 0.0000000 0.0016675 0.0000000 0.0000000 0.0025825 0.0025825 0.0034175 0.0011675 0.0155000 0.0040825 0.0009175 0.0021675 0.0112500 0.0005000 0.0105000 0.0029175 0.0129150 0.0004175 0.0010825 0.0119150 0.0006675 0.0003350 0.0052500 0.0017500 0.0100825 0.0168325 0.0006675 0.0061650 0.0035825 0.0000000 0.0002500 0.0000825 0.0010000 0.0027500 0.0004175 0.0058325 0.0197500 0.0023325 0.0015825 0.0119175 0.0032500 0.0011650 0.0000000 0.0000000 0.0000000 0.0012500 0.0052500 0.0030850 0.0005000 0.0112500 0.0020000 0.0050825 0.0029175 1.0000000 0.0088325 0.0102500 0.0035000 0.0000825 0.0033325 0.0035000 0.0000000 0.0016650 0.0000825 0.0051675 0.0015850 0.0000000 0.0000000 0.0039175 0.0000000 0.0000000 0.0113350 0.0000000 0.0000000 0.0000000 0.0000000 0.0000000 0.0000000 0.0060000 0.0236675 0.0104150 0.0001675 0.0001675 0.0040000 0.0000000 0.0055850 0.0001675 0.0065000 0.0001675 0.0010000 0.2146675 0.0021675 0.0002500 0.0000000 0.0000000 0.0140000 0.0008325 0.0044175 0.0020000 0.0139175 0.0008350 0.0000825 0.0000000 0.0000000 0.0000000
4:171318 0.0000000 0.0000000 0.0000000 0.0000825 0.0000000 0.0000000 0.0000000 0.0000000 0.0000000 0.0000000 0.0000000 0.0000000 0.0000000 0.0000000 0.0000000 0.0000000 0.0000000 0.0000000 0.0000000 0.0000000 0.0000000 0.0000000 0.0000000 0.0000000 0.0000825 0.0008325 0.0000000 0.0010000 0.0000000 0.0000000 0.0000000 0.0000000 0.0001675 0.0002500 0.0000000 0.0000000 0.0000000 0.0000000 0.0014175 0.0000825 0.0002500 0.0001675 0.0018325 0.0002500 0.0005850 0.0000000 0.0000000 0.0000000 0.0000000 0.0015000 0.0002500 0.0003325 0.0000000 0.0000825 0.0000000 0.0000000 0.0010850 0.0000000 0.0000000 0.0000000 0.0000000 0.0000000 0.0000000 0.0000000 0.0000000 0.0000000 0.0000000 0.0000000 0.0000000 0.0000000 0.0000000 0.0002500 0.0000000 0.0000000 0.0000000 0.0000000 0.0000000 0.0000000 0.0000000 0.0002500 0.0001675 0.0012500 0.0004150 0.0000000 0.0005825 0.0001675 0.0010825 0.0002500 0.0013325 0.0007500 0.0008325 0.0006650 0.0016675 0.0007500 0.0000825 0.0004175 0.0004175 0.0004150 0.0005000 0.0002500 0.0014175 0.0002500 0.0000000 0.0018325 0.0000000 0.0000000 0.0010000 0.0000000 0.0000000 0.0000000 0.0000000 0.0000000 0.0000000 0.0000000 0.0005825 0.0009175 0.0003325 0.0000000 0.0000000 0.0007500 0.0013350 0.0000000 0.0000000 0.0005825 0.0000000 0.0000000 0.0000000 0.0000000 0.0000000 0.0000000 0.0000000 0.0001675 0.0000000 0.0000000 0.0000000 0.0001675 0.0000000 0.0000000 0.0000000 0.0001675 0.0000825 0.0001675 0.0004175 0.0000000 0.0001675 0.0000000 0.0007500 0.0001650 0.0013350 0.0000000 0.0018350 0.0000000 0.0002500 0.0008350 0.0004175 0.0000000 0.0003325 0.0000000 0.0005850 0.0020825 0.0003325 0.0000000 0.0004175 0.0000000 0.0000825 0.0002500 0.0000000 0.0000000 0.0000000 0.0002500 0.0010825 0.0000000 0.0001675 0.0005850 0.0006675 0.0001675 0.0000000 0.0000000 0.0000000 0.0002500 0.0001675 0.0005000 0.0000000 0.0001675 0.0000825 0.0007500 0.0003325 0.0000000 0.0014175 0.0001675 0.0005000 0.0000000 0.0000000 0.0002500 0.0000000 0.0003325 0.0000000 0.0005825 0.0000825 0.0000000 0.0000000 0.0002500 0.0000000 0.0000000 0.0025000 0.0000000 0.0000000 0.0001675 0.0000000 0.0000000 0.0000000 0.0013325 0.0027500 0.0011650 0.0000000 0.0000000 0.0000000 0.0000000 0.0001675 0.0000000 0.0005000 0.0000000 0.0002500 0.0000000 0.0001675 0.0000825 0.0000000 0.0000000 0.0007500 0.0000000 0.0012500 0.0010000 0.0030000 0.0000000 0.0000000 0.0000000 0.0000000 0.0000000
4:171334 0.0073325 0.0000000 0.0000000 0.0355000 0.0636675 0.0000000 1.0000000 0.0000825 0.0005825 0.0024175 0.0020000 0.0000000 1.0000000 1.0000000 0.9999175 0.0024175 1.0000000 0.0017500 0.0000000 0.0187500 0.0106675 0.0000000 0.0080000 0.0000000 0.0160850 0.0520000 0.0071650 0.0340000 0.0000000 0.0000000 0.0011675 0.0000000 0.0488325 0.0274175 0.0043350 0.0004175 0.0574175 0.0125850 0.0506675 0.0145000 0.0073325 0.0309150 0.0302500 0.0535000 0.0577500 0.0130850 0.0000000 0.0002500 0.0187500 0.1150000 0.0305850 0.0305825 0.0625825 0.0166650 0.1326675 0.0068325 0.1225825 0.0010825 0.0017500 0.0000000 0.0051675 0.0001675 0.0020825 0.0340850 0.0000000 0.0093350 0.0680825 1.9918350 0.0000000 1.0082500 1.0000000 0.0075000 0.0001675 0.0018325 0.0037500 0.0000000 0.0000000 0.0289175 0.0000000 0.0061675 0.0075850 0.0128325 0.9784175 0.0035825 0.0276675 0.0079175 0.0563350 0.0295825 0.0612500 0.0465000 0.0515000 0.0140000 0.1011675 1.1065000 0.0149150 0.0270000 1.0010000 0.0573350 0.0557500 0.0309175 0.0530825 1.0000000 0.0000000 0.1135000 1.1137500 0.0002500 0.1187500 0.0174175 0.0000825 0.0010825 0.0025825 0.0035825 0.0095000 0.0045825 0.0255000 0.1102500 0.0604150 1.0000000 0.0005850 0.0288350 0.1190825 0.0602500 0.9713350 0.9815000 0.0077500 0.0176675 0.0012500 0.0000000 0.0165000 0.0006675 0.0002500 0.0043325 0.0034150 0.0199150 0.0002500 0.0155850 0.0004150 0.0006650 0.0315000 0.0302500 0.0311650 0.0062500 0.1101650 0.0290000 0.0140825 0.0180000 0.1226675 0.0153325 0.1320000 0.0045825 0.1156675 0.0045000 0.0075825 0.1150850 0.0340000 1.0000000 0.0613325 0.0145000 0.1147500 0.1176675 0.0138325 0.0594175 0.0615000 0.0002500 0.0020850 0.0013350 0.0069150 0.0180850 0.0020000 0.0674150 0.1055000 0.0321675 0.0139175 0.1154175 0.0588350 1.2062500 0.0009175 0.0000000 0.0000000 0.0054150 0.0633350 0.0271675 0.0035850 0.0169175 0.0202500 0.0609175 0.0327500 0.0000000 0.0523325 0.0498325 0.0298325 0.0021650 0.0341675 0.0228350 0.0000825 0.0148325 0.0015825 0.0622500 0.0167500 0.0012500 0.0000000 0.9904175 0.0000000 0.0000000 0.1225000 0.0000000 0.0004175 0.0010000 0.0005000 0.0001675 0.0000825 0.0555825 0.0461675 0.1162500 0.0035000 0.0000000 0.0275000 0.0000000 0.0132500 1.0006650 0.1243325 0.0027500 0.0039175 0.0002500 0.0646650 0.0068325 0.0000825 0.0004175 0.1185000 0.0063350 0.0575000 0.0301675 0.1180825 0.0027500 0.0020850 0.0014150 0.0000825 0.0005000
4:171339 0.0005825 0.0000000 0.0000000 0.0000000 0.0000000 0.0000000 0.0000000 0.0000000 0.0000000 0.0000000 0.0000000 0.0000000 0.0000000 0.0000000 0.0000000 0.0000000 0.0002500 0.0000000 0.0000000 0.0002500 0.0000000 0.0000000 0.0000000 0.0000000 0.0000825 0.0020825 0.0000825 0.0014150 0.0000000 0.0000000 0.0000000 0.0000000 0.0001675 0.0010000 0.0000000 0.0000000 0.0000000 0.0000000 0.0024175 0.0004150 0.0004150 0.0005000 0.0029150 0.0046650 0.0020000 0.0007500 0.0000000 0.0000000 0.0001675 0.0020000 0.0001675 0.0005850 0.0000000 0.0000000 0.0002500 0.0004175 0.0017500 0.0000000 0.0000000 0.0000000 0.0000000 0.0002500 0.0000000 0.0000000 0.0000000 0.0000000 0.0001675 0.0000000 0.0000000 0.0000000 0.0000000 0.0000825 0.0000000 0.0000000 0.0002500 0.0000000 0.0000000 0.0010000 0.0000000 0.0000000 0.0000000 0.0010000 0.0006675 0.0002500 0.0010825 0.0010000 0.0020000 0.0022500 0.0035000 0.0035000 0.0035825 0.0003325 0.0033350 0.0011650 0.0008350 0.0009150 0.0010825 0.0016650 0.0025000 0.0010825 0.0031675 0.0000000 0.0000000 0.0053350 0.0007500 0.0000000 0.0009175 0.0005000 0.0000000 0.0000000 0.0000000 0.0004175 0.0001675 0.0000000 0.0011675 0.0023350 0.0002500 0.0000000 0.0000000 0.0002500 0.0030825 0.0002500 0.0003325 0.0005000 0.0000825 0.0004175 0.0000000 0.0000000 0.0002500 0.0000000 0.0000000 0.0000000 0.0000000 0.0000825 0.0000000 0.0008325 0.0000000 0.0000000 0.0010850 0.0009175 0.0003325 0.0001675 0.0024175 0.0009175 0.0004150 0.0006675 0.0020850 0.0000000 0.0005825 0.0000000 0.0033325 0.0000000 0.0000000 0.0017500 0.0000000 0.0000000 0.0009175 0.0001675 0.0024175 0.0017500 0.0006675 0.0012500 0.0010825 0.0000000 0.0001675 0.0000000 0.0000000 0.0003325 0.0000000 0.0014175 0.0020850 0.0004175 0.0000000 0.0019175 0.0010825 0.0002500 0.0000000 0.0000000 0.0000000 0.0005000 0.0006650 0.0008325 0.0000000 0.0000825 0.0004175 0.0006675 0.0002500 0.0000000 0.0018350 0.0017500 0.0005000 0.0000000 0.0003325 0.0012500 0.0000000 0.0002500 0.0002500 0.0002500 0.0006675 0.0000000 0.0000000 0.0026650 0.0000000 0.0000000 0.0029150 0.0000000 0.0000000 0.0000000 0.0000000 0.0145000 0.0000000 0.0019150 0.0079150 0.0023350 0.0002500 0.0000000 0.0000825 0.0000000 0.0002500 0.0005000 0.0027500 0.0003325 0.0000000 0.0000000 0.0005000 0.0000000 0.0000000 0.0001675 0.0067500 0.0005000 0.0035825 0.0012500 0.0051650 0.0002500 0.0003325 0.0000000 0.0000000 0.0000000
4:218124 0.0363325 0.0005000 0.0306650 0.0036675 0.0185000 0.0340850 0.0167500 0.0155000 0.0349175 0.0090000 0.0038325 0.0005825 0.0002500 0.0000000 0.0105825 0.0035000 0.0000000 0.0318325 0.0173350 0.0030000 0.0082500 0.0000000 0.0028325 0.0008325 0.0035000 0.0000000 0.0000000 0.0000000 0.0000000 0.0000000 0.0000000 0.0000000 0.0341650 0.0097500 0.0050000 0.0003325 0.0019175 0.0001675 0.0000000 0.0037500 0.0000000 0.0000000 0.0000000 0.0003350 0.0022500 0.0000000 0.0000000 0.0000000 0.0000000 0.0351650 0.0072500 0.0000000 0.0000000 0.0008350 0.0007500 0.0000000 0.0008325 0.0000000 0.0000000 0.0000000 0.0006675 0.0000000 0.0000000 0.0000000 0.0000000 0.0003325 0.0000000 0.0000000 0.0000000 0.0000000 0.0000000 0.0000000 0.0000000 0.0000000 0.0000000 0.0000000 0.0000000 0.0202500 0.0000000 0.0015825 0.0003325 0.0022500 0.0021650 0.0000000 0.0000825 0.0006675 0.0104175 0.0306650 0.0013350 0.0100000 0.0159175 0.0000000 0.0003325 0.0000000 0.0000000 0.0398325 0.0329150 0.0212500 0.0330000 0.0018325 0.0019150 0.0000000 0.0000000 0.0155825 0.0010000 1.0000000 0.0002500 0.0005000 0.0000000 0.0000000 0.0000000 0.0000000 0.0010850 0.0000000 0.0000000 0.0051650 0.0045000 0.0000000 0.0000000 0.0000825 0.0015000 0.0005000 0.0002500 1.0325850 0.0000000 0.0000000 0.0000000 0.0000000 0.0000000 0.0000000 0.0000000 0.0000000 0.0000000 0.0000000 0.0000000 0.0000000 1.0000000 0.0000000 0.0006675 0.0000000 0.0014175 0.0000000 0.0050000 0.0099175 0.0094150 0.0072500 0.0040850 0.0000000 0.0047500 0.0002500 0.0419175 0.0004175 0.0000000 0.0039150 0.0000000 0.0030000 0.9909175 0.0013325 0.0033350 0.0040850 0.0021675 0.0000825 0.0000000 0.0000000 0.0000000 0.0000000 0.0000000 1.0000000 0.0000000 0.0000000 0.0086650 0.0000000 0.0000000 0.0000000 0.0014175 0.0000000 0.0000000 0.0000000 0.0000000 0.0000000 0.0000000 0.0000000 1.0000000 0.0013325 0.0001675 0.0022500 0.0000000 0.0000000 0.0004175 0.0010000 0.0017500 0.0000000 0.0003325 0.0101650 0.0000000 0.0000000 0.0000000 0.0100000 0.0000000 0.0000000 0.0000000 0.0000000 0.0000000 0.0000000 0.0055825 0.0000000 0.0002500 0.0000000 0.0000000 0.0000000 0.0000000 0.0147500 0.0372500 0.0372500 0.0000000 0.0000000 0.0099150 0.0000000 0.0199175 0.0000000 0.0010000 0.0003325 0.0000000 0.0000000 0.0046675 0.0005000 0.0000000 0.0000000 0.0000000 0.0009175 0.0008325 0.0004175 0.0049175 0.0047500 0.0006675 0.0051675 0.0000000 0.0000000
4:218136 0.0076650 0.0000000 0.0046675 0.0010000 0.0027500 0.0030825 0.0024175 0.0025825 0.0047500 0.0015000 0.0000825 0.0000000 0.0000000 0.0000000 0.0011675 0.0005000 0.0000000 0.0042500 0.0025000 0.0001675 0.0011675 0.0000000 0.0000000 0.0000000 0.0010000 0.0000000 0.0000000 0.0000000 0.0000000 0.0000000 0.0000000 0.0000000 0.0167500 0.0024175 0.0006675 0.0002500 0.0011675 0.0000000 0.0000000 0.0005000 0.0000000 0.0000000 0.0000000 0.0000000 0.0025825 0.0005000 0.0000000 0.0000000 0.0000000 0.0103350 0.0011675 0.0000000 0.0000000 0.0003325 0.0000000 0.0000000 0.0004175 0.0000000 0.0000000 0.0000000 0.0004150 0.0000000 0.0000000 0.0000000 0.0000000 0.0000000 0.0000000 0.0000000 0.0000000 0.0000000 0.0000000 0.0000000 0.0000000 0.0000000 0.0000000 0.0000000 0.0000000 0.0035000 0.0000000 0.0002500 0.0000000 0.0011650 0.0008350 0.0000000 0.0000000 0.0005850 0.0015850 0.0086675 0.0017500 0.0024150 0.0050000 0.0000000 0.0007500 0.0000825 0.0000000 0.0106675 0.0077500 0.0049175 0.0089175 0.0008350 0.0018325 0.0000000 0.0000000 0.0033325 0.0002500 0.0000000 0.0000000 0.0002500 0.0000000 1.0000000 0.0000000 0.0000000 0.0000000 0.0000000 0.0000000 0.0012500 0.0005850 0.0000000 0.0000000 0.0000000 0.0002500 0.0000000 0.0000000 0.0019150 0.0000000 0.0000000 0.0000000 0.0000000 0.0000000 0.0000000 0.0001675 0.0000000 0.0000000 0.0000000 0.0000000 0.0000000 0.0000000 0.0000000 0.0002500 0.0000000 0.0001675 0.0000000 0.0017500 0.0029150 0.0025000 0.0008325 0.0010000 0.0000000 0.0006650 0.0000000 0.0097500 0.0000000 0.0000000 0.0013325 0.0000000 0.0007500 0.0000000 0.0001675 0.0002500 0.0017500 0.0005825 0.0000000 0.0000000 0.0000000 0.0000000 0.0000000 0.0000000 0.0000000 0.0002500 0.0000000 0.0024175 0.0000000 0.0000000 0.0000000 0.0003350 0.0000000 0.0000000 0.0000000 0.0000000 0.0000000 0.0000000 0.0000000 0.0000000 0.0000000 0.0000000 0.0004175 0.0000000 0.0000000 0.0000825 0.0002500 0.0013325 0.0000000 0.0001675 0.0043325 0.0000000 0.0000000 0.0000000 0.0023325 0.0000000 0.0000000 0.0000000 0.0000000 0.0000000 0.0000000 0.0010000 0.0000000 0.0000000 0.0000000 0.0000000 0.0000000 0.0000000 0.0038325 0.0175825 0.0079175 0.0000000 0.0000000 0.0017500 0.0000000 0.0037500 0.0002500 0.0000000 0.0001675 0.0000000 0.0000000 0.0025000 0.0002500 0.0000000 0.0000000 0.0000000 0.0002500 0.0000000 0.0000000 0.0011675 0.0008325 0.0000000 0.0014175 0.0000000 0.0000000
4:218139 0.0293350 0.0004175 0.0341650 0.0040000 0.0144175 0.0315000 0.0161675 0.0188325 0.0319175 0.0074175 0.0036650 0.0011675 0.0004175 0.0000000 0.0083325 0.0046675 0.0000000 0.0305825 0.0146675 0.0045000 0.0067500 0.0000000 0.0030825 0.0002500 0.0076675 0.0000000 0.0001650 0.0007500 0.0000000 0.0000000 0.0000000 0.0000000 0.0635000 0.0160000 0.0115825 0.0002500 0.0064150 0.0002500 0.0000000 0.0036675 0.0003325 0.0000000 0.0000000 0.0005000 0.0122500 0.0010000 0.0000000 0.0000000 0.0000000 0.0366650 0.0163325 0.0002500 0.0000000 0.0006675 0.0008325 0.0002500 0.0018350 0.0000000 0.0000000 0.0000000 0.0019150 0.0000000 0.0000000 0.0000000 0.0000000 0.0010000 0.0004175 0.0000000 0.0000000 0.0000000 0.0000000 0.0000000 0.0000000 0.0000000 0.0000000 0.0000000 0.0000000 0.7975825 0.0000000 0.0017500 0.0016675 0.0051650 0.0066675 0.0002500 0.0005000 0.9991675 0.0057500 0.0693325 0.0085000 0.0319175 0.0379175 0.0000000 0.0033325 0.0005000 0.0000000 0.0645825 0.0630825 0.0264175 0.0605000 0.0108325 0.0070000 1.9737500 0.0000000 0.0224150 0.0005825 0.0000000 0.0006650 0.0007500 0.0000000 0.0000000 0.0000000 0.0002500 0.0002500 0.0000000 0.0006675 0.0070825 0.0061650 0.0281650 0.0000000 0.0009175 0.0024175 0.0013325 0.0000825 0.0111675 0.0000000 0.0000000 0.0000000 0.0002500 0.0000000 0.0000000 0.0000000 0.0001675 0.9850000 0.0000000 0.0000000 0.0000825 0.0000000 0.0000000 0.0007500 0.0000000 0.0007500 0.0001675 0.0068325 0.0122500 0.0115000 0.0047500 0.0051675 0.0000000 0.0089175 0.0004150 0.0450000 0.0002500 0.0000000 0.0037500 0.0000000 0.0055825 0.0000000 0.0010000 0.0028350 0.0106650 0.0026650 0.0000825 0.0000000 0.0000000 0.0000000 0.0000000 0.0000000 0.0000000 0.0004175 0.0005000 0.0128350 0.0000000 0.0000000 0.0000000 0.0015000 0.0000000 1.0000000 0.0000000 0.0000000 0.0000000 0.0000000 0.0000000 0.0000000 0.0000825 0.0000000 0.0016675 0.0000000 0.0000000 0.0014175 0.0031675 0.0045000 0.0000000 0.0009150 0.0121650 0.0000000 0.0000000 0.0000000 0.0055825 0.0000000 0.0000000 0.0000000 0.0003325 0.0000000 0.0000000 0.0059150 0.0000000 0.0000000 0.0000000 0.0000000 0.0000000 0.0000000 0.0284175 0.1290000 0.0479175 0.0000000 0.0000000 0.9417500 1.0000000 0.0225850 0.0016650 0.0008325 0.0026675 0.0000000 0.0000000 0.0119150 0.0014175 0.0000000 0.0001675 0.0000000 0.0047500 0.0007500 0.0006675 0.0065000 0.0049175 0.0008350 0.0045000 0.0000000 0.0000000
4:218143 0.0025825 0.0000000 0.0017500 0.0000000 0.0013325 0.0022500 0.0010825 0.0011675 0.0020000 0.0001675 0.0005850 0.0000000 0.0000000 0.0000000 0.0004175 0.0000000 0.0000000 0.0003350 0.0003325 0.0001675 0.0004175 0.0000000 0.0000000 0.0000000 0.0000000 0.0000000 0.0000000 0.0000000 0.0000000 0.0000000 0.0000000 0.0000000 0.0038325 0.0009175 0.0005825 0.0000000 0.0007500 0.0000000 0.0000000 0.0006675 0.0000000 0.0000000 0.0000000 0.0000000 0.0000825 0.0000825 0.0000000 0.0000000 0.0000000 0.0038325 0.0008350 0.0000000 0.0000000 0.0000000 0.0000000 0.0000000 0.0003325 0.0000000 0.0000000 0.0000000 0.0000000 0.0000000 0.0000000 0.0000000 0.0000000 0.0000000 0.0000000 0.0000000 0.0000000 0.0000000 0.0000000 0.0000000 0.0000000 0.0000000 0.0000000 0.0000000 0.0000000 0.0012500 0.0000000 0.0000825 0.0000000 0.0002500 0.0000825 0.0000000 0.0000000 0.0000000 0.0005000 0.0038350 0.0005000 0.0013325 0.0013325 1.0000000 0.0003325 0.0000000 0.0000000 0.0039175 0.0030850 0.0008325 0.0036675 0.0000825 0.0003350 0.0000000 0.0000000 0.0014150 0.0000000 0.0000000 0.0000000 0.0000000 0.0000000 0.0000000 0.0000000 0.0000000 0.0000000 0.0000000 0.0000000 0.0004175 0.0004175 0.0000000 0.0000000 0.0000000 0.0004175 0.0000000 0.0000000 0.0005000 0.0000000 0.0000000 0.0000000 0.0000000 0.0000000 0.0000000 0.0000000 0.0002500 0.0000000 0.0000000 0.0000000 0.0000000 0.0000000 0.0000000 0.0000000 0.0000000 0.0000000 0.0000000 0.0004175 0.0011650 0.0004150 0.0003325 0.0001675 0.0000000 0.0003325 0.0000000 0.0023325 0.0000000 0.0000000 0.0003350 0.0000000 0.0006675 0.0000000 0.0000000 0.0002500 0.0002500 0.0000000 0.0000000 0.0000000 0.0000000 0.0000000 0.0000000 0.0000000 0.0000000 0.0000000 0.0000000 0.0009175 0.0000000 0.0000000 0.0000000 0.0001675 0.0000000 0.0000000 0.0000000 0.0000000 0.0000000 0.0000000 0.0000000 0.0000000 0.0000000 0.0000000 0.0001675 0.0000000 0.0000000 0.0001675 0.0003325 0.0000000 0.0000000 0.0000000 0.0009175 0.0000000 0.0000000 0.0000000 0.0004175 0.0000000 0.0000000 0.0000000 0.0000825 0.0000000 0.0000000 0.0007500 0.0000000 0.0000000 0.0000000 0.0000000 0.0000000 0.0000000 0.0030000 0.0050825 0.0024150 0.0000000 0.0000000 0.0000825 0.0000000 0.0017500 0.0001675 0.0001675 0.0000000 0.0000000 0.0000000 0.0006675 0.0000000 0.0000000 0.0000000 0.0000000 0.0006675 0.0000000 0.0000825 0.0001675 0.0004150 0.0001675 0.0006675 0.0000000 0.0000000
4:218164 0.0008350 0.0000000 0.0007500 0.0001675 0.0001650 0.0008325 0.0006675 0.0005825 0.0002500 0.0002500 0.0000000 0.0000000 0.0000000 0.0000000 0.0000000 0.0002500 0.0000000 0.0002500 0.0000000 0.0000000 0.0000825 0.0000000 0.0001675 0.0000000 0.0000000 0.0000000 0.0000000 0.0000000 0.0000000 0.0000000 0.0000000 0.0000000 0.0023325 0.0005000 0.0002500 0.0000825 0.0002500 0.0000000 0.0000000 0.0000000 0.0000000 0.0000000 0.0000000 0.0000000 0.0000000 0.0000000 0.0000000 0.0000000 0.0000000 0.0010825 0.0003325 0.0000000 0.0000000 0.0000000 0.0000000 0.0000000 0.0000000 0.0000000 0.0000000 0.0000000 0.0000000 0.0000000 0.0000000 0.0000000 0.0000000 0.0002500 0.0000000 0.0000000 0.0000000 0.0000000 0.0000000 0.0000000 0.0000000 0.0000000 0.0000000 0.0000000 0.0000000 0.0009150 0.0000000 0.0000000 0.0000000 0.0000000 0.0002500 0.0000000 0.0000000 0.0000825 0.0000000 0.0020000 0.0004175 0.0010000 0.0031675 0.0000000 0.0006675 0.0000000 0.0000000 0.0029175 0.0032500 0.0010850 0.0025825 0.0003350 0.0004175 0.0000000 0.0000000 0.0008325 0.0000000 0.0000000 0.0000000 0.0000000 0.0000000 0.0000000 0.0000000 0.0000000 0.0000000 0.0000000 0.0000000 0.0002500 0.0003325 0.0000000 0.0000000 0.0000000 0.0001675 0.0000000 0.0000000 0.0001675 0.0000000 0.0000000 0.0000000 0.0000000 0.0000000 0.0000000 0.0000000 0.0000000 0.0000000 0.0000000 0.0000000 0.0000000 0.0000000 0.0000000 0.0000000 0.0000000 0.0000000 0.0000000 0.0000000 0.0004175 0.0005000 0.0000000 0.0005825 0.0000000 0.0000000 0.0000000 0.0016675 0.0000000 0.0000000 0.0001675 0.0000000 0.0000000 0.0000000 0.0000000 0.0000825 0.0001675 0.0000825 0.0000000 0.0000000 0.0000000 0.0000000 0.0000000 0.0000000 0.0000000 0.0000000 0.0000000 0.0006675 0.0000000 0.0000000 0.0000000 0.0000000 0.0000000 0.0000000 0.0000000 0.0000000 0.0000000 0.0000000 0.0000000 0.0000000 0.0000000 0.0000000 0.0000000 0.0000000 0.0000000 0.0000825 0.0002500 0.0000000 0.0000000 0.0000000 0.0003325 0.0000000 0.0000000 0.0000000 0.0004175 0.0000000 0.0000000 0.0000000 0.0000000 0.0000000 0.0000000 0.0005825 0.0000000 0.0000000 0.0000000 0.0000000 0.0000000 0.0000000 0.0013325 0.0052500 0.0010000 0.0000000 0.0000000 0.0000825 0.0000000 0.0004175 0.0000000 0.0012500 0.0000825 0.0000000 0.0000000 0.0005825 0.0000000 0.0000000 0.0000000 0.0000000 0.0000000 0.0002500 0.0000000 0.0003325 0.0000825 0.0001675 0.0000825 0.0000000 0.0000000
4:218174 0.0333325 0.0002500 0.0335825 0.0035825 0.0130850 0.0333325 0.0141675 0.0171675 0.0313325 0.0076650 0.0045825 0.0034175 0.0007500 0.0000000 0.0076675 0.0050000 0.0003350 0.0292500 0.0185850 0.0057500 0.0090825 0.0000000 0.0029150 0.0002500 0.0164150 0.0000000 0.0000000 0.0002500 0.0000000 0.0000000 0.0000825 0.0000000 0.0585000 0.0150825 0.0075000 0.0000000 0.0077500 0.0006650 0.0000000 0.0039150 0.0000000 0.0000000 0.0000000 0.0005000 0.0142500 0.0013325 0.0000000 0.0000000 0.0000000 0.0400000 0.0062500 0.0005000 0.0002500 0.0001650 0.0010850 0.0001675 0.0007500 0.0000000 0.0000000 0.0000000 0.0008325 0.0000000 0.0000000 0.0000000 0.0000000 0.0006675 0.0005825 0.0000000 0.0000000 0.0000000 0.0000000 0.0000000 0.0000000 0.0000000 0.0000000 0.0000000 0.0000000 0.7932500 0.0000000 0.0019175 0.0005850 0.0060000 0.0066675 0.0005850 0.0013350 0.9992500 0.0067500 0.0600000 0.0069150 0.0345825 0.0374175 0.0000000 0.0054175 0.0000825 0.0000000 0.0614175 0.0676650 0.0235000 0.0608325 0.0087500 0.0090850 1.9734150 0.0000000 0.0270825 0.0005000 0.0000000 0.0011675 0.0011675 0.0000000 0.0000000 0.0000000 0.0005850 0.0003325 0.0000000 0.0008350 0.0050850 0.0047500 0.0000000 0.0000000 0.0010000 0.0017500 0.0013350 0.0000000 0.0113350 0.0000000 0.0000000 0.0000000 0.0000000 0.0002500 0.0000000 0.0000825 0.0000825 0.9607500 0.0000000 0.0000000 0.0000825 0.0000000 0.0000000 0.0000000 0.0000000 0.0006675 0.0000000 0.0065850 0.0119175 0.0095825 0.0083325 0.0049175 0.0001675 0.0057500 0.0000000 0.0457500 0.0000000 0.0001675 0.0054175 0.0000000 0.0041675 0.0000000 0.0019175 0.0030000 0.0065850 0.0020000 0.0000000 0.0000000 0.0000000 0.0000000 0.0000000 0.0000000 0.0000000 0.0000825 0.0000000 0.0147500 0.0000000 0.0000000 0.0000000 0.0013325 0.0000000 1.0000000 0.0000000 0.0000000 0.0000000 0.0000000 0.0000000 0.0000000 0.0000000 0.0001675 0.0016675 0.0000000 0.0000000 0.0008325 0.0020000 0.0018325 0.0000000 0.0000000 0.0105000 0.0000000 0.0000000 0.0000000 0.0075000 0.0000000 0.0000000 0.0000000 0.0015000 0.0000000 0.0000000 0.0064150 0.0000000 0.0000000 0.0000825 0.0000000 0.0000000 0.0000000 0.0275825 0.1360850 0.0455850 0.0000000 0.0000000 0.9468325 1.0000000 0.0185825 0.0013350 0.0016675 0.0009175 0.0000000 0.0000000 0.0123325 0.0005000 0.0007500 0.0000000 0.0002500 0.0075825 0.0005000 0.0001650 0.0113325 0.0053325 0.0004175 0.0064150 0.0000000 0.0000000
4:218177 0.0293325 0.0002500 0.0262500 0.0043325 0.0139175 0.0304175 0.0125000 0.0118325 0.0294175 0.0064175 0.0025000 0.0006675 0.0002500 0.0000000 0.0061675 0.0040000 0.0002500 0.0286650 0.0112500 0.0023325 0.0075000 0.0000000 0.0009150 0.0002500 0.0035000 0.0000000 0.0000000 0.0002500 0.0000000 0.0000000 0.0000825 0.0000000 0.0279175 0.0071675 0.0059175 0.0000000 0.9980000 0.0000000 0.0000000 0.0021675 0.0000000 0.0000000 0.0000000 0.0000825 0.0085825 0.0002500 0.0000000 0.0000000 0.0000000 0.0259175 0.0071650 0.0001675 0.0000000 0.0033325 0.0300000 0.0000000 0.0007500 0.0000000 0.0000000 0.0000000 0.0012500 0.0000000 0.0000000 0.0000000 0.0000000 0.0007500 0.0002500 0.0000000 0.0000000 0.0000000 0.0000000 0.0000000 0.0000000 0.0000000 0.0000000 0.0000000 0.0000000 0.0162500 0.0000000 0.0010825 0.0010000 0.0014150 0.0035000 0.0002500 0.0004175 0.0002500 0.0031650 0.0246675 0.0046675 0.0066650 0.9556650 0.0000000 0.0032500 0.0008325 0.0000825 0.0310000 0.0280000 0.0131650 0.0300850 0.0035000 0.0048325 0.0000000 0.0000000 0.0133325 0.0002500 0.0000000 0.0001675 0.0004175 0.0000000 0.0000000 0.0001675 0.0000825 0.0000000 0.0000000 0.0002500 0.0046650 0.0038325 0.0000000 0.0000000 0.0000825 0.0030850 1.0000000 0.0000000 0.0058325 0.0000000 0.0000000 1.0000000 0.0000000 0.0000825 0.0000000 0.0002500 0.0000000 0.0000000 0.0000000 0.0000000 0.0001650 0.0000000 0.0000000 0.0000000 0.0000000 0.0003325 0.0001675 0.0022500 0.0071675 0.0063325 0.0090825 0.0122500 0.0000000 0.0052500 0.0005000 0.0288325 0.0003350 0.0000000 0.0033350 0.0000000 0.0039175 0.0000000 0.0015825 0.0028350 0.0042500 0.0024150 0.0000000 0.0000000 0.0000000 0.0000000 0.0000000 0.0000000 0.0000000 0.0004175 0.0000000 0.0051650 0.0000000 0.0000000 0.0000000 0.0010000 0.0000000 0.0000000 0.0000000 0.0000000 0.0000000 0.0000000 0.0000000 0.0000000 0.0000000 0.0000000 0.0031675 0.0000000 0.0000000 0.0001650 0.0022500 0.0023350 0.0000000 0.0005000 0.0060825 0.0001650 0.0000000 0.0000000 0.0028350 0.0000000 0.0000000 0.0000000 0.0011675 0.0000000 0.0000000 0.0045825 0.0000000 0.0000000 0.0001675 0.0000000 0.0000000 0.0000000 0.0152500 0.0275000 0.0275825 1.0000000 0.0000000 0.0031675 0.0000000 0.0113325 0.0002500 0.0080000 0.0009175 0.0000000 0.0000000 0.0084175 0.0002500 0.0003325 0.0000000 0.0000000 0.0033325 0.0010825 0.0005825 0.0076650 0.0042500 0.0001675 0.0025000 0.0000000 0.0000000
4:238785 0.2722500 0.0316675 0.0051675 0.0795850 0.0015850 0.0746675 0.0372500 0.0693325 0.2726675 0.0098325 0.0196650 1.0000000 1.0000000 0.0002500 0.0070000 0.0720825 1.0000825 0.0002500 0.0092500 0.0716675 0.0354175 0.0189175 0.0026675 0.0407500 0.0217500 0.0215000 0.0019150 0.3088325 1.3043325 0.9995000 0.0399150 0.0465000 0.2814175 0.3039175 0.3151675 0.2959175 0.0839175 0.0104175 0.0059175 0.7680000 0.0015850 1.5949150 0.2120000 0.0010000 0.7875825 0.0130000 0.0000000 0.0016675 0.0005850 0.2522500 0.0660825 0.2535000 0.0019175 0.1296675 0.0362500 0.0001675 1.0476675 0.0000000 0.0002500 0.0010000 0.1276675 0.0000000 0.0004175 0.5497500 0.0000000 0.1351675 1.0298325 0.0000000 0.0000000 0.0000000 0.0000000 0.0005825 0.2750825 0.0062500 0.0121675 0.0195000 0.0103350 0.2980000 0.0000825 0.9951675 0.9980825 0.1412500 0.0235000 0.0032500 0.1552500 0.9993325 0.0886675 0.3012500 0.0825850 0.0785000 0.2858325 0.2875825 0.2810000 1.0373325 0.2930825 0.0778350 0.2906650 0.3090850 0.2959150 0.2981675 0.0405000 0.2875825 0.1418325 0.2703325 0.0221650 0.0121675 0.2830825 0.0714175 0.0000000 0.0034150 1.2277500 0.2775000 0.0793325 0.2939150 0.0744175 0.1405000 0.1374150 0.2782500 0.9980850 0.0764175 0.1442500 0.3965000 0.2894175 0.2581650 0.9478350 0.0749175 0.0000000 0.2162500 0.0243325 0.0069150 0.2714175 0.0242500 0.0107500 0.0090825 0.0255825 0.0196675 0.2753325 0.2792500 0.0402500 0.0447500 0.2805825 0.0770000 0.1305825 0.1330850 0.1300825 1.0920825 0.2977500 0.2842500 0.2913325 0.3001675 1.2208325 0.2941650 0.1347500 0.2922500 0.1416675 0.0382500 1.0879175 0.0445000 0.2863325 0.2722500 0.2904175 0.2969150 0.1470825 0.5756675 1.0000000 0.0205000 0.9668325 0.9930825 0.0756650 0.1461675 0.1296675 0.1396675 0.2899175 0.0051675 0.2726675 0.0722500 0.0194175 0.0005000 0.0097500 0.0103350 0.0125000 0.1420825 0.0223325 0.1425850 0.0760000 0.0685825 0.0670825 0.2910000 0.0360000 0.2534175 0.2877500 0.1392500 0.1380000 0.1230825 0.1446675 0.9639175 0.2754175 0.2911650 0.0825850 0.0002500 0.0001675 0.2898325 0.0000000 0.0000000 0.2930000 0.3104175 0.0103325 0.0000000 0.0412500 0.0000000 1.9993325 1.1495825 0.2551675 0.3233325 1.9944175 0.9995825 0.3510825 0.0000000 0.0325850 0.0329150 0.1564175 0.1276675 0.0000000 0.0000000 0.0668325 0.0096675 0.0014150 0.0110825 0.1183325 0.0029175 0.0358325 0.0160825 0.0694175 0.7693350 0.0625825 0.0615000 0.0000000 0.0243325
4:238815 0.0328350 0.0049175 0.0000825 0.0073325 0.0002500 0.0100825 0.0034175 0.0114175 0.0391675 0.0014175 0.0034150 0.0001675 0.0000825 0.0000000 0.0003325 0.0089150 0.0020825 0.0000000 0.0005000 0.0085000 0.0045825 0.0013350 0.0005000 0.0040000 0.0023325 0.0006675 0.0000000 0.0168325 0.0000000 0.0000000 0.0013350 0.0044175 0.0334175 0.0395850 0.0207500 0.0018325 0.0107500 0.0004175 0.0006675 0.9997500 0.0002500 0.0000000 0.0000000 0.0004175 0.0024175 0.0000000 0.0000000 0.0007500 0.0000000 0.0385850 0.0194175 0.0320000 0.0000000 0.0104175 0.0001675 0.0000000 0.0162500 0.0000000 0.0001675 0.0000000 0.0094175 0.0000000 0.0000000 0.0000000 0.0000000 0.0176675 0.0011675 0.0000000 0.0000000 0.0000000 0.0000000 0.0000000 0.0000000 0.0000000 0.0002500 0.0000000 0.0000000 0.0070000 0.0000000 0.0010000 0.0000000 0.0182500 0.0011675 0.0000000 0.0102500 0.0000000 0.0100825 0.0359175 0.0039175 0.0058325 0.0179150 0.0392500 0.0106650 0.0165825 0.0036675 0.0073350 0.0195000 0.0420825 0.0386675 0.0391675 0.0044175 0.0002500 0.0000000 0.0400000 0.0020825 0.0010825 0.0171650 0.0103325 0.0000000 0.0005825 0.0009175 0.0410825 0.0070000 0.0409175 0.0100825 0.0179175 0.0170000 0.0009175 0.0006675 0.0110850 0.0174175 0.0015850 0.9531650 0.0343350 0.0002500 0.0107500 0.0000000 0.0003325 0.0070000 0.0008350 0.0416675 0.0013350 0.0007500 0.0012500 0.0006650 0.0018325 1.0002500 0.0188350 0.0055825 0.0040000 0.0394175 0.0100000 0.0165825 0.0166650 0.0175000 0.0189175 0.0352500 0.0374175 0.0400850 0.0414175 0.0099175 0.0408325 0.0194150 0.0335000 0.0100000 0.0058350 0.0179150 0.0021650 0.0405000 0.0383325 0.0386675 0.0356675 0.0233350 0.0015850 0.0000000 0.0035000 0.0185850 0.0004150 0.0097500 0.0182500 0.0115000 0.0193325 1.0355000 0.0002500 0.0369175 0.0056675 0.0016650 0.0000000 0.0015825 0.0007500 0.0010000 0.0184175 0.0030825 0.0179175 0.0086675 0.0115825 0.0042500 0.0354175 0.0045000 0.0296675 0.0313325 0.0208325 0.0189150 0.0140000 0.0089175 0.0046675 0.0404150 0.0337500 0.0013325 0.0000825 0.0000000 0.0361650 0.0000000 0.0000000 0.0170825 0.0000000 0.0000000 0.0000000 0.0000000 0.0000000 0.0000000 0.0190825 0.0257500 0.0400825 0.0000000 0.0000000 1.0000000 0.0000000 0.0042500 0.0002500 0.0005000 0.0180000 0.0000000 0.0000000 0.0071675 0.0008350 0.0000000 0.0013350 0.0092500 0.0002500 0.0010825 0.0005825 0.0085000 0.0000825 0.0000000 0.0089150 0.0000000 0.0000000
4:238824 0.0040000 0.0006675 0.0000000 0.0002500 0.0000825 0.0003325 0.0002500 0.0015000 0.0034175 0.0000000 0.0001675 0.0000000 0.0000000 0.0000000 0.0001675 0.0012500 0.0002500 0.0000000 0.0000000 0.0009175 0.0005825 0.0000825 0.0000000 0.0001675 0.0001675 0.0000000 0.0000000 0.0021675 0.0000000 0.0000000 0.0005000 0.0003325 0.0040000 0.0040825 0.0005825 0.0000000 0.0006650 0.0000000 0.0000000 0.0000825 0.0002500 0.0000000 0.0000000 0.0000000 0.0004175 0.0000000 0.0000000 0.0000000 0.0000000 0.0042500 0.0005000 0.0041675 0.0000000 0.0014175 0.0002500 0.0000000 0.0010850 0.0000000 0.0000000 0.0000000 0.0019150 0.0000000 0.0000000 0.0000000 0.0000000 0.0023325 0.0000000 0.0000000 0.0000000 0.0000000 0.0000000 0.0000000 0.0000000 0.0000000 0.0000000 0.0000000 0.0000000 0.0004175 0.0000000 0.0000000 0.0000000 0.0032500 0.0001675 0.0000000 0.0025000 0.0000000 0.0009175 0.0033350 0.0005825 0.0015000 0.0048325 0.0058325 0.0013325 0.0035850 0.0007500 0.0007500 0.0030000 0.0037500 0.0065000 0.0051650 0.0007500 0.0000000 0.0000000 0.0045000 0.0007500 0.0000000 0.0030825 0.0013325 0.0000000 0.0000000 0.0000000 0.0051675 0.0005850 0.0045000 0.0015000 0.0012500 0.0016675 0.0002500 0.0000000 0.0008325 0.0011650 0.0002500 0.0005000 0.0033325 0.0000000 0.0010000 0.0000000 0.0000000 0.0001675 0.0000000 0.0034175 0.0001650 0.0002500 0.0000000 0.0000000 0.0004175 0.0002500 0.0031675 0.0000825 0.0001675 0.0029150 0.0005000 0.0020825 0.0024150 0.0005000 0.0012500 0.0035000 0.0037500 0.0040825 0.0043325 0.0018350 0.0043325 0.0016650 0.0037500 0.0020825 0.0000825 0.0020000 0.0001675 0.0030000 0.0044150 0.0045825 0.0057500 0.0016650 0.0002500 0.0000000 0.0005850 0.0011650 0.0000000 0.0009175 0.0020825 0.0011675 0.0009175 0.0013325 0.0002500 0.0027500 0.3100000 0.0008325 0.0000000 0.0000000 0.0000825 0.0003325 0.0023350 0.0003325 0.0018350 0.0015850 0.0001650 0.0005000 0.0035850 0.0010825 0.0047500 0.0052500 0.0015000 0.0018350 0.0030000 0.0007500 0.0007500 0.0041675 0.0048325 0.0000000 0.0000000 0.0000000 0.0025825 0.0000000 0.0000000 0.0015000 0.0000000 0.0000000 0.0000000 0.0000000 0.0000000 0.0000000 0.0019175 0.0055850 0.0049175 0.0000000 0.0000000 0.0000000 0.0000000 0.0010850 0.0005000 0.0000000 0.0033350 0.0000000 0.0000000 0.0010825 0.0000000 0.0000000 0.0000000 0.0009175 0.0000000 0.0000000 0.0002500 0.0020000 0.0000000 0.0000000 0.0033325 0.0000000 0.0000000
4:238845 0.0010000 0.0000000 0.0000000 0.0005000 0.0000000 0.0002500 0.0000825 0.0000000 0.0007500 0.0000000 0.0000000 0.0000000 0.0000000 0.0000000 0.0000000 0.0005000 0.0000000 0.0000000 0.0000000 0.0006650 0.0001675 0.0000000 0.0000000 0.0001675 0.0000000 0.0000825 0.0000000 0.0006675 0.0000000 0.0000000 0.0001675 0.0002500 0.0015000 0.0010000 0.0003350 0.0000000 0.0004175 0.0000000 0.0000000 0.0000825 0.0000000 0.0000000 0.0000000 0.0000000 0.0000000 0.0000000 0.0000000 0.0000000 0.0000000 0.0021675 0.0000000 0.0005000 0.0000000 0.0000000 0.0000000 0.0000000 0.0007500 0.0000000 0.0000000 0.0000000 0.0000000 0.0000000 0.0000000 0.0000000 0.0000000 0.0000000 0.0000000 0.0000000 0.0000000 0.0000000 0.0000000 0.0000000 0.0000000 0.0000000 0.0000000 0.0000000 0.0000000 0.0010850 0.0000000 0.0000000 0.0000000 0.0020825 0.0003325 0.0000000 0.0013325 0.0000000 0.0002500 0.0022500 0.0002500 0.0008325 0.0021650 0.0033350 0.0012500 0.0010850 0.0002500 0.0003325 0.0015825 0.0010000 0.0027500 0.0013350 0.0008350 0.0000000 0.0000000 0.0018325 0.0000825 0.0000000 0.0008350 0.0002500 0.0000000 0.0000000 0.0000825 0.0008325 0.0001675 0.0004175 0.0008325 0.0003325 0.0011675 0.0001675 0.0000000 0.0001675 0.0011650 0.0000000 0.0000000 0.0011675 0.0000000 0.0002500 0.0000000 0.0000000 0.0000000 0.0000000 0.0007500 0.0000000 0.0000000 0.0000000 0.0000000 0.0000000 0.0000000 0.0005825 0.0000825 0.0000000 0.0016675 0.0005000 0.0004175 0.0013325 0.0003325 0.0005000 0.0015000 0.0005825 0.0010000 0.0010825 0.0010825 0.0009175 0.0006675 0.0006675 0.0005825 0.0000000 0.0005000 0.0001675 0.0004150 0.0014150 0.0010000 0.0025000 0.0008325 0.0000000 0.0000000 0.0000000 0.0001675 0.0000000 0.0000825 0.0003325 0.0001675 0.0003325 0.0000825 0.0000000 0.0014150 0.0004175 0.0000000 0.0000000 0.0002500 0.0000000 0.0000825 0.0004175 0.0000000 0.0000825 0.0000825 0.0001675 0.0003325 0.0011675 0.0002500 0.0014150 0.0017500 0.0006675 0.0005000 0.0002500 0.0000000 0.0000000 0.0009175 0.0015000 0.0000000 0.0000000 0.0000000 0.0010000 0.0000000 0.0000000 0.0009175 0.0000000 0.0000000 0.0000000 0.0000000 0.0000000 0.0000000 0.0010000 0.0040000 0.0007500 0.0000000 0.0000000 0.0000000 0.0000000 0.0000000 0.0000000 0.0000000 0.0021675 0.0000000 0.0000000 0.0001675 0.0000000 0.0000000 0.0000000 0.0011675 0.0000000 0.0000000 0.0001675 0.0007500 0.0000000 0.0000000 0.0003325 0.0000000 0.0000000
4:238880 0.0002500 0.0001675 0.0002500 0.0000000 0.0000000 0.0000000 0.0005000 0.0000000 0.0011675 0.0000000 0.0000000 0.0000000 0.0000000 0.0000000 0.0000000 0.0000000 0.0001675 0.0000000 0.0000000 0.0023325 0.0002500 0.0000000 0.0000000 0.0000000 0.0035000 0.0093325 0.0000000 0.0001675 0.0000000 0.0000000 0.0000000 0.0015000 0.0140000 0.0014175 0.0016675 0.0000825 0.0023325 0.0000825 0.0020000 0.0060850 0.0009175 0.0003325 0.0003325 0.0016675 0.0000000 0.0000000 0.0000000 0.0000000 0.0000000 0.0065000 0.0022500 0.0002500 0.0000000 0.0000825 0.0000000 0.0000000 0.0020000 0.0000000 0.0000000 0.0000000 0.0000000 0.0000000 0.0000000 0.0000000 0.0000000 0.0004175 0.0000000 0.0000000 0.0000000 0.0000000 0.0000000 0.0000000 0.0000000 0.0000000 0.0000000 0.0000000 0.0000000 0.0000000 0.0000000 0.0000000 0.0000000 0.0078325 0.0009175 0.0001675 0.0000825 0.0000000 0.0021675 0.0024150 0.0000000 0.0000000 0.0020850 0.0011675 0.0000000 0.0002500 0.0003325 0.0023325 0.0275825 0.0069150 0.0207500 0.0087500 0.0000825 0.0005850 0.0000000 0.0077500 0.0036675 0.0000000 0.0003325 0.0000000 0.0000000 0.0000825 0.0000000 0.0000000 0.0000000 0.0002500 0.0000000 0.0023325 0.0002500 0.0000000 0.0000000 0.0000000 0.0009175 0.0000000 0.0000000 0.0014175 0.0000000 0.0004150 0.0000000 0.0000000 0.0000000 0.0000000 0.0000000 0.0000000 0.0000000 0.0000000 0.0000000 0.0000000 0.0000000 0.0000000 0.0006675 0.0000000 0.0000000 0.0013325 0.0010000 0.0051675 0.0015825 0.0001675 0.0029175 0.0000000 0.0047500 0.0009175 0.0119175 0.0017500 0.0000000 0.0000000 0.0000000 0.0007500 0.0000000 0.0000000 0.0000825 0.0013325 0.0024150 0.0000000 0.0000000 0.0000000 0.0000000 0.0000000 0.0000000 0.0000000 0.0000000 0.0000825 0.0080825 0.0000000 0.0000000 0.0000000 0.0000000 0.0000000 0.0000000 0.0000000 0.0000000 0.0000000 0.0024175 0.0007500 0.0005000 0.0005825 0.0006675 0.0011675 0.0000000 0.0004175 0.0036675 0.0096675 0.0000000 0.0000000 0.9992500 0.0023325 0.0000000 0.0000000 0.0000000 0.0020000 0.0002500 0.0000000 0.0000000 0.0061675 0.0000000 0.0000000 0.0011675 0.0000000 0.0000000 0.0000000 0.0000000 0.0000000 0.0000000 0.0148325 0.0674150 0.0060825 0.0000000 0.0000000 0.0005000 0.0000000 0.0005825 0.0000000 0.0000000 0.0014150 0.0000000 0.0000000 0.0000000 0.0000000 0.0000825 0.0000000 0.0000000 0.0000000 0.0006650 0.0010000 0.0060000 0.0000000 0.0005000 0.0000000 0.0000000 0.0000000
4:238911 0.0005825 0.0000000 0.0001675 0.0000000 0.0000000 0.0000000 0.0001675 0.0000825 0.0009150 0.0000000 0.0009175 0.0000000 0.0000000 0.0000000 0.0002500 0.0000825 0.0000000 0.0000825 0.0001675 0.0077500 0.0022500 0.0000000 0.0000000 0.0000000 0.0035000 0.0070825 0.0000000 0.0002500 0.0000000 0.0000000 0.0000000 0.0010000 0.0127500 0.0012500 0.0003350 0.0000000 0.0010000 0.0000000 0.0009175 0.0125000 0.0000000 0.0002500 0.0005000 0.0018325 0.0000825 0.0000000 0.0000000 0.0000000 0.0000000 0.0168325 0.0082500 0.0004175 0.0000000 0.0005000 0.0000000 0.0000000 0.0027500 0.0000000 0.0000000 0.0000000 1.0001675 0.0000000 0.0003325 0.0000000 0.0000000 0.0012500 0.0000000 0.0000000 0.0000000 0.0000000 0.0000000 0.0000000 0.0000000 0.0000000 0.0004150 0.0000000 0.0000000 0.0000000 0.0000000 0.0004150 0.0000000 0.0042500 0.0005850 0.0000000 0.0000000 0.0000000 0.0047500 0.0041675 0.0000000 0.0000000 0.0015000 0.0026650 0.0000000 0.0003325 0.0002500 0.0024175 0.0111675 0.0045825 0.0127500 0.0071675 0.0000000 0.0016675 0.0000000 0.0171650 0.0070825 0.0000000 0.0002500 0.0001675 0.0000000 0.0000825 0.0002500 0.0000000 0.0000825 0.0006675 0.0000000 0.0062500 0.0001675 0.0000000 0.0000000 0.0002500 0.0024175 0.0002500 0.0000000 0.0075000 0.0000000 0.0010000 0.0000000 0.0000825 0.0000000 0.0000000 0.0009150 0.0000000 0.0002500 0.0005000 1.0000000 0.0000000 0.0000000 0.0000000 0.0005000 0.0006675 0.0011675 0.0024175 0.0027500 0.0067500 0.0032500 0.0006650 0.0115825 0.0000000 0.0124175 0.0043325 0.0129150 0.0030850 0.0000000 0.0001675 0.0000000 0.0018325 0.0005825 0.0000000 0.0004175 0.0064150 0.0050000 0.0000000 0.0005000 0.0000000 0.0000000 0.0000000 0.0000000 0.0000000 0.0000000 0.0000000 0.0154175 0.0000000 0.0003325 0.0000000 0.0000000 0.0000000 0.0000000 0.0000000 0.0000000 0.0000000 0.0076675 0.0003325 0.0013325 0.0025825 0.0013350 0.0017500 1.0000000 0.0034150 0.0035000 0.0082500 0.0000825 0.0000000 0.0012500 0.0090000 0.0000000 0.0000000 0.0002500 0.0030825 0.0003325 0.0000000 0.0000000 0.0080000 0.0000000 0.0000000 0.0018350 0.0000000 0.0000000 0.0000000 0.0000000 0.0000000 0.0000000 0.0116675 0.0148350 0.0120825 0.0000000 0.0000000 0.0005000 0.0000000 0.0012500 0.0000000 0.0000000 0.0015000 0.0000000 0.0000000 0.0001675 0.0000000 0.0000000 0.0000000 0.0000000 0.0000000 0.0011650 0.0010000 0.0137500 0.0000000 0.0016675 0.0005000 0.0000000 0.0000000
4:238920 0.0001675 0.0000000 0.0000000 0.0000000 0.0000000 0.0000000 0.0000000 0.0000825 0.0002500 0.0000000 0.0006675 0.0000000 0.0000000 0.0000000 0.0000000 0.0000000 0.0000000 0.0000000 0.0000825 0.0025000 0.0001675 0.0000000 0.0000000 0.0000000 0.0021675 0.0031675 0.0006675 0.0000000 0.0000000 0.0000000 0.0000000 0.0000000 0.0065825 0.0004150 0.0001675 0.0000000 0.0005825 0.0000000 0.0010825 0.0035825 0.0005000 0.0000825 0.0000000 0.0008325 0.0003325 0.0000000 0.0000000 0.0000000 0.0000000 0.0047500 0.0014175 0.0001675 0.0000000 0.0000000 0.0000000 0.0000000 0.0005850 0.0000000 0.0000000 0.0000000 0.0000000 0.0000000 0.0000000 0.0000000 0.0000000 0.0001675 0.0000000 0.0000000 0.0000000 0.0000000 0.0000000 0.0000000 0.0000000 0.0000000 0.0000000 0.0000000 0.0000000 0.0000000 0.0000000 0.0000000 0.0000000 1.0098350 0.0005000 0.0000000 0.0001675 0.0000000 0.0005850 0.0065000 0.0000825 0.0002500 0.0026675 0.0020000 0.0001675 0.0000000 0.0003325 0.0008325 0.0086650 0.0030850 0.0083325 0.0043350 0.0000000 0.0008350 0.0000000 0.0054150 0.0017500 0.0000000 0.0000000 0.0000000 0.0000000 0.0000000 0.0000000 0.0002500 0.0000000 0.0002500 0.0000000 0.0012500 0.0000000 0.0000000 0.0000000 0.0002500 0.0011675 0.0001675 0.0000000 0.0012500 0.0000000 0.0001675 0.0000000 0.0000000 0.0000000 0.0000000 0.0002500 0.0000000 0.0000000 0.0000000 0.0000000 0.0000000 0.0000000 0.0000000 0.0000000 0.0000000 0.0009175 0.0001650 0.0015000 0.0022500 0.0005000 0.0002500 0.0045000 0.0000000 0.0038325 0.0008325 0.0040000 0.0007500 0.0000000 0.0000000 0.0000000 0.0000825 0.0000000 0.0000000 0.0000000 0.0009175 0.0026675 0.0000000 0.0000000 0.0000000 0.0000000 0.0000000 0.0000000 0.0000000 0.0000000 0.0000000 0.0050825 0.0000000 0.0000000 0.0000000 0.0000000 0.0000000 0.0000000 0.0000000 0.0000000 0.0000000 0.0010000 0.0001675 0.0005850 0.0005000 0.0001675 0.0010825 0.0000000 0.0004175 0.0028325 0.0023325 0.0000000 0.0000000 0.0000000 0.0027500 0.0000000 0.0000000 0.0003325 0.0020000 0.0002500 0.0000000 0.0000000 0.0035825 0.0000000 0.0000000 0.0010825 0.0000000 0.0000000 0.0000000 0.0000000 0.0000000 0.0000000 0.0062500 0.0073350 0.0033325 0.0000000 0.0000000 0.0006675 0.0000000 0.0003325 0.0000000 0.0000000 0.0018350 0.0000000 0.0000000 0.0000000 0.0000000 0.0000000 0.0000000 0.0000000 0.0000000 0.2982500 0.0017500 0.0095825 0.0002500 0.0011675 0.0000000 0.0000000 0.0000000
4:238923 0.0071675 0.0067500 0.0020000 0.0000000 0.0035000 1.0000000 0.0017500 0.9995000 0.0220850 0.0001675 0.0104175 0.0000000 0.0000000 0.0000000 0.0003350 0.0014150 0.0031675 0.0011675 0.0009175 0.0839175 0.0199150 0.0000000 0.0006675 0.0000000 0.0355000 0.0690825 1.0014175 0.0010000 0.0000000 0.0000000 0.0005825 1.3998350 0.1585000 0.0196650 0.9738325 0.0015000 0.0168325 0.0006650 0.0380000 0.0718350 0.6391675 0.0049175 0.0010825 0.0225850 0.0014175 0.9705000 1.0000000 0.0000000 0.0000000 0.1670850 0.0808325 0.0055000 0.0000000 0.0065825 0.0032500 0.0001675 0.0458350 1.0000000 0.0008325 0.0000000 0.0036675 0.0000000 1.0000000 0.0000000 1.0000000 1.0000000 0.0004175 0.0000000 2.0000000 0.0000000 1.0000000 1.0000000 0.0000000 0.0000825 1.0000000 0.0000000 0.0000000 0.0000825 0.0000000 0.0070000 0.0000000 0.0365000 0.0120000 0.0010850 0.0029175 0.0000000 0.0188350 0.0720825 0.0030850 0.0004175 0.0079175 0.0182500 0.0008325 0.0095000 0.0070850 0.0207500 0.1352500 0.0820000 0.1550000 0.0735000 0.0004175 0.0203325 0.0000000 0.1600000 0.0854150 0.0000000 0.0050000 0.0018350 1.0000000 0.0027500 0.0010825 0.0003325 0.0015000 1.0000000 1.0000000 0.0409175 1.0000000 0.0000000 0.0000000 0.0055000 0.0389175 0.0060000 0.0000000 0.0893350 0.0009150 0.0127500 0.0000000 1.0000000 0.0000000 0.0002500 0.0060825 1.0000000 1.0000000 0.0078350 0.0000000 0.0002500 0.0001650 0.0000000 0.0051675 0.0054175 0.0125000 0.9947500 0.0498325 0.0870850 0.9946650 0.0110825 0.1613325 0.0005850 0.1621675 0.0421675 0.1650000 0.0431675 0.0001675 0.0062500 0.0000000 0.0217500 0.0044150 1.0000000 0.0056675 0.0860825 1.0725000 0.0001675 0.0039175 0.0000000 0.0000000 0.0002500 0.0003325 0.0000000 0.0000000 0.0000000 0.1775825 0.0011675 0.0020000 0.0000000 0.0001675 0.0000000 0.0000000 0.0000000 0.0000000 0.0000000 0.0886650 0.0105825 0.0118325 0.0199175 0.0203350 0.0253350 0.0010000 1.1588325 1.1647500 0.0800000 0.0049175 0.0009175 0.0099150 1.0886675 0.0000000 0.0000000 0.0013325 0.0491650 0.0010000 0.0001675 0.0000000 0.0738325 0.0000000 0.0000000 0.0198325 0.0000000 0.0000000 0.0000000 0.0002500 0.0000000 0.0000000 0.1498325 0.1270825 0.1592500 0.0000000 1.0000000 0.7945825 0.0000000 0.0210000 0.0000000 0.0000000 0.0242500 1.0000000 1.0000000 0.0005000 0.0000000 0.0008325 1.0000000 0.0000000 0.0000000 0.0219150 0.9894175 0.1640000 0.0000000 0.0104175 0.0020000 0.0000000 0.0000000
4:238947 0.0000000 0.0002500 0.0000000 0.0000000 0.0000000 0.0000000 0.0000000 0.0000000 0.0001675 0.0000000 0.0001675 0.0000000 0.0000000 0.0000000 0.0000000 0.0000000 0.0000000 0.0000000 0.0000000 0.0003325 0.0000000 0.0000000 0.0000000 0.0000000 0.0005825 0.0017500 0.0000000 0.0000000 0.0000000 0.0000000 0.0000000 0.0002500 0.0020825 0.0002500 0.0000000 0.0000825 0.0000000 0.0000000 0.0005000 0.0009175 0.0001675 0.0004175 0.0002500 0.0002500 0.0000000 0.0000000 0.0000000 0.0000000 0.0000000 0.0006650 0.0003350 0.0000000 0.0000000 0.0000000 0.0000000 0.0000000 0.0005000 0.0000000 0.0000000 0.0000000 0.0000000 0.0000000 0.0000000 0.0000000 0.0000000 0.0000825 0.0000000 0.0000000 0.0000000 0.0000000 0.0000000 0.0000000 0.0000000 0.0000000 0.0001675 0.0000000 0.0000000 0.0000000 0.0000000 0.0000000 0.0000000 0.0010000 0.0000000 0.0000000 0.0000000 0.0000000 0.0004175 0.0011650 0.0000825 0.0000000 0.0008350 0.0012500 0.0002500 0.0003325 0.0004175 0.0008325 0.0027500 0.0015000 0.0020000 0.0021675 0.0000000 0.0000825 0.0000000 0.0020000 0.0003350 0.0000000 0.0000000 0.0000000 0.0000000 0.0000000 0.0000000 0.0000000 0.0000000 0.0000000 0.0000000 0.0005000 0.0000000 0.0000000 0.0000000 0.0000000 0.0004175 0.0000000 0.0000000 0.0006675 0.0000000 0.0000000 0.0000000 0.0000000 0.0000000 0.0000000 0.0000000 0.0000000 0.0000000 0.0002500 0.0000000 0.0000000 0.0000000 0.0000000 0.0000000 0.0000000 0.0000000 0.0004150 0.0006675 0.0008325 0.0006675 0.0000000 0.0015825 0.0000000 0.0005825 0.0005000 0.0017500 0.0002500 0.0000000 0.0002500 0.0000000 0.0000000 0.0000000 0.0000000 0.0000000 0.0016650 0.0005000 0.0000000 0.0002500 0.0000000 0.0000000 0.0000000 0.0000000 0.0000000 0.0000000 0.0000000 0.0014175 0.0000000 0.0000000 0.0000000 0.0000000 0.0000000 0.0000000 0.0000000 0.0000000 0.0000000 0.0001675 0.0002500 0.0000000 0.0000000 0.0002500 0.0000000 0.0000000 0.0001675 0.0009175 0.0009175 0.0000825 0.0001675 0.0000000 0.0012500 0.0000000 0.0000000 0.0000000 0.0005850 0.0000000 0.0000000 0.0000000 0.0005850 0.0000000 0.0000000 0.0000825 0.0000000 0.0000000 0.0000000 0.0000000 0.0000000 0.0000000 0.0025000 0.0031675 0.0015000 0.0000000 0.0000000 0.0002500 0.0000000 0.0001675 0.0000000 0.0000000 0.0010000 0.0000000 0.0000000 0.0000000 0.0000000 0.0000000 0.0000000 0.0000000 0.0000000 0.0002500 0.0004175 0.0030825 0.0000000 0.0000000 0.0000000 0.0000000 0.0000000
4:294766 0.0012500 0.0000000 0.0000000 0.0005850 0.0004150 0.0000000 0.0019175 0.0018325 0.0000000 0.0000000 0.0000000 0.0000000 0.0000000 0.0000000 0.0000000 0.0000000 0.0000000 0.0000000 0.0000000 0.0000825 0.0000000 0.0000000 0.0005000 0.0000000 0.0006675 0.0000000 0.0005825 0.0000000 0.0000000 0.0000000 0.0002500 0.0000000 0.0038325 0.0020000 0.0007500 0.0000000 0.0002500 0.0002500 0.0035825 0.0014150 0.0001675 0.0000825 0.0000000 0.0024175 0.0000000 0.0000000 0.0000000 0.0000000 0.0000000 0.0016675 0.0001675 0.0002500 0.0000000 0.0000000 0.0000825 0.0000000 0.0028350 0.0000000 0.0000000 0.0000000 0.0000825 0.0000000 0.0000000 0.0000000 0.0000000 0.0007500 0.0002500 0.0000000 0.0000000 0.0000000 0.0000000 0.0000000 0.0000000 0.0000000 0.0000000 0.0000000 0.0000000 0.0003325 0.0000000 0.0016650 0.0000000 0.0029175 0.0019175 0.0000825 0.0000000 1.0000000 0.0004175 0.0002500 0.0005000 0.0009150 0.0004175 0.0000000 0.0001650 0.0001675 0.0007500 0.0040825 0.0024150 0.0001650 0.0012500 0.0002500 0.0000000 0.0003325 0.0000000 0.0007500 0.0006675 0.0001675 0.0004150 0.0000000 0.0000000 0.0001675 0.0001650 0.0000000 0.0000000 0.0000000 0.0002500 0.0000000 0.0009175 0.0000000 0.0000000 0.0001675 0.0000000 0.0018325 0.0000000 0.0005000 0.0001675 0.0001675 0.0000000 0.0000000 0.0000000 0.0000000 0.0000000 0.0000000 0.0000000 0.0000000 0.0000000 0.0000000 0.0000000 0.0000000 0.0000825 0.0000000 0.0010000 0.0000000 0.0006650 0.0011675 0.0000000 0.0001675 0.0015850 0.0000000 0.0000000 0.0000825 0.0025825 0.0000000 0.0003325 0.0001675 0.0000000 0.0000000 0.0000000 0.0000825 0.0020000 0.0000000 0.0019175 0.0001675 0.0002500 0.0000000 0.0000000 0.0000000 0.0001675 0.0003325 0.0000000 0.0000000 0.0013325 0.0000825 0.0000000 0.0000000 0.0008325 0.0000000 0.0000000 0.0000000 0.0000000 0.0000000 0.0000000 0.0000000 0.0000000 0.0007500 0.0014175 0.0011650 0.0027500 0.0002500 0.0036675 0.0036650 0.0000000 0.0000000 0.0000000 0.0002500 0.0000000 0.0000825 0.0000000 0.0015825 0.0000000 0.0003325 0.0000000 0.0005000 0.0000000 0.0000000 0.0035000 0.0000000 0.0000000 0.0000000 0.0000825 0.0000000 0.0000000 0.0011675 0.0044175 0.0031675 0.0000000 0.0000000 0.0005000 0.0000000 0.0037500 0.0000000 0.0000000 0.0005000 0.0000000 0.0000000 0.0006675 0.0000000 0.0000000 0.0000825 0.0002500 0.0002500 0.0025850 0.0002500 0.0022500 0.0000000 0.0000000 0.0000825 0.0000000 0.0000000
4:294772 0.2355825 1.9490000 1.0000000 1.3950000 0.9900000 1.8314175 0.4911650 1.2425850 1.0000000 0.0190825 1.0020000 0.0000000 1.0000000 1.0000000 1.7155000 1.0000000 0.0165825 0.0406650 0.9949150 1.5595000 1.0000000 0.0023325 0.1453350 1.9965000 0.0563350 0.0152500 0.0611675 1.0010825 1.0000000 0.0000000 1.9679175 0.0022500 0.3773325 0.1980000 0.2019150 1.0000000 0.0303350 1.0004175 0.3937500 0.2014150 0.1094150 0.0068325 0.0578350 0.1932500 0.0284175 0.0031650 0.0000000 0.0000000 1.0000000 0.4635850 0.8440000 0.0742500 1.0000000 0.0443325 0.0035825 1.0000000 0.4761675 0.0055000 0.0001650 0.0000000 0.0330850 1.0000000 1.0000000 0.0000000 0.0000000 0.2500825 0.1393325 1.0000000 1.9993325 1.0000000 0.0007500 0.0050825 0.0018350 1.0000000 0.0377500 0.0000825 1.0000000 0.0139175 0.0000000 0.1972500 1.0036675 0.1859150 0.1906675 0.0612500 1.0000000 0.0027500 1.6663325 0.0080000 0.1867500 0.9611675 1.0005825 0.0045000 0.0270825 1.0000000 0.1050825 0.3780000 0.3843325 0.0315000 0.9800850 0.0300825 0.0002500 0.0085825 0.0000000 0.1210825 1.5245000 0.0370825 0.1212500 1.0012500 0.0003325 0.0098325 0.0706675 0.0002500 0.0009150 1.0000000 0.9113325 0.0100000 0.1275000 0.0005000 1.0000000 0.0643350 0.0666675 0.4654150 0.0000000 1.3836675 1.0003325 0.9985000 1.0000000 0.0000000 1.0000000 1.0000000 0.0158325 0.0210000 0.9943325 0.0354175 0.0000000 0.0060850 1.9012500 0.0000000 1.6919150 1.0007500 0.2201675 0.9903325 0.1243325 1.0003325 1.0000000 0.9898325 0.2300000 1.0040825 1.0000000 0.0184175 0.4535825 1.0000000 0.9920000 1.0002500 0.0101650 0.0021675 0.0318325 0.0368325 0.2240825 0.0022500 0.2224175 0.0050825 0.0718350 1.0000000 0.0000000 0.0072500 1.0010850 0.0167500 0.0038325 1.0000000 0.2042500 0.0017500 0.0010000 0.0002500 0.2417500 0.0036675 0.0097500 0.0000825 0.0005000 0.9998325 0.0045000 0.0345000 0.0030000 0.1269150 0.9968350 0.2185000 0.4441675 0.0735825 0.1937500 0.4210000 1.0000000 0.0185000 0.0125000 1.3518325 0.0000000 1.0000000 0.0035000 0.2190850 0.0073325 1.0002500 0.0045000 0.1201675 0.0000000 0.0000000 0.4106675 0.0000000 1.0000000 0.0057500 0.0153325 1.0000000 0.0000000 0.2033325 0.2805000 0.4185000 0.0000000 1.0000000 0.0548325 0.0000000 0.4805000 1.0000000 1.0000000 0.0184175 1.0000000 0.0000000 0.9968350 0.0005000 0.0005000 0.9995825 0.9997500 0.9995000 0.4545825 1.0000000 0.2270000 1.0000000 1.9735825 0.0409150 0.0002500 0.0000000
4:294781 0.0020825 0.0000000 0.0000000 0.0003325 0.0004175 0.0001675 0.0041650 0.0027500 0.0000000 0.0003325 0.0000000 0.0000000 0.0000000 0.0000000 0.0000000 0.0000000 0.0000000 0.0002500 0.0005000 0.0001675 0.0000000 0.0000000 0.0019175 0.0000000 0.0007500 0.0000825 0.0010000 0.0009175 0.0000000 0.0000000 0.0000000 0.0000000 0.0120850 0.0045000 0.0036650 0.0000000 0.0006675 0.0010825 0.0113325 0.0050825 0.0026675 0.0001675 0.0000000 0.0048325 0.0002500 0.0000000 0.0000000 0.0000000 0.0000000 0.0060850 0.0008325 0.0009150 0.0000000 0.0010000 0.0000000 0.0003350 0.0044175 0.0000000 0.0000825 0.0000000 0.0005825 0.0000000 0.0000000 0.0000000 0.0000000 0.0021675 0.0010000 0.0000000 0.0000000 0.0000000 0.0000000 0.0000000 0.0000000 0.0000000 0.0000825 0.0000000 0.0000000 0.0000000 0.0000000 0.0050000 0.0003325 0.9447500 0.6206675 0.0002500 0.0001675 0.0000000 0.0005000 0.0001675 0.0033325 0.0019175 0.0002500 0.0000000 0.0009175 0.0002500 0.0019175 0.0100850 0.0105825 0.0000000 0.0025000 0.0010000 0.0000000 0.0001675 0.0000000 0.0012500 0.0005000 0.0004175 0.0019175 0.0000825 0.0000000 0.0001675 0.0007500 0.0000000 0.0000000 0.0000000 0.0000000 0.0000825 0.0019175 0.0000000 0.0001675 0.0010000 0.0003325 0.0067500 0.0000000 0.0011675 0.0006675 0.0005825 0.0000000 0.0000000 0.0000000 0.0000000 0.0000000 0.0000000 0.0004175 0.0003325 0.0000000 0.0000825 0.0001675 0.0000000 0.0000825 0.0002500 0.0035000 0.0003350 0.0029175 0.0025000 0.0000000 0.0003325 0.0025000 0.0003325 0.0000000 0.0001675 0.0068325 0.0000000 0.0001675 0.0002500 0.0000000 0.0003325 0.0009175 0.0009175 0.0023350 0.0000000 0.0030825 0.0000825 0.0008325 0.0000000 0.0000000 0.0001675 0.0000825 0.0000000 0.0000000 0.0002500 0.0056675 0.0000000 0.0000000 0.0000000 0.0017500 0.0000000 0.0002500 0.0000000 0.0000000 0.0000000 0.0000000 0.0001675 0.0000000 0.0010825 0.0013350 0.0028325 0.0047500 0.0006675 0.0076675 0.0110850 0.0000000 0.0000000 0.0000000 0.0030825 0.0000000 0.0000000 0.0000000 0.0048325 0.0005000 0.0009175 0.0000000 0.0018325 0.0000000 0.0000000 0.0088350 0.0000000 0.0000000 0.0003350 0.0001675 0.0001675 0.0000000 0.0040825 0.0250000 0.0075825 0.0000000 0.0000000 0.0009150 0.0000000 0.0062500 0.0000000 0.0001675 0.0005000 0.0000000 0.0000000 0.0009175 0.0000000 0.0000000 0.0000000 0.0005000 0.0001675 0.0047500 0.0000825 0.0035825 0.0000825 0.0000000 0.0014150 0.0000000 0.0000000
4:294802 0.0179150 0.0000000 0.0000825 0.0069150 0.0097500 0.0010000 0.0344150 0.0189175 0.0004175 0.0013325 0.0003325 0.0000000 0.0005000 0.0000000 0.0027500 0.0000825 0.0011675 0.0030000 0.0021650 0.0015850 0.0000000 0.0001675 0.0099150 0.0000000 0.0020825 0.0007500 0.0043325 0.0024175 0.0000000 0.0000000 0.0002500 0.0000000 0.0277500 0.0150000 0.0170000 0.0000000 0.0018350 0.0015000 0.0266675 0.0149175 0.0045000 0.0005000 0.0004150 0.0075825 0.0016675 0.0004175 0.0000000 0.0000000 0.0000000 0.0323350 0.0055000 0.0038350 0.0001675 0.0050000 0.0000825 0.0006650 0.0345000 1.0000000 1.0000000 0.0054150 0.0021675 0.0000000 0.0008325 0.0000000 0.0000000 1.0092500 0.0075825 0.0000000 0.0000000 0.0000000 0.0000000 0.0005825 0.0000000 0.0000000 0.0030000 0.0000000 1.0000000 0.0005000 0.0003325 0.0155000 0.0005825 0.0131675 0.0150850 0.0005000 0.0002500 0.0000000 0.0033325 0.0005825 0.0088325 0.0024175 0.0021675 0.0006675 0.0027500 0.0000000 0.0068350 0.0280825 0.0282500 0.0019175 0.0059150 0.0024175 0.0000000 0.0004175 0.0000000 0.0086675 0.0035850 0.0028325 0.0071675 0.0007500 0.0000000 0.0005850 0.0047500 0.0000000 0.0002500 0.0000000 0.0000000 0.0001650 0.0075825 0.0000000 0.0000000 0.0034175 0.0044175 0.0179175 0.0000000 0.0068350 0.0019175 0.0086675 0.0000000 0.0000000 0.0000000 0.0000000 0.0017500 0.0006650 0.0018350 0.0019150 0.0000000 0.0005825 0.0005000 0.0000000 0.0019150 0.0005825 0.0178350 0.0010850 0.0060825 0.0027500 0.0010000 0.0007500 0.0170000 0.0020000 0.0016650 0.0005825 0.0332500 0.0000000 0.0047500 0.0050000 0.0005000 0.0000000 0.0065000 0.0027500 0.0150825 0.0004175 0.0184150 1.3420000 0.0044175 0.0000000 0.0000000 0.0002500 0.0013350 0.0010825 0.0000000 0.0004175 0.0152500 0.0005825 0.0000000 0.0000000 0.0161650 1.0000000 0.0001675 1.0000000 0.0000000 0.0000825 0.0002500 0.0027500 0.0000000 0.0088325 0.0088325 0.0175000 0.0323325 0.0065000 0.0156675 0.0292500 0.0001675 0.0018350 0.0006675 0.0075825 0.0000000 0.0000000 0.0004150 0.0180825 0.0005825 0.0049150 0.0000000 0.0069175 0.0000000 1.0000000 0.0105850 0.0000000 0.0000000 0.0000000 0.0014175 0.0002500 0.0000000 0.0137500 0.0105825 0.0310825 0.0000000 0.0000000 0.0036650 0.0000000 0.0335850 0.0000000 0.0002500 0.0010825 0.0000000 0.0000000 0.0027500 0.0000000 0.0000000 0.0000825 0.0024175 0.0000000 0.0184150 0.0015000 0.0142500 0.0011675 0.0000000 0.0029150 0.0000000 0.0000000
4:294805 0.0050825 0.0002500 0.0000000 0.0020825 0.0023325 0.0006675 0.0100825 0.0065000 0.0005000 0.0000000 0.0001675 0.0000000 0.0005825 0.0000000 0.0005825 0.0002500 0.0003325 0.0006675 0.0008325 0.0007500 0.0000000 0.0000000 0.0033325 0.0000000 0.8131650 0.0002500 0.0039150 0.0011650 0.0000000 0.0000000 0.0000000 0.0000000 0.0165000 0.0070825 0.0067500 0.0000000 0.0013325 0.0019150 0.0164175 0.0065000 0.0023325 0.0003350 0.0005000 0.0019150 0.0003325 0.0000000 0.0000000 0.0000000 0.0000000 0.0166650 0.0015000 0.0010825 0.0000000 0.0016675 0.0000000 0.0004175 0.0119150 0.0000825 0.0000000 0.0000000 0.0005000 0.0000000 0.0000000 0.0000000 0.0000000 0.0054150 0.0036675 0.0000000 0.0000000 1.0000000 0.0000000 0.0000825 0.0000000 0.0000000 0.0012500 0.0000000 0.0000000 0.0000000 0.0000000 0.0074150 0.0004175 0.0180850 0.0098350 0.0006675 0.0000825 0.0000000 0.0016675 0.0000000 0.0035850 0.0010825 0.0023325 0.0001675 0.0019175 0.0004150 0.0034150 0.0179150 0.0152500 0.0012500 0.0057500 0.0024175 0.0001675 0.0000000 0.0000000 1.0152500 0.0019150 0.0011675 0.0036675 0.0001675 0.0000000 0.0003325 0.0017500 0.0000000 0.0000000 0.0000825 0.0000000 0.0000825 0.0035825 0.0000000 0.0000000 0.0020000 0.0011675 0.0119175 0.0000000 0.0037500 0.0006675 0.0044175 0.0000000 0.0000000 0.0000000 0.0000000 0.0009150 0.0000000 0.0006675 0.0007500 0.0000000 0.0005000 0.0000825 0.0000000 0.0008325 0.0001675 0.0081675 0.0005825 0.0030000 0.0018325 0.0010000 0.0004175 0.0065850 0.0007500 0.0012500 0.0012500 0.0132500 0.0000000 0.0020000 0.0014175 0.0000825 0.0000000 0.0020825 0.0010000 0.0041675 0.0000000 0.0052500 0.0002500 0.0015825 0.0000000 0.0000000 0.0000000 0.0004175 0.0004175 0.0000000 0.0000000 0.0065000 0.0000000 0.0001675 0.0000000 0.0067500 0.0000000 0.0000000 0.0000000 0.0000825 0.0000000 0.0000000 0.0001675 0.0003325 0.0035000 0.0029175 0.0056675 0.0112500 0.0013350 0.0075000 0.0141675 0.0005825 0.0005850 0.0001675 0.0042500 0.0000000 0.0000000 0.0000000 0.0065850 0.0003350 0.0017500 0.0000000 0.0034175 0.0000000 0.0000000 0.0055850 0.0000000 0.0000000 0.0002500 0.0005000 0.0000000 0.0000000 0.0075000 0.0280000 0.0154150 0.0000000 0.0000000 0.0022500 0.0000000 0.0128325 0.0000000 0.0000000 0.0008350 0.0000825 0.0000000 0.0020000 0.0000000 0.0000000 0.0001675 0.0009175 0.0000000 0.0063325 0.0001675 0.0083325 0.0006675 0.0002500 0.0007500 0.0000000 0.0000000
4:294822 0.0195000 0.0000000 0.0004175 0.0095850 0.0110825 0.0021675 0.0398325 0.0226675 0.0002500 0.0015825 0.0005825 0.0000000 0.0007500 0.0000825 0.0036675 0.0004175 0.0020825 0.0052500 0.0033325 0.0021675 0.0000000 0.0003350 0.0130000 0.0000000 0.0035825 0.0023350 0.0070850 0.0015825 0.0000000 0.0000000 0.0000000 0.0000825 0.0527500 0.0256675 0.0245000 0.0000000 0.0017500 0.0064150 0.0381650 0.0191650 0.0056650 0.0007500 0.0000000 0.0117500 0.0023325 0.0006675 1.0000000 0.0000000 0.0000000 0.0489150 0.0035000 0.0054175 0.0000000 0.0046675 0.0005850 0.0007500 0.0425000 0.0000000 0.0000000 0.0000000 1.0000000 0.0000000 0.0006650 0.0000000 0.0000000 0.0241675 0.0111650 0.0000000 0.0000000 0.0000000 0.0000000 0.0004175 1.0000000 0.0008325 0.0023325 0.0000000 0.0000000 0.0006675 0.0000000 0.0230000 0.0003325 0.0191675 0.0224175 0.0017500 0.0016675 0.0000000 0.0020825 0.0010825 0.0090825 0.9998325 0.0059175 0.0003325 0.0030850 0.0003325 0.0081650 0.0515000 0.0392500 0.0017500 0.0108350 0.0025000 0.0000000 0.0005000 0.0000000 0.0125000 0.0045000 0.0019175 0.0114175 0.0007500 0.0000825 0.0006675 0.0048325 0.0000000 0.0000000 0.0000000 0.0000000 1.0000000 0.0115825 0.0000000 0.0000000 0.0071675 0.0055000 0.0224175 0.0000000 0.0127500 0.0030000 0.0147500 0.0000000 0.0000000 0.0000000 0.0000000 0.0022500 0.0011650 0.0031675 0.0041675 0.0000000 0.0006675 0.0008350 0.0000000 0.0022500 0.0007500 0.0226675 0.0013325 0.0141650 0.0068325 1.0000000 0.0020850 0.0248325 0.0029175 0.0028350 0.0012500 0.0443325 0.0000000 0.0047500 0.0065000 0.0000825 0.0000000 0.0024175 0.0030825 0.0270000 0.0000825 0.0241650 0.0005000 0.0051675 0.0000000 0.0000000 0.0001675 0.0013325 1.0000000 0.0010000 0.0000825 0.0250000 0.0000000 0.0001675 0.0000000 0.0249175 0.0000000 0.0009175 0.0000000 0.0000000 1.0000000 0.0000000 0.0034175 0.0001650 0.0100850 0.0093350 0.0215000 0.0499175 0.0062500 1.0154150 0.0495000 0.0005850 0.0010825 0.0007500 0.0139150 1.0000000 0.0001675 0.0001650 0.0261675 0.0005000 0.0058350 0.0000000 0.0122500 0.0000000 0.0000000 0.0232500 0.0000000 0.0000000 0.0003325 0.0007500 0.0000000 0.0000000 0.0203325 0.0439175 0.0495850 0.0000000 0.0000000 0.0031650 0.0000000 0.0417500 0.0000000 0.0000825 0.0005000 0.0000000 0.0000000 0.0027500 0.0001675 0.0000000 0.0002500 0.0014175 0.0005825 0.0201650 0.0032500 0.0201675 0.0020000 0.0000000 0.0017500 0.0000000 0.0000000
